0,-0.00137651,-0.00475045,0.00248584,0.00386119,0.00108468,0.00100428,-0.000124451,0.00389609,0.000315318,0.00200454,0.00187284,-0.00129251,-0.000594095,-8.16343e-05,-0.000640682,0.00485978,-0.00118929,-0.00251102,-0.00421519,-0.00108714,9.06151e-05,-0.0020155,-0.00140955,-0.00480997,-0.000491005,0.00230952,0.0032229,0.000319668,0.00307815,-0.000305704,0.00177368,-0.00046588,0.00178347,0.000472418,0.000922983,0.000874237,0.000144843,0.0036681,-0.00154189,-0.00146212,-0.00122973,-0.00151336,0.00152834,-0.00177598,-0.0045259,-0.00155935,-0.00290788,-0.00210179,-0.00074543,-0.00253858,-0.00218565,-0.00136203,-0.00196038,0.000702397,0.000130678,0.00338125,0.00162563,-0.000488737,0.000218544,5.28847e-05,-0.000936959,0.00520574,0.000251766,0.00193036,0.00342663,-0.00209428,-0.00171191,-0.00214691,-0.00243719,-0.000975441,-0.00151902,-0.00401842,-0.00358142,-0.00417132,-0.00398197,-0.00299652,0.00116415,-0.00145059,-0.00185023,-0.00112891,-0.00203669,0.00127444,-0.00360909,-0.00155146,-0.00183267,0.000261116,0.00176735,-0.000127488,-0.0023816,-2.55585e-06,-0.0043975,-0.0036483,0.000679243,0.000232472,-0.00164978,0.00122267,0.00386138,0.00039009,0.00299046,0.000516792,-0.00250045,-0.00272231,-0.00200871,-0.00526692,-0.000776198,0.000244863,-0.00386551,0.00500679,-0.00456945,0.00254289,-0.00612858,-0.00291674,-0.0036484,-0.000272247,-0.000333866,0.00143687,-0.00068404,-0.00224499,-0.00609068,-0.00421592,-0.00365536,-0.00222099,-0.0027538,0.000176763,0.00107401,-0.000661598,-0.00335067,0.00214141,-0.000457218,0.00087432,-0.00259564,-0.00288929,-0.00271804,-0.00229023,-0.00114773,-0.00151558,0.00074728,0.00106263,-0.00502192,-0.00298324,-0.000485323,-0.0011354,-0.00237528,-0.00196608,0.000602285,0.000833105,-0.002544,-0.0064595,-0.00339357,0.0005853,-0.000132684,0.00389394,-0.00218885,-0.00107414,-0.00247471,0.00363259,0.00455266,-0.00375176,0.000263935,0.00195402,0.0012075,-0.000779817,0.000206522,-0.000692494,0.00125094,-0.000272042,0.00256651,0.00031785,0.00181027,0.00349739,-0.000302726,0.00376772,0.00314003,0.00618272,0.0048628,0.000316159,-0.00128079,-0.000853744,0.000414469,-0.000668595,-0.00187139,0.00187174,0.00316276,0.00528065,0.00178335,-0.00105913,-0.00122115,-0.00303427,-0.003033,-0.00375883,0.00298082,0.00547366,0.00574067,0.00713012,0.0035043,0.00251041,0.000941444,0.00419258,0.00364426,0.00158195,0.00193541,0.00551366,0.000505012,0.0043908,0.00136066,-0.00110728,0.000943801,0.00303901,-0.00101578,0.00391729,0.000810692,0.00218105,0.00106552,0.00340957,0.000780349,0.001903,0.00156397,0.0044097,0.00110251,-0.0026068,-0.00026415,-0.00398723,-0.000895445,0.00189047,0.00128516,0.00288036,0.000859564,0.000800265,-0.00169974,-0.00384107,-0.000703359,-0.00233178,0.00287042,-0.00164481,-0.00343411,-0.000632118,-0.00709428,0.000303083,-0.00280016,0.0013427,-0.00309715,-0.0025825,0.000104511,-0.00319615,0.00144618,0.00150278,-0.00376767,-0.00178243,-0.000362004,-0.00145389,-0.00822589,-0.00346452,-0.00454453,-0.000800188,-0.00683353,-0.00417515,-0.006322,-0.00133031,-0.00325211,-0.00665007,-0.00306159,-0.00469566,-0.00208393,-0.000279434,-0.00665641,0.00120745,-0.00242767,-0.00518204,-0.0103723,-0.00388871,0.00123614,-0.00202989,-0.00356949,-0.00021748,0.00158538,0.000307355,-0.00245882,0.000499075,0.00132325,0.000504592,3.98991e-05,0.00222348,-0.00406294,-0.0028788,-0.000572884,-0.00484567,-0.00276803,-0.0017266,0.00119046,0.00201691,-9.35921e-05,-0.00368419,-0.00138131,0.00500843,0.00348408,-0.000606757,-0.00318827,-0.00432795,-0.00153857,-0.000413479,-0.00226067,-5.55559e-05,-0.00162329,-0.00227591,-0.000159671,-0.00251841,0.00161777,0.002321,0.000794854,-0.0012375,-0.00144264,0.0017835,-0.00229594,0.000156912,-0.00211931,-0.00286794,0.00408364,-0.00166,-0.00169131,-0.00274886,-0.000175153,-0.000639932,-0.000733551,0.000253861,-0.000161762,0.000396968,-0.000229027,0.00397812,-0.00238945,-0.00238632,-0.00118341,-0.00259539,-0.000465172,0.000312806,-0.00171852,-0.000681422,-0.000315415,-0.00123297,-0.00340874,-0.00247916,-0.000465992,-0.00304338,-0.00483137,-0.00205011,-0.000325445,0.00141971,-0.00249172,0.000184482,0.000565893,-0.00211665,0.00164844,0.00341372,0.002158,0.00219418,0.00573594,0.00303181,0.00176779,-0.00212979,0.000540339,0.00170831,0.00437294,0.00305884,0.00213213,0.00380114,0.00328713,-0.00237987,0.000862458,0.00257216,0.00263502,0.00193177,-0.000643222,-0.00102429,0.00132036,0.000126832,0.000402771,0.00817838,0.00402187,-0.00167102,-0.00572202,-0.00519397,-0.00794706,-0.000572563,-0.000957067,-0.00426274,-0.00276033,0.000341435,0.000833995,-0.00188173,-7.33971e-05,-0.00212441,-0.00360292,0.00460552,-0.000999748,-0.00214976,0.00334102,-0.00174833,-0.00346836,-0.000554207,-0.00346266,-0.00301199,0.000434519,-0.00446691,-0.00733468,-0.00870185,-0.00756492,-0.00239457,-0.00365336,0.00388246,-0.00313484,0.00229998,-0.00153572,-0.00351384,-0.000720108,-0.00387929,-0.00930706,-0.00237575,-0.0050102,-0.0058735,-0.000715588,-0.00465715,0.000889841,0.00364995,-0.00243422,-0.00332549,0.00469631,-0.00119555,0.00863692,0.00770064,0.00299488,-0.00117935,0.00589565,0.00548599,-0.00190064,-0.00175416,0.00416104,0.000514421,0.000490271,0.00575491,0.00621426,0.0066295,0.00149432,0.00292769,0.00715001,0.00267049,-0.000357729,-0.00880781,-0.00248225,0.0024748,0.00226185,-0.000829348,0.00383154,-0.00988025,-0.00295578,0.00554278,0.00415162,0.00341234,0.00198106,-0.00456549,-0.00582807,-0.00378207,-0.000698255,0.00225303,-0.000300099,0.00483465,0.000365274,-0.000323322,-0.00170543,0.0050922,-0.00401781,-0.00125353,0.00131965,0.0010083,-0.00023265,0.00309995,0.0048459,0.00269959,0.000584681,0.000786494,-0.000770335,0.0070579,-0.00295672,0.00218187,-0.00169492,0.00274859,-0.000621284,0.00166394,-0.00027119,-0.00241456,0.000700262,0.000663629,0.00182153,0.00308435,-0.0015992,-0.00208525,-0.000229927,0.000248453,0.00210607,0.00451127,0.00241709,0.00523627
1,4.84353e-05,-0.00382636,0.00195603,0.00253985,0.000559792,-0.00280242,0.0012838,0.00224321,-0.00125336,0.00121007,0.00166796,-0.00224687,0.00186756,-0.00272334,0.0018527,0.0050438,0.00119098,-0.00102144,-0.0045564,0.000855701,0.00167573,-0.00143871,-0.000719795,0.000199935,-0.00020435,-0.00114691,0.00192965,0.000558626,0.000466253,-0.00617191,0.00179111,-0.000259323,-0.000279446,-0.00293427,0.00130164,0.000404773,-0.00158823,0.00301876,0.00022024,-0.00121923,-0.000984109,-0.00123283,0.00120904,-0.000588106,-0.00413936,0.00101004,-0.000853542,-0.00172324,-0.00226531,0.00041007,0.00155828,0.00204188,-0.000306173,-0.0028417,0.0019933,0.00202314,-0.00123178,-0.00111874,0.00304922,0.00277962,0.000438596,0.00352763,0.000925118,0.00239143,-9.74573e-05,-0.00140331,-3.65409e-05,-0.00334536,-0.00409613,-0.00200278,-0.00109764,-0.00152457,-0.00300623,-0.00401868,-0.00304879,-0.00239067,-0.0019512,0.00130074,0.00196268,-0.00187127,6.66397e-05,0.00157067,0.00309261,-0.00131063,0.00569226,0.00040847,-0.000740365,-0.00137461,-0.000930241,0.00146755,-0.00236385,-0.00367153,-0.00133744,0.00286785,-0.00238904,0.000148951,0.00303573,-0.000433675,0.0012437,0.00110545,-0.0033228,-0.00130173,-0.000113669,-0.00052742,0.000839271,0.000877322,-0.000408233,0.00399168,-0.000233496,0.00301556,-0.00143113,-0.00204669,-0.00521623,0.000195721,-0.000647759,0.0008235,0.00116569,-0.00105336,-0.00287426,-0.00473032,-0.00793001,-0.00534338,-0.00324585,0.00166582,-0.000745262,0.000447277,0.00151376,0.00537865,0.00167369,-0.000100151,0.00227084,0.00112188,0.0038936,0.00312698,-0.000948642,-0.00427207,-0.000911736,0.00389404,-0.00146086,-0.00423166,-0.00087031,0.000950585,-0.00327053,-0.000538127,0.000347341,-0.00318227,-0.00119802,-0.00399653,-0.0048408,0.000688617,-0.00458713,-0.00438053,-0.0018106,-0.00366177,0.000677888,0.00270855,0.000822254,-0.00297133,0.000771626,0.00198918,-0.000405647,-0.000841332,-0.000581991,-0.0037398,0.0016582,0.00119507,-0.000515382,-0.00108638,-0.00421108,-0.00258186,-0.00190934,-0.00229295,-0.000620443,-0.00170193,-0.00161472,-0.00714809,-0.00193989,0.00202263,0.00181092,0.000116636,-0.00620338,-0.000109272,-0.00361514,0.00171562,-0.00561578,-0.0019608,0.00326746,0.0020653,-0.00274407,-0.00601428,0.00431545,0.00174093,0.0037115,0.00133283,0.00291882,0.00605396,0.00406291,0.00469226,0.00220194,0.000537785,-0.00102076,0.0019049,0.00281366,0.00294343,-0.00124442,0.00190558,-0.00102117,-0.00300933,-0.00294381,-0.000889385,0.00150634,-0.000763806,5.4654e-05,0.00177011,-0.00155751,0.000606614,-0.00379105,0.00084624,-0.00406283,-0.00672082,-0.00106976,-0.00347832,-0.00408373,-0.00193612,-0.0023208,-0.00254142,-0.00240708,-0.00378268,-0.00238341,-0.000717037,-0.00146069,-0.0023785,0.00119422,-0.00370479,0.00290896,0.00223915,-0.00219091,0.00475306,-0.00382915,0.0036516,0.00054716,-0.000338099,-0.00327307,0.00241186,0.000488707,0.00224661,-0.0024897,-0.000412194,-0.00483502,-0.00378613,-0.00489812,-0.00290458,-0.0034929,0.00153014,-0.000503105,-0.000398798,-0.00469707,0.00338675,-0.000985013,-0.00340831,-0.00308475,0.000752292,0.00137311,4.72176e-05,-0.00227524,-2.07375e-05,0.00190083,-0.000844269,-0.00687553,-0.00462155,-0.000400219,-0.00151223,-0.000270567,-0.00185093,-0.00234306,-0.00265909,-0.007343,-0.0012318,0.0034194,-0.0041888,-0.00329185,0.00012014,-0.00413375,-0.000387252,0.000663164,-0.00341205,-0.00182811,-0.000344818,-0.000389131,0.000248946,-0.00283601,-0.00348285,-0.00207334,0.00187941,-0.00411375,-0.00445883,-0.00552903,-0.00632129,-0.00544517,-0.00419376,-0.00454094,0.00071709,-0.000629331,-0.00221424,0.00167004,0.000611449,0.00488453,-0.00255877,0.00145596,-0.00250454,-0.000393355,0.000871722,0.00531993,0.00149624,0.00159809,-0.00179821,0.000894195,0.0018473,-0.000328364,-0.00367735,-0.000803518,-0.000221598,0.000288774,-0.00230099,-0.00245959,-0.00237472,-9.32206e-06,0.00059515,-0.00246279,-0.00109567,-0.00324123,0.00162804,0.00183408,-1.95202e-05,-0.000852313,0.000203971,0.00101598,-0.0022615,0.0010274,0.000190639,-0.000664839,0.000952862,-0.00150805,-0.00487057,-0.000907939,-0.00222179,-0.000134718,0.00058067,-0.00103138,-0.00163327,-0.000834791,-0.00015973,0.0027142,0.000195984,-0.000281189,0.00176363,-0.00148697,0.00332773,0.000599835,-0.00313271,0.00489949,0.00384523,0.00354445,0.00563656,0.00417902,0.005877,0.000246264,-0.000207085,0.00185272,0.00102438,0.000118037,-0.000136498,-0.00107867,0.00271899,0.00108686,0.00500446,-0.00183721,-0.00760278,-0.00574649,-0.00458718,-0.00430749,0.000667275,-0.00396437,-0.00547822,-0.00637561,-0.00495547,-0.00274881,-0.00555055,-0.00253506,-0.00449183,-0.00398475,0.0026337,-0.00409476,-0.00284759,0.00245519,-0.00421112,-0.00832473,-0.00432881,-0.00521226,-0.00303655,-0.000400602,-0.00615975,-0.00446084,-0.00616866,-0.00299548,-0.00282606,0.00181139,0.00381979,-0.00233638,0.00091702,-0.00311164,0.00197304,0.00122221,-0.000979856,-0.00390814,-0.00334513,-0.00296465,-0.00160603,-0.00198882,-0.00602139,-0.00132318,-0.00275673,-0.00457197,-0.00223647,0.00118677,-0.00148538,-0.000608188,-0.00290665,-0.00154035,-0.000155106,-0.000316958,0.00314937,-0.0014748,-0.00150374,0.00268263,0.00189573,0.0020016,-0.0033134,-0.00193367,-0.00341666,-0.00442095,-0.000487831,0.00309754,-0.00112875,-0.00196591,-0.00169679,0.00433715,0.0011541,0.00447288,-0.00189071,0.00213686,-0.000892829,0.0012894,-0.00501166,-0.000423767,0.00536104,-0.00023263,-0.00490418,0.00064937,-0.00112091,0.00168192,0.00235731,-0.00140742,0.0073136,0.00341953,-0.000761866,0.000178501,0.00561974,0.00311446,0.00449025,0.00509439,0.00186955,0.00249652,0.00590662,0.00629304,0.00255649,0.001011,0.00260173,0.000473523,0.00294018,-0.00158526,0.00437833,-0.00129398,0.00182212,-0.000728596,0.00135655,-0.00223227,-0.00342732,0.000882395,-0.0021692,0.00241257,0.000388472,-0.00172567,0.0018633,0.00185401,0.00097139,-0.000594464,-0.000571387,0.00139253,-0.00393666
2,0.00405819,0.000312478,0.00137814,-0.000676388,-0.00225498,-0.000427085,-0.00193267,0.000144774,-0.000880147,-0.00062415,-0.000730768,-0.00145163,0.00379277,-0.000145999,0.00485067,-0.0028025,-0.000443798,0.000626949,-0.00451936,-0.00130474,-0.00102815,-0.00304292,-0.00122863,-0.00183125,0.000639116,0.00290638,-0.000668664,-0.000863281,0.0019189,-0.000849484,-0.00113941,0.000473976,0.00296065,0.00101803,-0.000315948,0.00160181,-0.00119014,0.000107313,-0.00014887,0.00214125,0.00118994,0.00266278,0.000776698,0.00135972,-0.0015016,0.000960453,1.86848e-05,-0.00180487,0.000171334,0.00245763,0.00222046,-0.000325367,-0.00142546,0.00229212,0.000981029,0.00159223,-0.000526378,-0.000497937,0.00105801,0.00104938,0.00132287,-0.00276741,0.00158771,-0.000102068,0.000102208,-0.00888885,-0.00125528,-0.00361189,-0.00306763,-0.00175413,-0.00650556,-0.00239698,-0.00105309,-0.00279665,-0.00446443,-0.00203539,0.00235146,-0.00246064,0.000851241,-0.00106163,-0.000520462,0.000477931,0.00196869,-0.00307857,-0.00209807,-0.0013091,-0.000926713,-0.000472851,-0.000990393,0.000454846,0.00159898,-0.00164312,-0.00230958,0.00164415,-0.00315004,-0.000124012,0.00106036,0.000354227,-0.00550549,-0.00233839,-0.00416002,-0.00246807,-0.00123171,-0.00546607,-0.00212373,-0.00179289,-0.00412218,-0.000847076,0.000479695,0.00230749,-0.00251928,-0.000698034,-0.00192585,-0.00151615,-0.000302658,-0.0010875,-0.000874554,-0.00249744,0.000325801,-0.000712377,-0.00177147,0.00108021,-0.000649219,-0.000378389,-0.00187751,0.00393223,0.00467188,0.00567023,-0.00193235,-0.00129677,0.00348533,0.00421697,0.00412757,0.001384,-0.00174742,-0.00291681,-0.00399667,-0.00111923,-0.00164654,-0.00416455,-0.00545624,-0.00656502,-0.00652883,-0.00120902,-0.0019415,0.00233697,0.00301681,7.86831e-05,-0.00361769,-0.00448675,7.44272e-05,-0.00545108,-0.00162714,-0.00419077,-0.00274993,-0.00187038,-0.00406233,-0.00131643,0.00022472,-0.00135104,-0.00153585,0.00371308,-0.00167512,-0.00314258,0.00220368,0.00150012,-0.00711845,-0.00204891,0.00201794,-0.00310331,-0.00520406,-0.00761919,0.000934151,-0.000643855,-0.00063189,-0.000980306,-0.00114727,8.51647e-05,0.00127424,0.000904264,-0.00300057,-0.00055707,-0.00364951,-0.00342092,-0.00515553,-0.00498232,-0.000631686,0.00128917,0.00323519,-0.00112178,0.00247487,0.00110653,-0.00220497,0.00315095,0.000898641,0.000268313,0.000567316,0.00100352,-0.00161768,0.00268847,0.00358284,0.000452625,0.00241136,0.00261657,0.00109817,0.00039443,-0.000470935,-0.00309986,-0.00200559,-0.00418526,0.00258407,0.00302386,-0.00067024,0.00269169,-0.00235823,-0.00391274,-0.00189121,-0.00423461,-0.000652621,-0.000392531,0.000709432,-0.00427111,-0.000404597,-0.00113222,-0.00248541,-0.00544576,-0.00200414,-0.00289054,-0.000856775,-0.000992739,-0.00116937,-0.0035686,0.000282081,-0.00349341,-0.00425296,-0.00533449,-0.0004397,0.000835908,-0.000836918,0.00267884,-0.00116939,-4.37697e-05,-0.00248919,0.00522319,0.00110942,0.00251095,0.000146791,-0.00128017,-0.00389623,-0.00434121,-0.000304162,-0.000970659,-0.00258339,0.00143852,-0.000803496,-0.00161828,-0.00389866,-0.00425905,-0.000883523,-0.00124029,-0.00196143,0.00304395,0.00484438,-0.0013918,0.00298659,-0.00297967,-0.00255798,0.00086824,0.00059178,-0.00339025,0.00106342,-0.000997066,-0.000494501,0.00138201,-0.00279054,-0.00174528,0.00247988,-0.00321838,-0.00102897,-0.00382613,0.000611216,-0.00365986,0.0068752,-0.00195892,-0.00368958,0.00460114,-0.00314028,-0.00474726,0.00418849,-0.00311647,-0.000488712,0.000626136,-0.00413942,-0.000798134,-0.00336817,-0.000424191,-0.00224472,-0.00605442,-0.00554228,-0.00473023,0.000857417,0.000250956,0.0020243,-0.0013229,-0.00140126,-0.00195567,-0.000797342,0.00280285,-0.00168063,-0.00105578,-0.000578726,-0.000352642,-0.000498776,0.00146415,0.00260635,0.000885617,0.000303903,-0.00166347,-0.00260396,-0.00141762,-0.00311675,-0.0010654,-0.00244383,-0.0034012,-0.00232077,-0.00210456,-0.00155905,0.00101822,-0.0021436,-0.000580157,0.000765626,0.000438665,0.000447363,0.00268611,-0.00165907,-0.00262192,-0.00222208,-0.0022582,0.00188242,-0.000170177,-0.000425731,0.000759708,-0.00429891,-0.00178092,-0.000510716,-0.00238019,0.000661384,-0.000228076,0.000584158,0.00138126,0.000333301,0.00174302,-0.00186092,-0.00223849,-0.000613105,0.000423216,-0.00253197,0.00234792,-0.000829808,-0.00351247,-3.81256e-06,-0.00158885,-0.000760178,0.00202908,0.00339024,0.00145836,-0.00229127,-0.00185141,-0.00143316,-0.00183332,-0.00216567,-0.00187811,-0.00304267,-0.00196161,0.000213004,0.00402038,0.000309676,-0.00936556,-0.00722187,-0.00141956,0.00286857,-0.00534586,-0.00563719,-0.00126595,-0.00218508,-0.00070812,-0.00456582,-0.0061569,-0.0043161,-0.0020976,-0.0057899,-0.00663708,-0.00191284,-0.00425226,0.00324623,-0.00125085,-0.000448171,-0.00557346,-0.00278165,0.00139188,0.00203435,0.00507075,-0.00249685,-0.00172456,-0.00250341,0.00210517,0.00342457,0.00307064,0.00128413,0.00430782,0.00347949,0.00310173,0.000145284,-0.00365094,0.00111085,0.00046759,-0.0086066,-0.000257832,0.00249191,-0.00395995,0.0021993,-0.00012935,0.00015789,-0.00515822,0.00213724,-0.00306728,-0.00644404,0.00213926,0.00542073,0.00534996,0.000623996,0.00349121,-0.000861621,-0.00056765,0.000170761,-0.00186677,-0.00193452,0.00498043,0.003838,0.00374959,0.00391372,0.00195495,0.00372801,0.00539763,-0.000911823,0.00191135,-0.00466622,0.00489257,0.00403833,-0.00083425,0.00306841,-0.00455852,-0.00123181,-0.00171643,-0.00366782,-0.000128774,0.00222667,-0.000686782,5.26752e-05,0.00117649,0.00412808,-0.00127745,0.00274126,0.00867549,0.00494086,0.00115277,-0.000333999,0.0040106,0.00198004,-0.00166343,0.00452055,0.00160827,-0.00153388,0.00311617,-0.00153865,0.0061415,0.000752636,0.00617059,0.00455558,0.00281967,0.0024414,0.00296105,0.00525276,0.00364957,0.00587155,0.00169266,-0.000205347,-0.00130963,-0.00108312,-0.00507895,-0.00156028,-0.00261189,-0.00240359,-0.000671244,0.000430234,-0.00148862,-0.0017635,0.000978699,0.00154584,0.0004048
3,-0.00184697,-0.000807458,-0.00296686,-0.00660727,-0.00170441,0.00360543,-0.0023678,-0.000779757,0.00167752,0.001885,0.00017478,0.00267099,-0.000438906,0.00237444,0.00415621,-0.00252488,-0.0044842,-0.00385713,-0.00730877,-0.00189774,-0.00141788,-0.00205412,-0.00267554,-0.00169475,0.00116292,0.00305427,0.00284036,-0.000730106,0.00204556,0.00131946,0.00159684,0.0012435,0.00357274,0.00154015,-0.0024453,-1.86961e-05,-0.00149847,-0.00285679,-0.00412405,0.0023522,0.00183895,0.000187746,-0.00092566,0.00122637,-0.003649,-0.00150545,-7.20387e-05,-0.00063389,-5.99591e-05,-0.00120245,-0.00182701,0.000337471,0.00125995,0.00201101,-0.00200132,-0.00138334,0.00133343,-0.000580791,-0.00318214,-0.00131931,0.000520899,-0.00736614,-0.000200294,-0.000302871,-0.000724329,-0.00639181,-0.00407397,-0.0029381,-0.00231536,-0.00213441,-0.00427976,-0.0047768,-0.00408675,-0.00277379,-0.00339816,-0.00113054,0.00617718,-0.00376473,-0.00252392,-0.00145602,-0.00186347,0.0011858,0.000398378,0.000115377,0.000733588,0.000924555,8.91302e-05,0.000424916,0.00036352,0.00395587,0.00408736,-0.00288001,-0.00281498,0.00230131,0.00355138,0.00251532,-0.000496011,-0.00393029,-0.00234323,-0.00572471,-0.00590493,-0.00232082,0.000343354,-0.00257318,-0.00352428,-4.30813e-05,-0.00058852,-0.00321065,-0.00122467,-0.000344545,-0.00462984,-0.00106028,-0.00103553,-0.00348122,-0.00140781,-0.00164606,-0.00282144,-0.00322142,-0.00410273,-0.00306828,-0.00249518,-0.00258457,-0.00351839,-0.00155379,-0.00168713,-0.00217688,-0.000438458,0.00229064,-0.000644388,0.00276027,-0.00271716,-0.00242444,0.00158591,0.00363549,-0.00328212,-0.000668097,-0.00394048,-0.00326026,3.81626e-05,-0.00172988,-0.00340429,-0.00345865,-0.00543954,-0.0031181,0.00363231,-0.000823053,-0.00140538,0.000562363,0.00227928,-0.000602262,-0.000247476,-0.00370478,-0.000787838,0.000350912,0.00317542,0.00353473,-0.000665153,0.00140481,0.00176042,0.000106347,0.00190134,0.00196128,0.000137214,-0.000175545,0.00521895,0.00171078,-0.00320182,0.000850356,0.00377537,-0.00314591,-0.00418554,-0.000356089,0.00266094,0.00110309,0.000122764,-0.000126117,0.00339193,0.00321548,0.00554474,0.00283659,0.000823738,0.00531134,0.0011525,-0.000966838,-0.0043856,-0.00655409,0.000383248,0.0024637,0.00601044,-0.00085941,0.00165002,0.00147757,-0.0018498,0.00185879,0.0018164,0.00276199,0.00212784,0.00124127,-0.000664209,-0.00250816,-0.0014414,-0.000831052,0.00212156,-0.000677,-0.000964452,0.00203997,0.00155081,-0.00094589,0.00166536,0.000956452,-0.00136246,-0.00264831,0.00298734,0.00230607,-0.00202564,0.00213592,0.00254946,0.00122736,0.00408611,0.00156678,-0.000186319,-0.00130982,0.00387149,-0.00141019,-0.00261831,-0.00600563,-0.004031,0.00264841,0.00258406,-0.00218464,-0.00299146,-0.00236107,-0.00995762,-0.00184229,-0.00465836,-0.000820135,-0.0032234,-0.00129797,-0.00136288,0.00161266,-0.00173622,-0.00102222,-0.0028414,0.000169774,0.00325438,0.0041595,-0.00329088,-0.00113851,-0.00127492,0.00117864,-0.00191289,-0.00025349,-0.00306101,-0.000667832,-0.00215632,-0.00194252,-0.000203358,0.000911193,-0.00134535,-0.00088553,-0.00138136,0.000558665,-0.00221486,0.000469322,0.00259823,-0.00225942,0.000225564,-0.000851171,-0.000479182,-0.00240799,0.00105547,0.00217161,0.00324626,0.00282817,-0.000710253,-0.00091056,0.00107833,-0.00109581,0.00242566,-0.000966554,0.00425162,-0.000870461,0.000393043,-0.000911175,-0.00158436,0.00533593,-0.000893978,-0.00276991,0.00484798,-0.00342671,-0.0021379,-0.000386431,-0.00329414,0.000768735,0.000361932,0.00436013,0.00393695,-0.00146269,-0.00339271,-0.00398799,0.000113919,0.00112531,0.0022409,-0.00194085,-0.000701392,-0.00133937,0.000230451,0.00495508,0.00194164,-2.06921e-05,-0.000731549,0.000775964,-0.00242258,0.00375442,0.00978886,-0.00124201,0.00156355,-0.00171014,-0.00382091,-0.00300171,-0.00408699,-0.00305114,-0.00155285,-0.00110862,-0.000656327,-0.00133843,-0.00128613,-0.0034746,-0.000432671,0.00695794,0.000477019,0.00492814,-0.000259631,0.00100865,-0.00169307,-0.00119951,-0.00158621,0.00125997,0.00209316,0.00326603,0.00166718,-0.00160781,-0.00576863,-0.000349876,0.00465272,-0.00235081,-0.00152272,-0.00650286,-0.0016282,0.00213878,0.000355486,-0.000795907,0.000576547,-0.00105727,-0.00272747,0.00145274,0.00235758,0.00208279,-0.000539183,-0.00408885,0.00102291,-0.00129476,-0.0016223,-0.000812032,0.00104682,0.00382495,0.000721074,-0.00113353,-0.00198358,0.000278048,-0.00177754,-0.00356765,-0.000527165,-0.00345384,-0.00352807,-0.00377254,-0.00327711,-0.00583538,-0.00552672,-0.000322428,-0.00122215,-0.00463305,-0.00497652,-0.00447029,-0.00215784,-0.00176162,-0.00236665,-0.00615377,-0.00595133,-0.00718398,-0.00760155,-0.00192721,-0.00206323,-0.00404034,-0.00295361,-0.00576241,-0.00382826,0.000648333,0.000552049,0.00232705,0.000705414,0.0020197,-0.00410509,-0.000237705,-0.00272185,4.92219e-05,0.00453025,0.00239098,0.00162281,0.00261809,9.03259e-05,0.00439081,0.00135436,0.00274672,-0.000790699,-0.00341106,0.00338613,0.000581396,0.00153357,-0.00232032,-0.00316641,-0.00216629,-0.00411419,-0.00567316,0.00565969,-0.000327224,-0.00393846,0.00689092,0.00252012,-0.00852794,-0.00328516,0.00272253,-0.00204355,-0.00343288,0.00333222,-0.00115956,-0.00172654,0.000169773,0.00114165,-0.000664196,0.00223021,-0.000764344,-0.00333794,0.00261707,-0.00225835,-0.00999945,-0.00735957,0.00539978,0.00105185,-0.00147636,0.00288482,-0.00201486,0.00138022,0.00482588,0.00162711,-0.00176993,0.00507502,0.00512667,-0.000462214,0.00621184,0.00191556,0.00262117,0.00175681,0.00338554,0.00272028,0.0030803,0.00431037,0.00379997,0.00113724,-0.00261462,0.00160371,4.09788e-05,0.000211144,0.00460355,2.29119e-05,0.00565295,0.00241832,0.0068404,0.00187197,-0.00172097,0.00125202,-0.000535694,0.0019353,0.00258072,-0.000480084,0.00671921,0.00932325,0.00475539,0.00353199,-0.00361751,-0.00301057,0.00157889,-0.00095283,-0.0031967,-0.000320762,-0.00162057,-0.00294132,-0.00182157,-0.00214103,-0.00288099
4,0.00511849,0.00297315,0.00334674,-0.00226029,0.000923004,0.00115846,-0.00357914,6.8149e-06,0.00231686,-0.000937605,0.0026021,0.0040707,0.00249981,-0.000796494,0.00310353,9.58344e-05,-0.00139749,0.000902032,-0.00411281,0.000840228,0.00182705,-0.000310404,-0.00108285,0.00231534,0.00239101,0.00345951,-0.000381896,0.000245871,-0.000289018,0.0014868,0.00129694,0.000629843,0.00374232,0.000777775,0.000388906,0.00147857,0.00128339,-0.00121287,-0.00356556,0.00362367,0.00526503,0.00331322,-0.000775549,0.00391647,0.00140992,0.00323714,0.00526966,0.00166778,-0.00124385,0.00130778,0.00255792,0.00205042,0.00132326,-0.000474827,-7.03551e-05,0.000813727,0.000495978,-0.000828917,-0.00126131,0.00221147,-0.00341295,-0.00473431,0.00183151,0.00337207,-0.000337109,0.00374348,0.00145098,0.00185097,0.000510171,-0.000181286,0.000542502,0.00220127,0.00162159,-0.000489828,-0.000149125,0.00092977,0.00278297,-0.000783666,-0.000634552,-0.00103178,0.00244438,0.00345948,0.00314252,0.00180337,0.00355519,0.000320399,0.00331241,0.00528309,0.0041939,0.00456982,0.00644411,-0.000789731,-0.000233478,0.00187744,0.0041828,0.00444055,0.00113671,-0.000412354,-0.00174849,0.00107766,-0.000749275,0.00267263,0.00340235,0.00284334,-0.000982384,0.00413267,0.00453388,-0.00311708,-0.00279051,-0.00154482,0.000256171,0.00212136,-9.74295e-05,-0.00100796,-0.00180933,0.00197032,-0.00241373,-0.00461861,0.00035005,-0.000357122,-0.00232876,-0.000636318,0.000248417,-0.000952133,-0.00132821,-0.00508747,-0.00507658,0.000571919,-0.00179292,0.000300765,-0.00811884,-0.00842219,-0.00913326,-0.0047434,-0.00464271,-0.00566341,-0.00432097,-0.00213278,-0.000883305,-0.00273633,-0.000405823,0.000991712,-0.00331804,-0.00233021,-0.00111542,-0.00301021,-0.00482719,-0.00419941,0.00117785,-0.000447884,-0.00126576,-0.00504794,0.00160614,-0.00042195,0.000923346,0.00555681,0.00266378,7.91027e-05,0.00329602,0.00239189,-0.00205434,0.00128804,0.00206772,0.00164768,0.00110827,0.00660116,0.00264166,0.00519144,-8.29063e-05,-0.0037618,-0.00346595,-0.000771783,0.000234475,0.00369255,0.000636578,0.000183979,0.000350548,0.00187391,0.00145019,0.0007567,0.000912532,0.000666142,0.00235828,0.000553714,-0.00163364,-0.000836867,0.00454221,0.00017533,-0.00037177,0.00105689,0.0021372,0.00461019,0.00218473,-0.00313754,0.00351671,0.0030746,0.00410395,0.000590228,-0.000816053,0.000388907,-0.00044019,0.0003427,0.00142672,-0.000519138,-0.000457876,0.0030334,0.00224071,0.00150708,0.00242598,0.000210777,-0.000880125,-0.0059792,0.00198014,-0.00154938,-0.00554213,0.00194017,0.0012079,0.00282182,0.00521374,0.00247372,-0.00021242,0.000825827,0.00119574,-0.00120727,-0.0016049,0.00055701,2.02864e-05,0.00355889,0.00401963,0.00190039,0.0024678,0.00305785,-0.0052247,0.00200363,-0.00125644,-0.000740561,0.000438851,0.000110478,0.00196463,0.0010844,0.000169777,-0.00176554,-0.00243034,-0.00236658,-0.00117917,-0.00331635,2.97851e-05,-0.000994612,-0.000709477,-0.000654589,0.00128377,-0.00272867,-0.000655146,0.00066284,0.0031427,-0.000711951,-0.00150479,-0.000487854,-0.000148023,-0.00171356,-0.00256079,0.00625889,-0.00294485,0.000617249,0.00061898,-0.000439361,-0.000374278,-0.00510347,-0.00176124,0.00229761,0.000969571,-0.00237472,-0.000169886,-0.000872113,0.00092016,-0.00158636,-0.000854624,4.863e-05,0.004057,-0.00116515,9.70095e-05,-0.00300649,-0.00169003,-0.00113974,-0.000139423,0.00411396,0.00113476,0.00135146,0.00340174,-0.00155418,0.00160401,0.000838392,0.000966318,0.00226677,0.000366082,0.00371709,0.00133351,-0.000834213,-0.000364917,3.15745e-05,-0.00177431,0.0021005,-0.0011039,-0.00295769,-0.00174962,-0.00196516,-0.00567758,0.00261384,-0.00129927,-0.00186421,-0.00184626,-0.000652002,-0.00499164,0.00381206,0.00527671,0.000554883,-0.00176838,-0.00143163,-0.00130254,-0.00220828,-0.000722646,-0.00282911,-0.000109947,0.000326185,-0.00116456,-0.00177008,-0.00132856,-0.00399979,0.000732411,0.00249239,-0.00102053,0.00209116,-0.00102452,-0.00405009,-0.00195867,-0.000176777,-0.000962378,0.00242692,0.0038976,0.00570077,0.00202999,0.00204527,-0.00264484,-0.00147284,0.00112827,-0.00119533,0.00355528,-0.00209636,-0.00170997,-0.0031612,-0.000585049,-0.00137825,-0.00070354,-0.00364951,-0.00274995,0.00240646,0.000653887,0.00436225,-0.0016507,-0.00239581,0.00231053,-0.00149158,-0.00174988,0.0023475,0.00295462,0.0071607,-0.000102408,-0.000865394,-0.000666304,0.000149043,-0.00137257,-0.00271614,0.000481396,-0.00233448,-0.00384999,-0.00654676,-0.00501313,-0.00132563,-0.00121379,-0.00311836,0.00114702,-0.00174203,-0.00830068,0.000477566,-0.00404004,0.00138223,0.0041628,-0.00714444,-0.00811688,0.000932858,-0.00494305,-0.00629141,0.00137224,-0.000530558,-0.00396328,0.00426185,-0.00295029,0.00410564,0.00497875,0.00338976,-0.00373454,-0.0053245,0.00461842,-0.00261445,-0.00208686,-0.00339884,-4.62002e-05,0.00068334,-0.000207226,-0.000734251,-0.00722755,-6.6299e-05,-0.00278336,0.00032425,-0.00318963,-0.00904772,0.00764361,0.00086252,-0.0011472,0.00254627,0.000197275,-0.00166753,3.70595e-05,-0.00225243,5.64654e-05,-0.00160926,-0.00250705,-0.000294965,-0.00552576,-0.00614003,-0.00400051,-0.002503,-0.00390142,-0.00456759,0.0011645,-0.00307954,-0.00464168,-0.00219632,-0.00316826,0.00307789,0.00249116,0.00122675,0.00460404,0.00433982,0.00328445,-0.000984742,-0.00113361,0.00590658,0.000729188,0.00741551,0.00913978,0.000370641,0.00225352,0.00146876,0.00338538,-0.00117148,-0.000347661,-0.000232602,-0.0012936,0.000241539,0.000858904,0.00819187,0.00183918,0.00489818,0.00384552,-0.000358155,-0.000433225,0.000451448,0.00436945,0.00183519,0.00288779,0.00351952,0.00413261,0.00872874,-0.00313717,0.00011475,-0.00141681,0.00485113,0.00453678,-0.00517695,0.000300967,-0.00180337,0.00386331,0.00443629,-0.00190071,0.00753247,0.00717818,0.00685936,0.00627423,-0.00216409,-0.00061119,0.00199493,0.000822742,-0.00540053,0.00249961,0.00100722,-0.0042622,0.00138018,-0.00528694,-0.00137505
5,0.00326555,0.00381853,0.00240116,-0.00480545,-0.00149963,0.00103138,-0.00556228,-0.00273164,-0.000939883,-0.00414518,0.000515539,0.00104461,0.00096394,0.000651052,0.00627384,0.00355512,0.00182864,0.00215947,-0.00464043,-0.000687751,0.00235474,-0.000406341,-0.00149323,0.00168428,0.00296265,0.000637235,0.000244669,-0.00119754,-0.00115101,-0.00232524,0.00118917,3.13217e-05,0.000347087,-0.00396975,0.00351713,-0.000341075,0.00340417,0.00227172,0.00224672,-0.000508569,0.000546001,0.00271506,4.80226e-05,0.00575533,0.00222775,0.00275736,0.00391411,0.00250297,-0.000628715,0.00711714,0.00448949,0.00645587,0.00221064,-0.00280513,-0.00121305,0.0025149,0.00239463,-0.00159508,0.00132758,0.00442902,-0.00324693,0.00310401,0.00455383,0.00198449,-0.000886329,0.00552914,0.00315639,0.00374415,0.00295765,0.00199412,0.000902023,0.00608814,0.00022012,0.00232057,0.00391703,0.0016376,-0.000371945,-0.0023351,-0.00502231,0.00462723,0.00050967,0.00115989,0.00488584,0.00344976,-0.00328676,0.000961364,0.00163229,0.000113997,-0.00144477,0.00466832,0.000588678,-0.00141982,-0.00045761,-0.00112094,0.00358143,-0.00371854,0.00184929,0.00574548,0.00614939,0.00653775,2.68806e-05,0.00437579,0.00271154,0.000691217,0.000428459,0.00508813,-0.00452159,-0.00133954,0.00240252,-0.00532931,-0.00211041,0.0018087,0.000804242,0.00202188,0.00426004,-0.0017258,0.00146422,0.000279287,0.00322093,0.00169294,0.00195049,0.00218835,0.0074328,0.00524399,0.00609661,-0.00328484,-0.00238043,-0.00133528,-0.00432137,-0.00423454,-0.00516351,-0.00495357,-0.00657993,-0.00795374,-0.00816961,-0.00612458,-0.00198723,0.0001258,-0.00275217,-0.0060169,-0.00343906,-0.00223213,-0.000914505,-0.000231418,-0.00620812,-0.00251103,-0.00633114,-0.00421567,-0.00177326,-0.00643413,-0.00514465,-0.00355177,-0.00107056,-0.00597305,-0.00571654,0.000574726,-6.86705e-06,-0.00433775,-0.000844774,-0.000282441,-0.00387373,-0.00143179,-0.00437673,-0.00227478,-0.00247886,0.00215879,0.00201076,0.000975392,-0.00213471,-0.00422575,-0.00289129,-0.00293683,-5.48411e-05,1.98866e-05,-0.000638146,-0.00373443,-0.00388914,-0.00439022,-0.00500988,-0.0048729,-0.00509647,-0.00304014,-0.000339029,-0.000569643,-0.00110252,0.00144634,0.00160532,-0.00459785,-0.00534094,-0.00138374,-0.000688841,-0.0014443,-0.00424207,-0.00647902,-0.00472396,-0.000784667,0.00104709,-0.00135743,-0.00581407,-0.00142244,-0.000233156,-0.000844919,-0.00277553,-0.00311414,-0.00729373,0.00140749,-0.00180667,-0.00828089,-0.000247553,0.00121077,0.00239305,0.00192158,0.00572888,0.00106534,-0.00345161,0.00351243,0.000551362,-0.0020886,-0.00160787,0.000665612,-0.000523618,-0.00208377,0.00450052,0.000286882,-0.00129501,-0.00150181,-0.000124977,-0.00013891,-0.000447674,0.00270612,0.00363856,0.00386633,-0.00105076,0.00164567,0.0023753,-0.000342174,0.00292038,-0.000129676,0.00136253,-0.000837402,0.00170427,-0.00260246,-0.00290377,-0.000862573,-0.00373908,-0.0038189,-0.00057215,-1.57915e-05,0.0019543,0.000408017,-0.00111139,0.00277323,-0.000864087,0.000979746,0.00818986,0.00351185,-4.10815e-05,8.87845e-05,-0.00322566,-0.0018391,-0.00431089,0.006001,0.00297614,0.000638662,0.00181778,0.00275059,0.00104429,-0.00114041,-0.001674,0.000667639,-0.00212303,0.000183232,0.000763583,-0.0021956,-0.00116827,-0.000141234,-0.00039934,-0.000820522,0.00122989,-0.00276797,-0.0015378,-0.00291301,-0.000773505,-0.00236378,0.000214505,0.00325147,0.000208364,0.000481534,-0.00214342,-0.00542562,0.00350381,0.00217899,-0.000294922,0.00228485,-0.00116624,0.00135289,-0.00145189,-0.00304317,0.000381487,-0.00120653,-0.00485465,0.00117652,0.000822068,0.00181926,0.00170807,0.000141486,-0.000561058,0.0021247,-0.000748081,-0.00232104,-0.00158606,-0.000216731,0.00149789,0.00475034,0.0028971,-0.00200643,0.00345334,0.000176322,-0.00250331,-0.00435011,0.000749349,0.00294938,0.000865957,-0.000693688,-0.000420568,-0.00164043,0.000257151,-0.000110097,0.00377552,0.00162619,0.00528608,0.00535987,0.00161153,0.00159112,0.000262466,0.000853759,1.57788e-05,-1.54873e-05,0.00187601,0.00377044,0.00440456,0.00386372,0.00109323,0.00146471,0.00598615,-0.000589044,0.00266264,0.00154373,-0.00302102,-0.00136533,0.00193246,0.00379152,-0.00270367,-0.00371763,-0.00157046,0.000230126,-0.00213939,0.00262663,0.00113981,8.98391e-05,0.00337771,-0.000157475,0.00116834,0.00323101,0.00389641,0.00461801,-0.000338399,0.000462128,-0.000142858,0.00322919,0.00406353,0.00197195,0.0034829,0.00459828,-0.00255992,-0.00183129,-0.00587949,0.000425736,0.00195641,-0.00134316,0.00493065,0.0053202,-0.00397689,0.00137233,-0.00122641,0.00384667,0.00231238,-0.00360141,-0.00573575,0.00466792,-0.00245821,-0.00750702,0.00343107,0.000816725,-0.00331318,0.0012806,-0.00197217,0.00679748,0.0108804,0.00722063,0.00111641,0.00429466,0.00364779,0.000997825,0.000192346,-0.000160031,-0.00032323,-0.00307261,0.00291807,0.00258741,0.00353587,0.0032222,-0.00385893,0.0040082,0.000659235,-0.00198947,0.00724698,0.00333888,0.00332218,0.00226073,0.00778798,0.00336038,0.00631544,0.00123095,0.00276282,-0.00269651,-0.000254427,0.00476224,0.0035341,0.00497405,0.000684755,-0.000415518,0.00118478,0.00215078,-0.00277263,-0.000221428,-0.000359436,-0.000480029,-0.000163901,0.00496281,0.00577656,-0.000458798,0.00557264,0.00430057,0.00352646,0.00330842,0.000450902,0.0060785,-0.0013497,0.00200405,0.00701719,0.00432728,-0.00281257,-0.000468905,0.00163168,-0.00271035,-0.000305437,0.00100762,-0.00236839,0.000125391,0.000347079,0.00489346,0.000816634,0.00397971,0.00599259,0.00333825,0.00116166,-0.00227121,0.00184798,0.0015494,0.00088633,-0.00302391,-0.000595788,0.00204171,-5.83661e-05,0.006159,-0.000185984,0.00505619,0.00230513,-4.88327e-05,-0.00112254,-0.000124732,0.000320837,0.00186838,-0.00218697,0.000262384,0.00120659,0.00419355,0.000250648,4.81845e-05,-0.00217821,0.00104533,0.000270777,-0.0005069,0.000145668,0.0026788,5.27861e-05,0.0033687,-0.00133191,0.00573951
6,-0.000848306,-0.000742722,-0.00333371,-0.00250248,-0.00317717,0.00218882,-0.00221107,-0.00502338,-0.00291091,-0.00158025,-0.00175362,-0.00248267,0.000812269,0.00277827,0.00231351,0.00187428,-0.00432245,-0.00330783,-0.00999973,-0.00826422,-0.00378059,-0.00432872,-0.0057321,-0.00219864,-0.000554275,-0.00384709,-0.000877006,-0.00303246,-0.00130651,-0.00744039,-0.00134166,-0.000809053,0.00303521,-0.00367822,0.00252466,-0.000636307,0.00290498,0.00294647,0.000207238,-0.00687933,-0.00423352,-0.00119754,-1.07586e-05,-0.00066151,-0.00389283,-0.00509654,-0.00330369,0.00280263,0.00105867,0.00104117,0.000590251,0.00124526,-0.00178081,-0.00554786,-0.00135525,0.00485157,0.00291305,-0.00577225,0.00308148,0.00522427,-0.00145722,0.00380464,0.00346024,-0.00083621,-0.000735218,0.00407438,0.0026586,0.00595025,0.00488902,0.00198864,0.000366724,0.00231943,0.00111077,0.00491859,0.00291335,-0.00237464,0.00156153,-0.00711266,-0.00447754,0.00464885,-3.51524e-05,-0.00109452,0.00349426,0.00253541,-0.00369589,0.00543842,0.00566383,-0.000428777,-0.00366509,0.00238063,-0.00567957,0.00106958,0.00695946,0.00141303,0.00432357,-0.00851932,0.00310163,0.0079733,0.00740001,0.00623266,-0.00253367,-0.00242411,-0.000806001,-0.00221799,-0.00223321,-0.00133834,-0.00639364,0.00042431,-0.0030311,-0.000698333,-0.00479631,0.00114061,0.00677895,0.00142088,0.00389372,-0.00232281,-0.0033195,0.000361775,-0.00187591,0.00158118,0.0080038,0.000193708,0.00502428,0.00433141,0.00623446,0.00251254,0.00146768,0.00340147,-0.000389862,-0.00369254,-2.88291e-05,-0.0003254,8.28905e-05,-0.00161259,-0.00584573,-0.0035339,0.00176538,0.00589574,0.00113747,-0.00351132,-0.00270863,-0.00348383,0.000703372,-0.00114567,-0.00468384,0.00068069,-0.000209429,-0.000347583,-0.00328423,-0.00824497,-0.00322022,-8.95037e-06,-0.00108111,-0.00691445,-0.00672265,-0.00219965,-0.000360035,-0.00548742,-0.0031461,-0.00254645,0.0012901,-0.00256391,-0.00517422,-0.00415956,-9.07706e-05,-0.00346801,0.00306413,-0.00412923,-7.49412e-05,-0.00374412,-0.000113018,-0.00531879,0.00416795,-0.000917598,0.00151183,-0.00177936,-0.00543451,-0.00294028,-0.0015522,0.000332735,0.00158378,-0.00402426,0.00199889,-0.000152184,-0.000358754,2.94895e-05,0.00408141,-0.00331563,-0.0044434,-0.00244484,-0.000262142,-0.00789663,-0.00725656,-0.00161139,-0.00612646,-0.00227778,-0.00268997,-0.00408814,-0.00354985,-0.000886708,-0.00154399,-0.00265842,-0.00233195,-0.00346317,-0.00707997,0.000842355,-0.00213175,-0.00351855,0.00200538,-0.00112661,-0.00187244,0.00401561,0.00487274,0.0029431,0.00095777,0.00407645,0.0042209,-0.00121607,-0.00278463,-0.00168521,-0.000147964,-0.00138384,-0.000734723,-0.000341285,-0.00197968,-0.00144182,-0.0010443,-0.00296692,-0.0032205,-0.000971153,-0.000227679,-0.00141846,-0.00198908,-0.0014446,0.000162394,-0.00445875,-0.00108186,-4.47073e-05,-0.00191403,-0.00214412,-0.000836102,-0.00309174,-0.0022461,0.00455948,-0.000144451,-0.000663084,0.000487641,-0.000949933,-0.00038901,1.05182e-05,-0.00122558,0.000825619,0.00323255,0.0060554,0.00371922,0.00317352,0.000304913,0.00206134,0.000816295,-0.000258206,-0.000425461,0.00049465,0.000643381,0.00187559,0.0022976,-1.17934e-05,0.0013596,0.000960183,0.000361979,-0.00217428,0.001436,0.00288656,0.00163852,-0.00381347,0.000187335,-0.0009758,-0.000643553,0.000659197,0.00156836,-0.00182897,-0.00173053,-0.000851486,0.00236521,-0.00114021,0.00261179,0.00203119,0.000252832,0.000780352,-0.000179902,-0.00257334,0.00163875,0.000887647,-0.00116297,0.000334253,0.000347824,-0.000721489,-0.00190838,-0.000893604,0.00107016,0.000755069,0.000282661,0.000762334,0.000616586,0.0040389,0.00204715,0.0017575,-0.000861751,0.00106888,0.000469442,0.00192727,0.000649431,0.00179236,0.0012035,0.00263319,0.00302716,0.00165073,0.00414509,0.00155507,0.000224563,-0.00108459,0.0048022,0.00445479,0.00142516,0.000840833,0.00137099,-0.000522324,0.00219948,-0.00298895,0.00919597,0.00788664,0.00470217,0.00785324,0.00546995,0.00431709,0.000664042,0.00056338,0.000612174,0.00212541,0.00677995,0.00500116,0.00310514,0.00075234,-0.00100444,0.00484978,0.00350482,0.000556394,-0.00294605,0.000133571,-0.00267313,-0.00130683,0.00191904,0.00470412,7.76782e-05,-0.00015423,0.00413804,0.00144095,-0.00196337,-0.000431716,0.0020704,0.00337079,0.000469554,0.00236063,0.00399438,0.00628331,0.00319558,0.00448691,0.00344197,0.00273726,0.00313172,0.00430154,0.00379813,0.00329233,0.00222601,0.00357358,0.00209313,-0.00489261,-0.00509385,0.00044763,-0.000267373,0.000742282,0.0073318,0.00484966,0.000874901,-0.00200236,0.000803196,0.0013895,0.00148591,-0.000879201,-0.00227683,0.00417879,-0.0004182,-0.00344397,0.00146532,-0.00271414,-0.00534812,0.00111004,-0.00614374,-0.00134276,0.00107495,0.00351486,0.00429329,0.0014292,0.00141654,0.00180464,0.00215074,0.000849817,-0.00209811,-0.00110422,0.00380968,0.000999213,0.00291626,0.000903198,0.000743486,0.00201421,-0.000751689,-0.00230938,0.00656842,0.00390371,0.00325591,0.00301748,0.00872105,0.00671261,0.00520958,0.00897097,-0.00165322,-0.00259995,-0.00511591,-0.00285886,0.000974564,0.00146298,0.00404208,0.0013776,0.00420757,0.00302209,-0.00135038,0.00344212,0.00166009,-0.000379003,-0.0010209,-0.00105553,0.00124858,-0.000109562,0.00182976,0.00250814,0.00191889,-0.00111744,0.00102891,0.00302692,-0.00588835,0.00115704,0.0001417,-0.00304388,-0.00210773,0.0066641,0.00289652,0.000513152,0.00144074,-0.00165743,0.00528991,-0.000463293,0.00386124,0.000999959,-0.00299939,-0.00185772,0.00450496,0.00321111,0.00331169,-0.00374878,-0.000280443,-0.000568458,-0.00390867,-0.00267109,-0.0024969,-0.00693818,0.000986747,0.000980915,0.00177294,0.00199379,2.53066e-05,0.00243725,0.000844526,-0.000572421,-0.00138224,-0.00591593,-0.00222457,-0.00504511,-0.0061646,0.000529821,1.73057e-05,0.00118201,-0.00175071,-0.00295419,-0.0010762,-0.00354596,-0.00482065,-0.00139399,0.00123931,0.000547153,0.000659517,0.00246923
7,-0.00128035,-0.00462241,-0.00491268,-0.00117358,-0.00292384,0.00299116,-0.00216279,-0.00762679,-0.00442684,-0.00331776,-0.0020642,-0.0053968,0.000791322,0.00315101,-0.00078568,-0.000569589,-0.00196904,-0.00375983,-0.00729629,-0.00676825,-0.00715718,-0.00343547,-0.00560563,-0.000965062,-0.00195869,-0.00172077,-0.00513063,-0.00211863,-0.000144449,-0.00650295,-0.00445001,0.00218607,0.00340891,-0.00176393,-0.00186367,0.00475449,0.00199975,-0.00367934,-0.00833278,-0.00657152,-0.0054721,-0.00382365,-0.00170023,-0.00491556,-0.00354901,-0.00836275,-0.00738247,0.00169657,-0.00116484,-0.00427481,-4.23768e-05,-0.00114074,-0.00432113,-0.00666732,-0.000209325,0.0079242,-0.00144965,-0.00920845,0.00288086,0.00226591,-0.00635823,-0.0012947,-0.00194306,-0.00423752,-0.00265125,0.00302696,0.00434042,0.00786905,0.00490233,-0.00029999,-0.00157792,0.000579318,0.00651353,0.0101482,0.00398113,-0.00433227,0.000938066,-0.00571725,0.00148814,0.00472328,0.00138157,-0.00208947,0.00154863,-0.000723461,-0.0080202,0.00831331,0.00922333,0.00339074,-0.000842138,0.00347151,-0.00284765,0.00576581,0.0140964,0.00178116,0.00250485,-0.00335278,0.00312931,0.00566361,0.000557952,0.00104727,0.000733572,-0.00483549,-0.00298863,0.00209829,-0.000777225,-0.00590759,-0.00145576,0.00368964,-0.00198319,0.00328743,-0.00206635,0.00268567,0.00764636,0.000166412,-0.000577112,0.00277594,-0.00144053,-0.00206625,0.000228654,0.00279277,0.00891511,0.00349351,0.00210457,-0.00304647,0.00189261,0.00396424,0.00462036,0.00169874,0.000369055,-0.000345298,0.00201452,0.00230131,0.0021471,8.08818e-05,-0.00308333,-0.0020514,0.003502,0.00600786,-0.000898576,-0.0059456,-0.00431978,-0.00351769,0.00215988,-0.00132214,-0.00168366,-0.0033761,0.00285988,0.000189794,-0.000830539,0.000920943,0.000908747,0.00197261,0.0025538,-0.00168381,-0.00185502,0.000385972,-0.000258178,-0.00209321,-0.00218726,-0.00373767,-0.00159544,-0.00201767,0.000752108,0.00227238,-0.00113806,-8.96073e-05,0.00268628,-0.00241922,0.0021403,-8.31546e-05,-0.00211161,-0.00217996,0.000193363,0.000937972,0.00034584,4.95411e-05,-0.00271769,0.001515,-0.000757468,0.000819917,0.00290334,0.000859263,0.00112373,0.00207338,-0.000819482,0.00533853,-0.00222844,-0.00262152,-0.00420103,0.000880029,0.000803187,-0.00244715,-0.00378303,0.000631606,-0.00276385,0.00246025,-0.00158235,-0.00394366,-0.00412009,8.53457e-07,-0.00309932,-0.00506007,0.000888296,-0.00134618,-0.00576658,0.00173748,8.12373e-06,-0.00249459,-0.00268275,0.0026843,-1.76973e-06,-0.00244769,0.00351868,0.0025704,-0.0044247,0.00158657,0.00204817,-0.00345841,-0.00525141,-0.00314506,-0.000427612,-0.000582652,0.000977435,-0.00432395,-0.00224057,-0.00295353,-0.00146157,-0.00413283,-0.00434342,-0.000128184,-0.00260637,-0.00205041,-0.00203546,-0.00164266,0.000562354,-0.00400034,-0.000704972,0.00216705,-0.00138678,0.00121778,0.00129425,-0.00216611,-0.00424399,0.00189038,0.000178805,-0.00229077,-0.000463261,-0.00157379,3.19521e-05,0.000513938,0.00173779,0.000148167,0.00165454,0.00357866,0.00662834,0.00432992,-0.000468383,0.00355704,0.00340289,-1.14174e-05,0.00187379,-0.00100184,-6.68371e-06,0.0016588,0.0025131,0.000888604,-0.00024805,0.00141816,-0.00392117,-0.00625003,3.41317e-05,-0.000398438,-0.00307002,-0.00020425,0.00404135,0.00102828,0.000432178,0.000244606,0.00314732,-0.000936148,-0.000404144,-0.000630847,0.00422623,0.000236101,0.00212213,0.00116827,-0.000211912,0.0004989,0.00178792,-0.000847392,0.000322026,0.00313281,0.000588748,-0.000503826,-0.00265094,-0.00300942,-0.0016545,-0.00229679,0.000304464,0.00101378,0.00137426,0.00203704,0.0015829,0.00239909,0.00283891,0.00294621,0.00088525,0.000578226,0.000271357,0.000885787,0.00296394,-0.000350532,0.00100436,0.00540039,0.00683136,0.00144271,0.00431316,0.00150225,0.000756477,-0.00183169,0.00387047,0.00200816,0.00033255,-0.000632573,0.0010626,0.000243383,0.000215294,0.000611815,0.00960894,0.00578694,0.00184779,0.00621196,0.00353483,0.00352839,-0.000171002,0.00059768,0.0015322,0.00434138,0.00752706,0.00403326,0.000894541,-0.00117257,-0.00308511,-0.00239195,0.000363715,-0.00249793,-0.00127331,0.000325791,-0.00108476,0.00210148,0.00150218,0.00243097,-0.00115441,-0.00317832,0.00330173,-0.00108327,-0.0028958,0.00203918,0.00279612,0.00328697,0.000731525,0.00254284,0.000403987,0.0048602,0.00497823,0.00549331,0.00346226,0.00301392,0.00327124,-0.00194503,-0.001016,-0.000237694,-0.00144589,0.00150187,0.00349621,-0.00542266,-0.0010885,0.00144515,-0.0018404,-0.000248145,0.00466689,0.00221495,0.00180586,-0.0031661,0.000638862,-0.00254029,-0.00110972,0.00034987,-0.00157146,0.00212957,0.00226482,-0.00128953,0.00179383,-0.0016006,-0.00477444,0.00328692,0.00156782,-0.000473536,-0.00486453,-0.00167293,-0.000568718,-0.00311593,0.00412835,0.00253948,0.00256909,-0.000737311,-0.00183224,-0.000533764,0.00252005,0.00221358,-0.000337869,-0.000737567,0.00174882,0.00219578,-0.00365439,-0.00683609,0.00288157,0.00175099,-6.90601e-05,0.00660832,0.00590768,0.000617119,0.000949791,0.0026632,0.00185323,0.00173663,-0.000520937,-0.00274955,-0.00413079,-0.00648909,0.00628305,-0.000481957,0.00097969,0.00114815,-0.00256489,0.00302319,0.00130959,-0.00491363,0.000830051,-0.000159402,-0.00155217,0.000224241,0.00460249,-0.000200723,-0.00137541,-0.00086433,-0.00318165,0.00661229,0.000629047,0.00422724,0.00482494,-0.00275997,-0.00385997,0.00388639,6.4805e-07,-0.00242747,-0.00460507,-0.00461989,-0.00105771,-0.000151497,0.00278181,-0.00232052,-0.00514953,-0.00489462,-0.00280492,0.000659243,0.00382031,-0.00172229,-0.00192739,-0.00499906,-0.00493024,-0.00272653,-0.000105991,-0.00199612,0.000429779,-0.00240484,-0.00136618,0.00223119,-0.00345468,-0.00281611,-0.00460399,-0.00245426,-0.00047619,-0.00391824,0.00275654,0.00149573,-0.000204495,-0.00163268,0.00131125,0.00198836,-0.000587052,-0.0030412,-0.00435967,-0.00332925,-0.00574013,-0.00333705,-0.0037815,-0.00425816,-0.00563951,-0.00125638
8,0.000937122,-0.00385702,-0.00339467,-0.000287193,-9.89038e-05,0.00430862,-0.000884631,-0.006469,0.00104807,-0.00135228,-0.00183379,0.00024886,-0.000382052,0.00146127,0.00128558,-0.00353078,-0.00139276,-0.00253714,-0.00600596,-0.00426106,-0.0065186,-0.00389505,-0.00416677,0.000655545,-0.000548223,-0.00159736,-0.0032561,0.00125203,0.00221766,-0.00365277,-0.00356244,0.00214427,0.00325479,-0.00238383,-0.00075582,0.00396152,0.000754824,-0.00470678,-0.0112189,-0.00611298,-0.00344265,-0.00325354,-0.00270853,-0.00136498,-0.0043615,-0.00414458,-0.00698052,-0.00364096,-0.00350724,-0.00324934,0.000105358,0.00142282,-0.00458746,-0.0074908,0.00176935,0.00827456,-0.00220358,-0.00763875,0.00345417,-0.000135226,-0.0105013,-0.00565258,-0.00326449,-0.00200925,-0.0028912,0.00295742,0.00500235,0.00347334,0.00226098,-0.00232116,-0.00123278,0.000993524,0.00327114,0.00575867,0.00475694,-0.00340014,0.00125685,-0.00483043,0.00332948,0.00403531,0.00282946,-0.00222156,0.00593478,0.00556782,-0.00152249,0.000145845,0.00585351,0.00247196,-0.00102167,0.00795472,-0.00142918,0.00156055,0.00583888,-0.000672889,0.00588031,-0.00178116,0.00276301,0.00208447,-0.00306747,-0.00158926,0.00131373,-0.00362356,-0.00357335,-0.000201268,0.000729197,-0.00489026,-0.00157937,0.00293595,-0.00452797,0.00522525,0.00224268,0.00335494,0.00654068,0.00300619,-0.00441658,0.00442795,0.0031604,0.000785771,0.00504671,0.0038327,0.00721228,0.00554171,0.00184966,-0.00330642,0.00195732,-0.00355118,-0.00460699,-9.52413e-05,-0.000468713,-0.00142722,-0.0021766,-0.00113341,-0.00121968,-0.000800437,-0.00172505,-0.0022179,-0.00162973,-0.0016474,-0.0019772,-0.00443994,-0.00223233,-0.00223185,-0.00333741,-0.00577275,-0.00184535,-0.000828076,0.0010796,0.0010547,-0.00193428,-0.000467379,0.00511565,0.0037638,-0.00440531,-0.00440949,-0.00274233,0.00037559,-0.00317562,-0.00299083,-0.00292668,-0.00741661,0.000486297,0.00102552,-0.00158287,-2.17389e-05,-0.00162386,0.000407788,-0.00254093,-0.00183429,-0.000509186,-0.000547946,-0.00334669,0.00209571,-0.00235139,0.000535595,-0.00191606,0.0017231,-0.00197005,0.00101916,0.000697461,0.00111382,0.00035318,0.00434635,0.0024305,0.00209162,-0.00133721,0.00401842,-0.0049866,-0.00431038,-0.000784521,0.00157414,0.00363269,-0.000941789,-0.00157246,0.00259114,-0.00168264,0.00166599,0.000595121,0.000302124,-0.00115085,-0.000174256,-0.000747902,-0.00178706,-0.00157375,0.000575787,-0.00155866,-0.000780608,-0.0011001,-0.000650961,-0.00773213,0.000997382,-0.000192842,-0.0036178,0.00291793,0.000638379,-0.00382662,0.000366812,0.000970789,-0.00653563,-0.000359995,0.00327646,0.00307707,-0.0032209,0.00252169,-0.00355606,0.00141564,-0.00345,0.0019771,-0.000259695,-0.000604792,0.00305255,0.00228199,0.00231886,0.00412456,0.00399066,0.0021088,-0.000842114,-0.000151168,0.00369602,0.00517915,0.00330382,0.00205731,0.00365959,0.00111707,-0.00192104,-0.000102393,-0.00257769,0.000779913,0.000654412,0.00123255,0.00129531,0.00680797,0.00496109,-0.0006225,0.000982432,0.00725775,0.0020957,0.000589537,0.00493104,0.0038263,0.00222761,0.00359504,-0.00272899,-0.00398649,0.00285539,0.00244714,0.0045497,0.000942019,-0.000592538,-0.00399671,-0.00508517,-0.000505584,0.00202077,0.000198492,-0.000123487,-4.62418e-05,0.00358911,0.00238548,0.00191921,0.00614921,-0.00192007,0.00504802,-0.0017686,0.00168943,0.00217693,-9.50992e-05,0.00308348,0.00167379,0.000484361,0.00439429,-0.000560934,0.00825628,-0.000577434,-0.000608325,0.00197202,0.000947724,0.000841108,0.00250595,-0.000550885,-0.000235159,0.000561861,-0.000464034,0.00389348,0.00221823,0.00138387,0.00129695,-0.000124378,0.00214935,0.00642511,9.11157e-05,-0.000320948,0.0031339,-0.00168363,-0.00196215,0.00342957,0.00790182,0.00277128,-2.75852e-05,-0.00264162,-0.00175589,-0.00308003,0.00526582,0.00150618,-0.00240943,-0.00212526,0.000780572,0.000716722,0.00459166,-0.00046825,0.00581141,0.00684934,0.00206351,0.00429699,0.00166753,-0.00039389,-0.00239415,0.00110039,0.00324262,0.00353092,0.00116437,0.00278629,0.00223493,0.00195817,-0.00185289,-0.000920049,0.00365617,-0.00424981,0.000626293,0.000730165,-0.000604172,-0.00333568,0.000335309,0.000194458,-0.00802942,-0.00579989,-0.0037686,-0.00458867,-0.00414826,0.00165712,0.000230445,-0.00257599,0.00148263,-0.00140333,-0.00347846,0.00326736,0.000754217,0.00127735,0.000532402,-0.00038545,5.90703e-05,-0.00672436,-0.00502614,-0.00501813,-0.00302811,-0.00215637,0.00297712,-0.0113037,-0.00707503,0.000330916,0.00361014,0.00112733,0.00398158,0.00231024,-0.000469138,0.00358655,0.00226309,0.00236069,-0.000138155,0.00182966,-0.000334774,0.00168147,0.000840138,-0.00155121,0.000428408,0.000207172,-0.00379816,0.00579719,0.00215691,0.00213853,0.00158792,0.0109827,0.0011374,-0.00120997,0.00226406,0.0010651,0.000700635,-0.00289341,0.000959565,-0.000467548,0.00872319,0.00529122,-0.00316213,0.00319265,0.00250918,0.00458221,-0.000362403,-0.00762056,0.00443812,0.000684198,-0.00111948,0.00464399,0.00312427,0.00209393,0.00058241,0.00472049,0.00894799,0.00329892,0.00350814,0.00195667,0.00129155,-0.00522889,0.0102938,0.00502969,0.0015709,0.00314067,-0.00235897,0.00170643,0.00320863,0.000875257,0.0072721,-0.00195928,0.00128608,0.003008,0.00138107,0.0014967,0.000927365,0.00154981,0.00282016,0.00508342,0.0012531,0.00664747,0.00851323,0.00438682,-0.00307089,0.00516385,-0.00129482,-0.0103241,-0.00150687,-0.00277642,-0.00180366,-0.0024837,-0.000613202,-0.000975133,-0.00368604,0.000733932,-0.00178871,0.000870342,0.00280387,-0.00019687,-0.000762269,-0.00275342,-0.00360502,-0.000885189,0.000317245,-0.00145847,-0.00164089,0.000915785,-0.00290409,0.000720349,-0.00422724,-0.0087795,-0.00562977,-0.00467236,-0.00285603,-0.00256302,-0.00381925,-0.00113439,0.000811296,-0.00188903,-0.000705958,-0.000293668,0.00250658,-0.00128255,-0.00246645,-0.00431084,-0.00150625,-0.00153868,-0.00549238,-0.00102934,-0.00540444,-0.00247051
9,0.00381857,-0.00298934,-8.16207e-06,-0.0015455,1.97616e-06,0.00412682,-0.001778,-0.00143836,0.00413831,-0.00230306,-2.83602e-05,0.00523031,0.00112976,0.00189432,0.00287454,-0.00152531,-4.96134e-05,-0.00148329,-0.00397931,-0.00297887,-0.00311666,-0.000260333,-0.00345729,0.00293299,0.00181693,-0.00254172,0.00203482,0.00076174,0.000911233,-0.00142123,0.00373885,0.0014231,0.00468753,-0.00298633,0.00346037,0.00569393,0.00326116,0.000360263,-0.00739068,-0.00471146,-0.00176159,-0.00192955,0.00151572,0.00175,-0.00204512,-0.00147316,-0.00373317,0.0011396,0.00146103,0.000533671,0.00382015,0.00512581,-0.00133145,-0.00240866,0.00196105,0.00786307,-0.000424903,-0.00333769,0.00641775,0.00683861,-0.00420227,0.000969661,0.00346626,0.00163683,-0.000881721,-0.000530456,0.00563283,0.00407013,0.00352312,0.000254773,0.00313209,-0.00127391,-0.000101296,0.00277347,0.00523152,-0.000162121,0.00104723,-0.00724704,-0.00182495,0.00184235,0.0049911,-7.0248e-05,0.00437714,0.00471646,-0.00380846,1.04174e-05,0.00432149,0.000966286,-0.00250583,0.00875517,-0.0067244,-0.00174347,0.00333784,-0.00459813,0.00639317,-0.00638958,-0.000702864,0.000677643,-0.0011553,-0.00160626,-0.00146226,-0.00590163,-0.00199529,-0.00269889,-0.00296507,-0.0042657,-0.0078907,-0.000492831,-0.00413371,0.00147145,0.0032844,0.000318136,0.00263568,0.00247672,-0.0038443,-0.00222664,0.000214214,0.00173175,0.001302,0.00363228,0.004963,0.00185153,0.00074223,-0.000156476,0.000778918,-0.00318793,-0.00426427,0.00196547,-0.00128127,0.00038704,-0.00621665,-0.00348461,-0.00397176,-0.0061932,-0.00509066,-0.00251267,-0.000349174,0.00102066,-0.00123623,-0.0012393,-0.000916183,-0.00237801,-0.0023735,-0.00546227,-0.00419109,-0.00274411,-0.00683634,-0.00240278,-0.00460776,-0.00538419,0.00301655,0.00370416,-0.00504023,-0.0059119,-0.00558815,-0.00329607,-0.00152177,-0.00407058,-0.00338736,-0.00408066,-0.00489784,-0.00118849,-0.00490316,-0.00362954,0.00271435,0.000314186,-0.0017419,-0.00177416,-0.0017719,-0.00259421,-0.00584931,0.00245378,-0.00304166,-0.00043119,-0.00297023,0.000490657,-0.00226105,-0.000368893,-0.00175259,0.00196264,0.00194582,0.000112066,0.00261905,0.000226155,0.000257589,0.00365715,0.00506337,0.00126739,0.000363764,0.00111976,0.00433555,-0.0028723,-0.00506667,-0.000248996,-0.00235789,-0.00021389,0.000133482,0.00151287,-0.00112569,-0.000384094,-0.00114088,-0.00164809,-0.00330068,-0.00230553,-0.00216968,0.00137098,0.00180688,0.000300916,-0.000414318,0.00129589,0.000445997,0.000874982,0.0051632,0.00277699,0.00122213,0.00429211,0.00440823,-0.000989416,-0.00108891,-0.00314784,-9.85561e-05,0.000518909,-0.00378172,-0.000698999,-0.00171728,-0.00295441,-0.00172876,0.00121813,-0.000247868,0.000475939,0.000873348,0.000416524,-0.00206622,0.00189248,-0.000915013,-0.00221891,-0.00324436,0.00095301,0.00405365,0.00223102,-0.00184496,0.000960927,0.002175,-0.000129645,9.02596e-05,-0.00170057,0.0010692,0.00456312,0.0041522,0.00305331,0.00120768,0.00523895,-0.000354846,-0.00159648,0.00548981,-0.00162294,0.00469052,0.00513059,0.00211801,0.00259106,0.00166865,-0.00319466,-0.00520204,0.00398739,-0.000783308,0.00229161,0.000691433,0.00296296,0.00171193,-0.00318829,-0.00117501,0.00207995,0.00368207,-0.000774936,-0.000472046,-0.000369835,0.00304421,0.00187463,0.00655962,-0.00420266,0.00228064,-0.00186091,-4.74325e-05,0.000895345,0.00193916,0.00579197,0.0037899,0.00443705,0.00462009,0.000164933,0.00202456,-0.000874242,-0.00147369,-0.000432669,-0.00339001,0.00102573,0.00136645,-0.00196161,-0.000990258,0.00048886,0.00276386,0.00426922,-0.00257279,-0.00303501,0.000126337,0.000934055,0.00344725,0.00520765,-0.00107668,-0.00139632,0.00241229,0.00246693,0.00283422,0.00336341,0.00445946,0.00152967,-0.00182806,-0.00234542,-0.00167554,-0.00274692,0.00350164,0.00362427,-0.00241005,-0.00386734,-0.00394422,-0.00339519,0.0014551,-0.00362797,0.00226815,0.00346242,0.00567886,0.00672623,0.00235415,0.000967973,-0.00186959,0.00124348,0.00315279,0.00199899,-0.000349222,0.00128782,0.000211042,0.0033757,-0.000546182,0.00840808,0.00805596,-0.000159261,0.00364933,0.00278208,0.0013841,-0.00116774,-8.54027e-05,0.000159048,-0.00291493,-0.00218005,-0.00297309,0.000306253,0.000114319,-0.000102144,-0.000180911,-0.00340659,0.00210661,-3.11795e-05,-0.00201915,0.00289991,0.000524853,0.00151751,0.00122674,-0.000490821,-0.000935457,0.000642566,0.000548128,-0.00177015,-6.58795e-05,-0.00101431,-0.000254652,-0.0100287,-0.00530372,0.000413248,0.0125566,0.00731897,0.0044642,0.00233428,0.00657935,0.00334476,0.00559862,0.00469669,0.00612521,0.00574825,0.000337953,0.00161291,0.00210225,-0.00197732,0.00239488,0.00265465,-0.00440569,0.00236838,-0.00114578,-0.00326815,0.000857209,0.00474379,0.00164657,0.00180848,-0.00466554,0.00128369,0.00394895,-0.00233354,0.000657426,0.000530056,0.00598941,0.00577851,0.00678841,0.000850437,0.0070814,0.00236802,-0.00069619,-0.00263502,0.00243218,-0.00157089,0.00248422,-0.00787211,-0.00115922,0.00077331,0.000840418,0.00249851,0.0074842,0.00430165,0.00419872,0.0031853,0.00252708,-0.005358,0.00534394,0.00425816,0.00374412,0.00513974,-0.00414685,0.00567978,0.00400088,0.0030607,0.00340255,-0.000561248,4.69641e-05,-0.00557629,0.00517604,0.00085666,-0.00168872,0.00101389,-0.00275733,0.00432047,0.00152224,0.00552851,0.000319791,0.00631162,0.00330572,0.00324221,0.00965307,-0.00410484,0.00353818,1.61356e-06,0.00133429,-0.000697244,-0.000123714,0.00148143,-0.000242944,-0.000397662,0.000131693,0.00353994,0.00205745,-0.00127212,-0.00268615,-0.00388107,-0.00397014,-0.00122123,-0.00313481,-0.00731214,-0.00173273,0.00418171,-0.000618499,0.00150286,-0.00267536,-0.00683292,0.00115571,-0.00481795,-0.00170566,-0.00164262,-0.00700784,-0.00267778,-0.00156005,0.00296473,-2.10064e-05,-0.00237716,0.00469888,0.000450243,0.00289519,-0.000866977,0.00346724,0.000626738,0.00165609,0.00120132,-0.000730029,-0.00300395
10,0.00138919,-0.0014765,-0.00238469,-0.000183166,-0.00267962,0.00281729,-0.000147163,-0.000982933,0.00171316,0.00038991,0.00136293,0.00134608,0.000313029,0.00208404,-0.00103576,0.00136111,0.00245711,-0.000402593,-0.00525923,-0.00607025,-0.00245821,0.000205178,-0.00108857,0.0018009,0.00255303,-0.00124026,0.0022081,0.000158826,0.000159699,-0.00313152,0.00201031,0.000404783,-0.000807639,-0.00214498,0.00365076,0.0034531,0.0059668,0.00255606,-0.00394505,-0.0094845,-0.00314709,0.00108193,0.00222758,-0.00254984,-0.00368258,-0.00477376,-0.00268158,0.00275783,0.00176553,0.000328281,0.000733482,0.00461765,-0.00259583,-0.00474078,-0.00371305,0.00434552,-0.00247087,-0.00728086,0.000231033,0.00213345,-0.00469433,0.00142283,0.00127516,0.000997616,-0.00102456,0.00267441,0.00863943,0.0069133,0.00195208,0.000207508,0.00345557,5.58003e-05,0.00144798,0.00476643,0.001292,-0.00450651,-0.000911449,-0.00794651,-0.00547186,-0.00140504,0.00379142,-0.00165467,0.00197526,3.05762e-05,-0.00116562,0.0011245,0.000739872,-0.000716226,-0.00255407,0.00327957,-0.00885767,-0.00286688,0.0071671,-0.00456682,-0.00138454,-0.00714425,0.00133377,0.000577421,-7.47007e-05,0.000598049,-0.00359977,-0.0063227,-0.00314599,-0.00311876,-0.00336609,-0.00394377,-0.00781024,-0.00179402,-0.000755153,-0.00231799,0.0021698,0.00482759,0.0027211,0.00511787,4.80722e-05,-0.00544966,0.000797839,0.00526489,0.00110741,0.00570731,0.0081929,0.00604965,0.00333343,0.000666108,0.00259709,0.00201345,-0.000568749,0.0058377,-0.00192287,0.000582454,0.00193361,0.000425418,-0.0032727,-0.00641501,-0.00390315,0.00100469,0.00563175,0.00460599,-0.00331571,-0.00467679,-0.0023276,-0.00439199,0.000949803,-0.00397512,-0.00404148,9.41012e-05,-0.00145991,0.00256538,0.00454305,-0.00207809,0.00246255,0.00287001,1.77104e-05,-0.0040317,-0.00482714,-0.00288103,-0.00192388,-0.0034509,-0.00454894,-0.00413751,-0.00279833,-0.00320935,-0.00217558,0.00274161,-0.000803084,0.000461883,0.00390951,-0.00229481,0.000656714,-0.00345272,-0.00092857,0.00349778,-0.00185108,-0.00382691,-0.000735181,0.00597562,-0.00139147,0.00079979,0.000602721,0.00284313,0.0052304,0.00030359,0.00249859,0.00420442,-7.10176e-05,0.00188374,0.00633135,0.00407724,-0.000887063,-0.00112441,0.00221878,-0.00222086,-0.00327953,-0.00291277,0.000425302,-0.000704418,0.000845813,0.00134858,-0.0024762,0.00144083,-9.40234e-05,-0.00211077,-0.00025364,-0.000617221,-0.00240118,0.00213318,7.25625e-05,-0.00284486,0.000662075,0.00681144,0.00474396,0.00300936,0.010626,0.00405185,1.17191e-05,0.00610376,0.00166851,0.00338735,0.000156109,-0.00110903,-0.00384836,-0.0025844,0.00149813,-0.00131456,-0.00506186,0.00240741,0.000376235,-0.00114305,-0.00492696,0.00042737,-0.0029648,-0.00364967,-0.00228959,0.00142563,0.00351088,-0.00300924,-0.00227061,-0.000132621,0.000844377,-0.00325375,-0.00439163,-0.00257828,0.00226433,0.00223242,-0.000998944,-0.00457321,-0.00306475,-0.00172282,0.000839974,0.00429293,0.00454923,0.00396129,0.00327736,4.86266e-05,0.00700447,-0.000291979,0.00462201,0.00698797,0.00243272,0.00439884,0.00145697,-0.00366653,-0.00466363,0.00216247,0.000157269,-0.000964903,0.000915381,0.00122907,-0.00387974,-0.00172969,-0.00327487,0.00168433,0.00222936,-0.00452381,0.000262779,-0.00204025,-0.000291437,0.00191043,0.00520695,-0.00140962,-0.00448289,-0.00314881,0.000682298,-0.000220277,0.00284341,0.00293513,0.00158034,0.00254139,0.00376639,-0.000326735,-0.000414829,0.000945427,-0.000158601,-0.00113506,-0.00195281,-0.000346803,0.00101884,-0.00107696,-2.41883e-05,9.37466e-05,0.00097195,0.00653595,-0.00201994,0.00114287,0.00280341,0.0038022,0.00537315,0.00331844,0.000900082,0.00138898,0.000473344,0.001189,0.00857135,0.00368476,0.00782445,0.00199223,0.00352041,0.0034049,0.000741953,-0.00362977,0.00178593,0.00395714,0.000273786,-0.00210131,-0.000659178,0.00197479,0.00208323,-0.00381947,0.00693313,0.000348174,0.00693966,0.00627654,-0.00280436,0.0013677,0.00335363,0.00342846,0.0036042,0.000617403,0.000833212,0.00101348,0.000300717,0.000745953,-0.0020462,0.00284675,0.0035094,-0.0058106,0.00106743,0.000289524,-0.000877335,-0.00112345,-0.000885109,0.00139057,-0.000560358,-0.00169313,0.00103894,0.000175312,-0.00222779,0.00210251,0.00168101,0.000863645,0.00543911,0.0053248,0.00148393,0.00688053,0.00080731,-0.00199321,0.00294704,0.00405619,0.00150852,0.00272935,0.00409244,0.00263962,0.00139018,0.00218698,-0.000762529,-0.0109624,-0.00809981,-0.00237783,0.0114777,0.00241979,0.00401395,0.00475873,0.00504758,-0.0010687,0.00217944,0.0051298,0.0112482,0.00524528,0.00244355,-0.00369053,0.00169586,-0.00134614,0.00155041,0.00517367,-0.000746341,0.00368399,0.00207488,-0.00276702,-0.00429864,0.00204743,0.000763183,-0.00455126,-0.00252196,-0.00126708,0.00413728,-0.00664125,-0.00630169,0.000909471,-0.00212555,0.000701211,0.00271484,0.00249657,0.000675588,-0.000434637,0.00333621,-0.00163903,0.00278318,0.00031104,0.000297387,0.00103982,0.00441616,0.0034314,0.0022571,0.00235938,0.002065,0.000976627,-0.00390021,-0.00325207,-0.000758931,-0.00012195,-0.00057268,0.000186062,0.000989964,0.00332665,-0.00375464,0.00083284,0.00127866,-0.00150754,-0.00395956,-0.00290074,-0.00274704,-0.00356858,0.00394128,-0.00186125,-0.00139021,0.00215529,-0.00370744,0.00666044,-0.000706769,0.00424289,-0.000406828,-0.000545551,-0.00288842,-0.00148117,-0.00283819,0.00226303,0.00213918,-0.00640794,-0.00217628,-0.00297113,0.000341509,0.00138847,-0.00116694,0.00132084,-0.00104723,0.00327677,1.17068e-05,-0.00248983,-0.00411871,-0.00992178,-0.00808477,-0.000701784,-0.00667779,-0.00636738,0.00310677,0.00116056,-0.00319533,0.000273592,5.76445e-06,-0.00684543,-0.00250793,-0.0058209,-0.000336867,-0.00578753,-0.00160523,-0.00457368,-0.00510794,0.00204855,-0.000989976,-0.00404576,-0.00124635,0.00295852,-0.000255734,-0.000995508,0.0017206,-0.00212627,0.00352925,0.00196637,0.000163734,0.000507793
11,0.00101309,-0.00449159,-0.00113321,0.00222514,-0.00148729,0.00254853,-0.00249417,-0.00324125,-0.00186626,-1.42782e-05,-0.00211862,-0.006086,-0.00429813,-0.00188141,-0.00283893,0.00034029,-0.000903884,-0.00349825,-0.0075188,-0.00677212,-0.00506378,-0.00163345,-0.00246907,0.000165028,0.000526448,-0.00371747,2.62098e-05,-0.000724951,-0.00163508,-0.00285301,-0.00159588,0.000620747,-0.00113887,-0.000735917,0.00214042,0.00223391,0.0054917,0.00239573,-0.000618141,-0.00895836,-0.00568221,-0.00295181,0.000212466,-0.00256027,-0.00350834,-0.0094131,-0.00808025,0.000743733,0.0026722,0.00077397,0.00194404,0.00435761,-0.00514898,-0.00288319,-0.00141954,0.00452722,-0.00412152,-0.0044671,0.00173877,3.74257e-05,-0.0045787,0.00144219,-0.000497286,0.000129991,-0.00231378,0.00777623,0.00811904,0.00471626,0.00170274,0.000150311,0.00115318,0.00232513,0.00421296,0.00559766,0.00192185,-0.00157771,-0.00156705,-0.00481166,0.000876428,-0.000465069,0.000490966,-0.00261632,-0.00123187,-0.00692895,-0.00198367,0.00402838,0.00257587,-0.000820257,-0.0033578,-0.00397214,-0.00692226,0.000279572,0.0081356,-0.00382073,-0.00721493,-0.00484802,0.0036979,0.0038283,-0.00217064,0.00339582,-0.00450452,-0.00797076,-0.00484031,-0.00444462,-0.00372454,-0.00644185,-0.00632609,-0.00291659,-0.000816747,-0.00214933,0.00170256,0.0055183,0.00558467,0.00548426,0.000173411,-0.00448382,-0.000972618,0.00142262,0.00369117,0.00506827,0.0101907,0.00379454,0.00366692,0.0013106,0.00464576,0.00126716,-0.00227342,-0.000504387,-0.00169739,-0.00102399,0.00614379,0.0058986,-0.00227285,-0.00844902,-0.00140569,0.00341099,0.0043283,0.000200351,-0.00737943,-0.0017143,0.000202486,-0.00352564,0.000791069,-0.00544171,-0.00396232,0.000997844,0.00510122,0.00238835,0.000126734,-0.000555292,0.00454309,-0.00059919,-0.00123861,-0.000291004,-0.00270846,-0.0034485,-0.00386127,-0.00369674,-0.0062453,-0.0065059,-0.00756458,-0.00293011,-0.00252984,-0.000884562,-0.00654118,-0.00256002,0.001796,-0.0042862,-0.000946319,-0.00254326,-5.69479e-05,0.00417592,-0.00327572,-0.000225251,-0.000282953,0.00584388,0.000450386,0.000875373,-0.000556677,0.000395674,0.00223499,-0.00130549,0.00316788,0.00564816,0.00178851,0.00679311,0.0053042,0.00161874,-0.001915,-0.000281483,0.00424181,-0.00213631,0.00121005,0.000723522,0.00196623,0.00121994,-0.000242924,-0.000243158,-0.00404913,0.0031778,0.00261932,-0.00231364,0.00233606,0.00182084,0.000603765,0.000188695,-0.00115252,-0.00250655,0.000252243,0.00749318,0.0062128,0.00525525,0.0101829,0.00280165,-0.00207099,0.000621094,-0.000714713,-0.00313099,0.00115685,0.000344193,-0.00198716,-0.00472099,0.00759699,-0.00107343,-0.00327654,0.00198084,0.00230312,-0.000387965,-0.00443877,0.00489337,0.000343926,-0.00276517,-0.00248323,0.000925401,0.00294632,-8.66755e-05,-0.00321755,-0.00651002,0.000579568,-0.00416356,-0.00541284,-0.00270403,-0.000901359,0.00172098,-0.00521595,-0.00822106,-0.00407087,-0.00271354,-0.000840246,-8.95784e-06,0.00306736,0.0019418,0.00244515,0.00161337,0.0068667,0.00175835,0.00100924,0.00533686,-0.00179752,0.00268695,-0.00140969,-0.000316828,-0.000218981,0.00143736,-0.00245572,0.00337998,0.00321208,0.00330242,0.0015637,0.000276451,-0.00238137,0.00192667,0.0039859,-0.00679989,-0.00163327,0.00283577,0.00146392,0.00154306,0.000874491,-0.000103796,-0.00128815,-0.00232099,-0.00110678,-0.00309369,-0.00124995,0.00302083,-0.00040341,-0.00030081,0.000166965,-0.00288567,0.00168998,-0.000473899,-0.000637809,-0.00151553,-0.00280906,0.00193736,0.00185957,-0.00238271,-0.00193839,-0.00131548,-0.00315088,0.0028219,-0.00270356,5.8051e-06,0.00359155,0.0034318,0.0059125,-0.00125905,0.000202088,0.00156105,-0.00114361,0.00414252,0.00513753,0.00571839,0.00542868,-0.00179554,0.00075128,0.00155804,-0.00107526,-0.0017567,0.0024591,0.00100484,-0.00250419,-0.0037322,0.000895993,0.00742061,0.000275394,-0.00408865,0.00803748,0.000455324,0.00420943,0.00355542,-0.000963793,0.00105813,0.00100828,0.00219516,0.00308436,0.00254944,0.00309818,0.00353408,0.000890122,0.000910718,-0.00139173,0.00416739,0.00106417,-0.00475805,0.00158373,-0.00024381,-0.00312458,-0.0019988,-0.00213238,-0.00108211,0.00198666,-0.000656806,-0.0011411,-8.69313e-05,-0.00420975,0.00118587,0.00129541,0.0013045,0.000365849,0.00225212,0.002998,0.00741293,0.00176681,-0.00234382,4.70769e-05,0.00298929,0.00301802,-0.000317244,0.00272193,0.00238519,-0.000615115,0.00111798,-0.000306426,-0.0112129,-0.0105296,-0.00224596,0.00625674,-0.00140214,0.00680934,0.00595066,0.00378061,-0.00404169,0.00396545,0.00363814,0.00742753,0.00147982,-0.000496319,-0.00393515,-0.00089212,-0.00463517,0.000191146,0.000873028,0.00382789,0.00442544,0.00333036,-0.00348897,-0.00615312,0.000962314,0.00226478,0.00138295,0.00234302,0.00478655,0.00503005,0.000402085,-0.0023027,0.00072237,0.00191478,0.000827968,0.000794719,0.00215632,0.00071189,0.00113003,0.00971156,0.00228551,0.00379756,-0.00117746,0.00145481,0.00416346,0.000887188,0.00112719,0.00268743,0.00400846,0.00130652,-0.00321375,-0.0012025,-0.00176676,-0.00381807,-0.00186139,0.000842281,0.0041289,0.00360625,0.00350537,0.00177151,0.00124987,0.000581711,0.00111114,-0.00048965,-0.00106005,0.00104113,-0.000929017,0.000135838,-0.00228131,0.000158594,0.00679575,0.00110591,0.000230264,-9.82836e-05,0.000184298,-0.000244617,-0.00148331,-0.00110867,0.00408243,0.00376711,-0.00116323,-0.0011596,-0.00468705,-0.00127962,-0.00195436,0.00379423,0.00144719,-0.00553304,-0.00158351,-0.000901718,-0.00281881,0.00391797,0.000378633,-0.00507606,-0.00568115,-0.00413629,-0.00220701,-0.00389035,-0.00360431,-0.000423735,-0.0022586,-0.0076438,-0.000490833,0.000459994,-0.00258451,-0.00433062,-0.0027906,0.00130179,5.67421e-05,0.00149695,-0.000996707,-0.00222769,-0.00210924,-0.00191606,-0.00685356,-0.00719268,-0.00312948,-0.00314309,-0.00657298,-0.00221048,-0.00414988,0.000543205,0.0004801,-0.00256012,-0.000295394
12,-0.000262936,-0.00617119,-0.00247536,0.000225439,-0.00162457,0.00017136,-0.00179128,-0.00681924,-0.00604428,-0.00510382,-0.00293965,-0.00821954,-0.00221489,-0.00020583,-0.00275009,-0.00331981,0.00147258,-0.00192559,0.000838693,0.000291615,-0.000704957,0.000827908,0.00118951,0.00190726,0.00377387,-0.00126053,-0.00329225,-0.00391968,-0.00382255,-0.00389197,-0.000898848,-0.00231307,0.00248195,0.000685183,0.00340824,-0.00050238,0.00140539,-0.00164416,-0.004449,-0.00345188,-0.0019463,-0.00176036,-0.00243399,0.00214849,0.000574354,-0.00154397,-0.00171198,0.000800411,-0.000703173,0.00402383,0.00547289,0.00549201,-0.00265842,-0.00206717,-0.000340801,0.00235975,-0.00150113,-0.00283504,-0.00103931,0.00167467,-0.0048173,-0.00127687,0.000558214,0.00138567,-0.00352168,0.00867493,0.0061703,0.00642503,0.00123094,-0.00194832,0.00112444,0.00613009,0.00742666,0.00555279,0.00312087,0.00092254,0.000145901,0.0021418,0.00241012,0.00258248,-4.57365e-06,-0.00178801,-0.00367791,-0.00868688,-0.000757869,0.00448812,0.00269206,0.000891581,-0.000731989,-0.000122611,0.00151613,0.00602919,0.00959915,-0.00116994,-0.00133372,0.00169282,0.0043085,0.00322653,-0.00145988,0.00514041,-0.000861952,-0.00788427,0.000623656,0.00313515,-0.00450396,-0.00869181,-0.000193681,-0.00102897,0.0113321,-0.000158336,0.00676768,0.00826597,0.0115156,0.00604951,-0.00120814,-0.00246265,0.00500827,0.00211265,0.0078221,0.0077837,0.0125509,0.00882567,0.00508663,0.000474795,-0.00020205,-0.00314543,-0.00212485,0.00361186,5.03283e-05,-0.00254104,0.00278277,0.00320465,-0.00184377,-0.00491036,-0.0026452,-0.00128086,0.000341404,-0.00233999,-0.00600253,-0.00415096,-0.00215809,-0.00540869,9.22325e-05,-0.00665263,-0.00500003,-0.000336191,0.000805632,0.00121664,0.00142374,0.00210124,0.00316353,0.000934406,0.000290432,0.00295764,0.0014606,-0.00109929,-0.00608158,-0.000395146,-0.00657836,-0.0104176,-0.00401554,-0.00199393,-0.000811452,-0.000311407,-0.00938438,-0.00268743,-0.000696519,-0.00109021,0.00155807,-0.00164875,-0.000206937,0.00030244,-0.00399068,-0.00108698,-0.000969965,0.00214955,-0.00170226,-0.00104277,-0.00296833,-0.00239185,-0.00076497,-0.00304257,0.00115219,0.00230384,0.00115854,0.001661,9.18901e-05,-0.00139178,-0.00475945,-0.00380136,-0.00158085,-0.000273005,-8.30702e-05,-0.00481117,0.000128531,-0.00185278,-0.00216539,-0.002093,-0.00555329,0.00406254,0.00246169,-0.00405405,0.00112592,-0.000282699,0.000407697,-0.00181524,-0.00183995,0.000791569,7.15809e-05,0.0100184,0.00608278,0.00344997,0.00776756,0.00202957,-0.00126503,-0.00103118,0.000318926,-0.0043587,-0.000136502,-0.00171718,0.00181036,-0.000900242,-0.0012679,-0.000398745,-0.000180398,-0.000403539,0.00160643,-0.00145092,-0.00160645,0.00665043,0.000937833,8.07191e-05,-0.000766126,0.00335171,0.00426206,-0.00174518,0.0012073,-8.09087e-05,0.00141303,-0.000324409,-0.00144101,-0.00069008,-0.00200041,0.000722503,-0.00498335,-0.00923134,-0.00286195,-0.00466475,-0.00301143,-0.00249296,-0.00107659,0.00383951,-0.00190278,5.15619e-06,0.0070013,0.0042983,0.000645435,0.00318313,-0.000211363,-0.0011021,0.000893599,-0.00010039,0.000225992,-0.000712245,-0.00422726,0.00328129,0.00331931,0.00409154,0.00363364,0.00171179,-0.00327254,0.000636806,-0.00018546,0.00154161,-8.96655e-05,0.000928506,0.00206209,-0.00339501,-0.00299159,-0.000389206,0.000527676,-0.00571141,0.00261783,0.00108343,-0.00117111,0.00173027,0.000620762,-0.00102746,-0.0036949,-0.00659152,0.000200058,0.00372284,0.00148185,-0.00155003,-0.00191149,0.00205794,0.00237979,0.0016757,0.000569374,-0.00211247,-0.00548603,0.00351388,-0.00269822,0.000763031,0.00422476,0.0035395,0.000111744,0.00148114,-0.00332687,7.93742e-05,-0.00246112,0.000700875,0.00286924,0.00189092,-0.00295441,-0.00329636,-0.00152352,-0.00125253,-0.00312715,-0.00121296,0.000211521,-0.000988407,-0.00415955,-0.00488074,-0.000492007,0.00521111,-0.00267587,-0.00503454,0.00342356,-0.00263824,0.00222573,0.000494464,0.00114525,0.0018489,-0.00132545,-0.00163695,-0.000536832,-9.34711e-05,0.00385323,0.00471543,0.00214173,0.00173439,-0.00043124,0.00281448,0.00367158,-0.00199052,0.00217499,0.00089822,0.00278665,-0.000865407,-0.00106221,-0.00120896,0.00061047,8.00991e-05,0.000477184,0.000689982,-0.00356213,-0.000357694,-0.00141688,-0.000343654,-0.00124499,-0.00114933,6.9918e-06,0.00350683,0.00129799,0.00128886,-0.00192826,-0.000375633,0.00195701,-0.0021451,0.000504584,-0.000666622,-0.000140088,0.00174946,0.00120255,-0.00684099,-0.00980527,0.00161543,0.00386566,0.00297166,0.00522439,0.00495584,0.00237712,-0.000838277,0.00194369,0.00277023,0.00389804,0.00299208,-0.00032683,0.000154789,-0.000150741,-0.00458682,0.00063942,0.00193036,-0.00136816,0.00289487,-0.000336075,0.00157288,0.00484917,0.00455014,0.00374111,0.00651886,0.00175754,0.00626955,0.00691141,0.00201269,-0.00152541,-0.00192103,0.0032786,0.00430562,0.000752195,0.00197604,0.00134987,0.00677667,0.00852465,0.00134033,0.00427718,0.00581759,0.00542697,0.00366969,0.00727169,0.00548385,0.00836959,0.00336243,0.00394845,0.00374983,9.02612e-05,0.00227124,0.00115235,0.00290501,-0.000436673,0.000988144,0.00362271,0.00576047,-0.00131329,0.00444168,0.00171683,0.00261194,-0.000553878,-0.00230754,0.00105617,-0.00608917,-0.000221072,-0.00109703,0.00388922,0.000306934,0.002943,0.00040224,-0.000650033,0.00398035,0.000751626,0.00165018,0.000389918,0.000330371,0.00590832,-0.00148421,-0.00159498,-0.00149845,0.000726488,0.00228347,0.00465721,0.00158782,-0.00210811,-0.0018922,0.00185608,-0.00150631,0.00291237,0.000838609,-0.00156161,-0.00203465,-0.00261334,-0.00122669,-0.00103596,-0.000475744,-0.0036475,0.000893237,-0.000289601,0.00085721,-0.000597921,-0.00526154,-0.00333637,-0.00525211,0.00336433,-0.00117988,-0.00127266,0.000564389,0.00306044,0.00234051,-0.00110912,-0.00519572,-0.00503345,-0.000987184,-0.000398626,0.00014508,0.000873989,-0.000474979,0.00181863,0.00093161,-0.000706335,0.00212147
13,-0.00487125,-0.00939523,-0.00478232,-0.000739705,0.00209962,0.00299907,-0.000958261,-0.00524077,-0.00592054,-0.00273249,-0.00273605,-0.00227327,-0.00353679,-0.00475848,-0.00198759,-0.00702736,0.00521048,0.00207113,0.00229278,0.00358972,0.00323513,0.00349518,0.00576848,0.00190123,0.00623242,0.00607137,1.83576e-05,-0.00299106,-0.00131602,0.00122425,0.000619407,-0.00368838,0.00178413,-0.00106856,0.00507871,-0.00121168,-0.00183444,0.000226881,-0.00414122,0.00480309,0.00312921,0.00164781,-0.000811349,0.00956874,0.00388734,0.00350944,0.00213493,0.00179818,-0.00172361,0.00538633,0.000310582,0.000929553,0.00242796,0.0011418,-0.00112722,-0.00171867,0.00386986,0.0010215,-0.00398479,0.0016565,-0.00122419,-0.00263877,0.00182929,0.00275767,-0.000521088,0.00947937,0.00426108,0.00148665,0.00124709,-0.00121618,0.00259343,0.00579178,0.00286787,0.00276066,0.00410766,0.000574598,0.00355345,0.00845705,0.00520627,0.00606493,-0.00104777,7.7951e-05,-0.00194843,-0.000793605,0.00437323,0.000559455,-0.00218148,0.000129396,0.00064014,0.00379994,0.00354597,0.0020872,0.00276245,-0.00138937,0.00403601,0.00689068,0.00704151,0.00321018,0.00501259,0.00458628,0.000265612,-0.00496446,0.00209249,-0.000170945,-0.00157276,-0.00588086,-0.00282614,-0.00312966,0.00543902,-0.00346475,0.00548905,0.00776743,0.00563376,0.00817293,0.00322336,-0.000960373,0.00689665,0.00515526,0.0100022,0.00799063,0.0023649,0.010907,0.00773205,0.00465797,0.00185148,-0.00443057,-0.00609939,-0.00106432,-0.000581487,-0.0036274,-0.00079563,-0.000693394,-0.00222453,-0.00197842,-0.00141398,-0.00119323,0.00130601,0.000919389,-0.000854401,-0.00368555,0.000663563,-0.00197473,-0.000129875,-0.00150696,-0.00567064,-0.00561811,0.000217604,-0.00430685,-0.00293592,0.00337529,0.00107255,0.00129018,-0.00161857,0.00436985,0.00164799,-0.0034773,-0.000998648,-0.00338224,-0.00462444,-0.00317143,-0.000417258,-0.0025455,0.00156533,0.00121376,-0.00520714,-0.00214205,0.00119535,0.00019931,-0.000409213,-0.00175697,0.000513835,-0.000675218,-6.4321e-05,-0.00333965,0.000368105,-0.000239909,-0.00108715,0.00105421,0.00132147,0.000966004,0.00113927,-0.00149984,0.000405368,0.00100081,0.00123145,0.00156798,0.000549298,0.000802039,-0.000272613,-0.00272018,-0.00483898,0.00196545,0.0031774,-0.0032976,0.000983377,-0.000332357,-2.0339e-05,0.000652353,-0.00457991,0.000918435,0.00273619,-0.000526292,0.00138182,0.000824986,0.00242552,0.00167992,0.00076166,3.34549e-05,-0.000776194,0.00119543,0.000907775,0.000410513,0.000788683,0.00280282,0.00558557,-0.00195949,-0.00199163,-0.00677462,-0.00530569,0.00036808,0.00171366,-0.000909767,-0.00486826,-0.000603772,-0.00101848,0.00456999,0.000508165,-0.000351209,-0.000259125,0.00608964,-0.00224375,-0.0012832,0.00722058,0.00268984,0.00561746,-0.000936912,0.00156023,-0.00400801,0.00123916,-0.00204145,-0.000699871,0.000845238,0.00292271,-0.00156175,-0.00378371,-0.00188981,-0.00142127,-0.00248924,6.89883e-05,0.00130152,-0.00308912,0.002767,-0.00284411,-4.32555e-05,0.00328647,0.0016249,-0.000494049,0.000147556,0.00160021,-0.000826077,0.00241626,-0.000441737,0.000717601,-0.000891574,-0.00581177,0.000240879,0.0027549,0.00242851,0.00174573,0.0032594,-0.000793015,0.000838251,0.00220843,0.00331917,0.00171362,0.00204802,0.00285568,-0.000872101,-0.00234979,-0.000897593,-0.001139,-0.00314262,0.00133535,0.00199476,0.00238533,0.00436118,0.00273591,0.00225908,0.00133804,-0.00340505,0.00322898,0.00164075,0.00161885,0.00426195,0.00167789,0.000233906,0.00102858,0.0010926,0.00371754,0.00200668,-0.00092749,0.00573899,-0.000929102,-0.000790556,0.00305131,0.0016926,-0.0037093,0.00573765,-0.000111476,-1.56248e-05,-0.00261059,-0.00406348,-0.00213352,-0.00086091,-0.000359565,-0.00508455,0.00145022,-0.00109637,-0.00201856,-0.0029381,-0.00352092,-0.000483746,-0.00364644,-0.00339961,-3.44513e-05,-0.00220747,-0.00348316,-0.00189046,-0.00228909,-0.00489935,-0.00110607,-0.00133356,-0.000715441,0.00207048,-0.00254454,-0.00181484,-0.000577509,0.000801616,-0.0021819,0.000699136,-0.000525117,0.000238251,0.00132801,1.46079e-05,-0.00035878,-0.000427743,-0.00149483,-0.00469375,0.00257109,0.000757563,-0.00136266,-0.00768416,0.00290211,0.00120166,0.00347437,0.00192288,0.00101622,0.00418987,9.8057e-05,-0.00182161,0.00280202,-0.00149121,0.00179149,0.00311065,-0.000990007,0.00316772,0.00140961,-0.00212153,-0.000151551,-0.00114583,0.000197496,0.000414011,-3.08285e-05,-0.000477663,-0.00157599,-0.00207692,-0.00439414,-0.00273088,0.00278517,0.00510881,-0.000427784,0.00387795,0.00538342,-0.00470529,0.00292787,0.000411942,0.00573816,0.00670837,0.00287595,-0.00415897,7.38096e-05,0.000449135,0.00304608,0.00643338,0.00405433,-0.00128632,0.000688387,0.0031189,-7.68825e-05,-0.0008588,0.00110753,0.000375315,-0.000693191,-0.00290444,0.000475336,0.00262665,0.00170293,0.000775864,0.00582687,0.00429963,5.58958e-05,-0.00330746,0.00286323,-0.00427283,0.00457478,0.00434876,-0.000188823,0.00457359,0.00209075,-0.00212802,0.00344282,0.00428757,0.00385489,0.00246865,-0.00202256,0.00199769,-0.0051968,-0.00313272,-0.000695489,0.000239516,-0.00371941,-0.00231097,0.00225993,0.002974,-0.00495895,0.00378768,0.00345502,0.000602568,0.0014041,0.00109731,-0.000680295,-0.000805388,0.00665042,0.00223936,0.00224965,-0.00199369,-0.000557288,0.0044226,0.000153722,0.00175374,-0.00244606,0.00184451,0.00756203,-0.000991716,-0.00601344,0.00347497,-0.00120614,0.00429803,0.00143238,0.00425879,0.00327592,0.00296071,-0.0012436,-0.00208915,-0.00164919,-0.00461304,-0.00295598,0.00257862,-0.000977193,-0.00327986,-0.000235066,0.00179096,-0.00175533,0.00428513,-3.11859e-05,0.00342823,0.000868447,-0.0016969,-0.00141969,-0.00412403,0.00017388,-0.000280882,0.00136203,0.00323117,0.00357569,0.00531134,0.00498425,0.00510559,0.0037963,-0.00431519,-0.00690578,-0.00165735,0.000627491,-0.0010985,-0.00106133,-0.00230293,0.000553628,0.00249961,0.00056138,-0.00160614
14,-0.0013672,-0.00615771,-0.000794878,0.00300898,0.00252441,-0.00166823,9.08059e-07,-0.00154156,-0.00313557,-0.00084509,-0.00228872,-0.000640758,-0.00119631,-0.00487256,-0.00101953,-0.000744482,0.00561618,0.00361896,0.00776568,0.00504719,0.00513537,0.00539136,0.0101048,0.00324401,0.000575334,0.00651524,0.00199044,0.000992072,-0.0005703,0.00110591,-0.00173726,-0.000746507,0.00186108,-0.00278938,-0.000174017,-0.000631773,-0.00157095,-0.00165634,-0.000325062,0.00557105,0.00408102,0.00439535,0.000781636,0.0052124,0.00377553,0.00446041,0.00507972,0.000835081,-7.51765e-06,0.00577237,-0.00113741,-0.00472612,0.00338769,0.00300884,-0.000125357,-0.00564453,0.00430026,0.00443237,-0.00250141,0.00318272,0.00179149,0.00411654,0.0042668,0.00100616,0.00199488,0.00239389,-0.00191215,-0.00411777,-0.00187321,0.000250919,0.00282025,0.00126799,-0.0013047,-0.00478788,0.00117886,0.00392516,0.00754943,0.00368233,-0.00111029,0.00350872,0.0028389,-7.13992e-05,-0.00270863,0.00119366,0.0074919,-0.000733177,-0.00416745,-0.000577536,-0.000939058,0.00046175,0.00222803,-0.00142186,-0.000776422,0.000410489,-0.00164855,0.0010124,0.00952241,0.00411668,0.00745974,0.00281841,-0.00528594,-0.00475465,-0.000194507,-0.00308288,-0.00775013,-0.00646726,-0.00182346,-0.00611481,0.000134325,-0.00121373,0.00278585,0.000972987,-0.003332,0.00499157,0.00683673,-0.00444489,0.00115808,0.000932395,0.000951129,-0.000149942,-0.00211034,0.00192736,0.0059464,0.00855266,0.00689093,-0.00133219,-0.00248439,6.60274e-05,0.00152081,0.00105848,-0.00114072,-0.00191597,0.000307719,0.00378887,0.00541891,0.000550753,-0.000110584,0.00150687,0.000626016,-0.00135478,-0.0044087,-0.00274911,-0.00069714,-0.000148173,0.00231525,-0.000301572,0.00139305,0.00452551,0.00513556,0.00307459,0.00283505,-0.00111472,0.00355685,0.0024769,0.00105134,0.00342479,0.00363439,0.000986727,0.00161985,-0.000212165,-0.000293064,0.00106478,0.00398692,0.00395056,0.00262441,-0.00152311,0.00348572,0.000655015,0.00287891,0.00206391,-0.00177462,-0.00664771,0.00326023,0.00349007,0.00167358,-0.00206832,0.00405399,0.00214892,0.00368938,0.00394048,0.00472337,0.00616096,-0.0012779,-0.000936346,-0.00123116,0.000720053,0.00324397,0.000147144,0.00280614,-0.00177262,-0.00418177,-0.00279269,0.00245416,-0.00136758,-0.000506812,0.0041876,0.000308258,0.00141836,-0.00189692,-0.00192928,0.000641135,-0.00053299,0.00118648,0.00178087,0.0012671,0.0032227,0.00324561,-0.000987608,-0.00282071,-0.00467129,0.000514417,-0.00182921,-0.00606108,0.00301722,0.000618325,-0.000155219,0.00306068,-0.00618417,-0.00245718,0.00257529,-0.00193959,-0.000360006,-0.00370836,-0.000608689,-0.000400944,0.00205951,0.00379256,0.00170145,-0.001517,-0.000995129,-0.00233891,-0.000120611,0.000166035,0.00386826,0.00029716,0.000467823,-0.000732485,0.000355062,0.00169434,-0.00480125,-0.000733825,0.000349922,0.00309071,-0.00251614,-0.000162204,0.00256088,0.00133945,0.00273039,0.00271178,0.00433627,0.00374777,0.00433986,-0.00222259,0.00163504,0.00443513,0.00233267,0.00105135,0.000827871,0.0033067,-0.000931888,0.00186089,-0.00724061,0.00162844,-0.00187505,-0.0081932,0.00157944,0.000112764,0.00102231,0.00048843,0.00293708,0.000275633,-0.000171207,-0.00178397,0.00314091,0.00152446,-0.000300078,0.00487269,-0.00305354,-0.000694151,0.00372271,-0.00543719,-0.00286521,0.000150894,0.0013817,0.00454425,-0.00116847,0.00286823,0.00309858,0.00339298,-0.00395532,-0.000285105,-0.001798,-0.00249314,0.00343287,0.00391244,-0.00271713,-0.000963784,0.000439207,0.00440301,0.00318321,0.000940169,0.00315715,0.000425927,0.000503448,0.00233802,5.66726e-05,-0.00568825,0.00360367,-0.00245014,-0.00180306,-0.00149764,-0.00587427,-0.00237969,-0.00173546,0.00170853,-0.000445158,0.00292583,-0.000650807,-0.000391974,-0.00654344,-0.00399738,-0.000437682,-0.000127589,-0.000207069,0.00107448,-0.00178043,-0.00230837,0.000644799,-0.0042266,-0.00154494,-0.00386367,-0.000224758,0.00261603,0.00483512,-8.75752e-05,0.000621534,0.00128299,0.000180645,0.00373438,0.00184251,0.000688248,0.0024141,-1.79757e-05,-0.00232936,-0.00288635,-0.00086266,-0.000914084,-0.00211328,0.000870884,0.00384682,0.00166551,-0.00214707,0.0052185,0.00247081,0.00351612,0.00198251,0.00200092,0.00201592,0.000128649,-0.000334061,0.00681027,-0.000585233,0.000650349,0.000511453,-0.00175346,0.00135489,0.00104848,-0.0014737,0.000443055,0.00379882,0.00194157,0.00196591,0.00164449,0.000629327,-0.00182759,-0.00239208,0.00104249,-0.00337494,0.000203581,0.00147878,0.00456175,-0.00209287,0.00353807,0.00107298,0.00296206,0.00521864,0.00408535,0.00141037,0.00164905,-0.00586672,-0.00152405,0.00250338,0.00587703,0.00445646,0.00475185,-0.000838804,-0.000435341,0.00113748,-0.000491866,-0.000982705,-0.000446446,-0.000930199,-0.000657358,-0.00290758,-8.81065e-05,0.00374744,-0.00015286,-0.00233414,-0.000916119,-0.0010071,0.00274055,-0.00547336,0.000278768,-0.0045028,-0.000624494,-0.00629396,0.00278165,0.00257029,-0.00216156,0.00312491,0.00343757,-0.00344854,-0.0043124,-0.00490942,-0.00295134,-0.00187952,-0.0033788,-0.00337923,-0.00785768,-0.00714788,0.00819464,0.000855751,-0.00163063,-0.00223107,-0.00597991,0.000632374,0.00499185,-0.000848476,-0.0018877,-0.00520922,-0.00270202,-0.00566665,-0.00255621,-0.0066983,-0.00313279,0.000345709,-0.00141861,-0.00033046,-0.00200512,-0.00706632,-0.00538451,0.00202158,-0.00390392,-0.00358763,-0.00170012,-0.00338196,-0.00576024,-0.00119799,-0.00592848,0.00341732,0.0035593,0.00115515,0.0010736,-0.00404044,-0.00259038,-0.00360551,-0.00378705,-0.00175562,0.0034862,-0.00288334,-0.000546291,0.00493137,0.000182155,0.00190654,0.000549322,-0.00261553,-0.00531105,-0.00465499,0.000524672,-0.0111914,-0.00202789,-0.00534858,0.00153811,0.000437493,0.000453522,0.00311397,0.00363602,-0.000237155,0.00124374,0.001949,0.00375574,0.00448899,0.000521325,-0.00051976,0.000502093,0.00128155,-0.00232425,0.00171299,0.000338891,-0.00435887
15,-0.00357671,-0.00543568,-0.000347558,0.00619207,0.00181071,0.00291719,-0.000108325,0.00379122,0.00132326,-0.00139492,0.00208147,-0.00228649,-0.0019707,0.000763691,-0.00220961,0.00150115,0.00460353,0.0018701,0.00590745,0.00243201,0.00114151,0.00113512,0.0057823,0.000934925,0.000956028,0.00571323,0.00453495,0.00146589,0.00192825,0.00283816,-0.000392826,0.00284202,-0.00233484,0.000912421,0.00117393,-0.00189911,0.00256779,0.00194942,0.00332283,0.00221619,-0.000722152,0.00122824,0.00134721,-0.00375145,0.00142978,-0.00306884,-0.000426375,-0.00211256,0.00247952,-0.00145118,-0.00349851,-0.0057237,-0.0017131,-3.48808e-05,0.000621698,-0.00453148,0.000357536,0.000810493,-0.000833883,-0.000653429,0.00146689,0.00207119,0.00448909,7.59187e-05,0.00367465,-0.00264089,-0.00779942,-0.00719952,-0.00389365,0.000962303,-0.000196482,-0.00121159,-0.00327984,-0.00471622,-0.00537479,-0.00218358,0.00104842,-0.000371027,0.000533038,0.00190984,0.000328009,-0.00114489,-0.00285183,-0.00140919,0.00679929,-0.00458678,-0.00468777,-0.0010555,-0.00177487,-0.00173041,-0.000257904,-0.00145853,0.000898227,-0.00413419,-0.0046372,-0.00227013,0.00189734,-0.000670711,0.00599079,0.000382947,-0.00864656,-0.00551374,-0.0011202,-0.00251006,-0.00634505,-0.00545175,0.000734558,-0.00406585,-0.000895519,0.00206408,-0.00300821,-0.00119883,0.000319631,-0.000764365,0.00470841,-0.00649332,-0.001125,-0.000177679,-0.00293759,-0.00233896,-0.00148058,3.12065e-05,0.000589634,0.002766,0.00478185,0.000308777,0.000864059,-0.000727913,0.00308034,0.000785263,0.000747978,-0.00101566,-0.00260017,-0.000774942,0.000780608,0.00713922,0.0041992,0.000315327,0.000738509,0.000483186,-8.74198e-05,0.00247764,0.00435569,0.00349979,-0.000427962,0.0025428,-0.00245518,0.00135535,0.00236547,-0.00293943,0.00531346,0.00301689,-0.000490907,-0.00289916,-0.00398226,0.00207417,0.00482584,0.000176944,0.00278712,0.00240312,-0.000875362,-0.00390873,-0.00165596,0.00171165,0.00328587,-0.00201575,0.00480234,0.000440772,-0.000325895,-0.0019456,-0.00172544,-0.00341953,0.00112711,0.00383151,0.00296903,0.00672019,0.00312373,-0.000599118,0.000906504,0.00373125,0.00595349,0.00357181,0.000580506,0.00386591,-0.00409863,0.00404767,0.00106781,0.00142601,0.00456954,0.00124701,0.00295972,-0.00259048,0.000448877,-0.00249604,-0.00294738,0.0004633,-0.00204239,0.00019275,0.00286577,-0.00424409,0.000590666,-0.00277939,-0.00124121,-0.000345953,-0.000597033,2.9393e-05,-0.00176546,-0.00220762,-0.00148077,0.000875877,0.00422546,0.00301862,-0.00416971,0.00196924,0.000867868,0.000131464,0.000446518,0.00360462,-0.000327666,0.0019641,-0.00494491,-0.000408053,0.0021925,0.00513349,-0.00114481,0.0014509,0.0031715,0.00233581,-0.00208744,-0.00411712,0.00191178,-0.000634058,-0.00277089,0.00430161,-0.00474663,0.0013579,-0.00758589,-0.00689108,0.000238978,-0.00382398,-0.00284362,-0.00266191,-0.000699433,-0.00291202,0.0012204,3.71543e-05,0.00138311,0.00086925,0.00183267,0.00232856,-0.00140378,0.00285027,0.000612227,0.00162842,-0.00601685,-2.01752e-05,0.0014702,-0.000346201,-0.00389261,-0.000845173,-0.00371601,-0.00465475,0.00141961,-0.00540966,-0.000495705,-0.00232083,-0.00352491,0.00104427,0.00117932,0.00107622,0.00168946,0.000820816,0.000127449,-0.0048404,-0.00129213,0.000953177,-0.00363205,-0.00109131,-0.00144859,-0.000973069,-0.00356625,-0.00103161,0.00157721,-0.00245348,-0.000485631,-0.00242882,-0.000690518,0.000228593,-0.00121896,-0.00219371,0.00755539,0.000840422,-0.00122035,0.00331757,0.0025327,-0.000221297,-0.00110342,0.00312252,0.0055502,0.000730234,-0.000313903,0.0041607,0.000563646,0.00348416,0.00330104,-0.000278959,-0.00409296,0.000246147,-0.00249341,-0.00296677,-0.00537179,-0.0107218,-0.00308276,-0.00355917,0.00285279,-0.000429437,0.00322341,0.000445717,0.00145856,-0.00225042,-0.0010293,0.000168241,0.000772899,0.00170116,0.00254424,0.00086603,0.00189171,0.00103756,-0.00327349,-0.000957626,-0.00235309,-0.00291391,0.000778695,0.0005303,0.000358341,0.00156595,0.00104856,0.000493383,0.00368542,0.00268647,-0.00183774,-0.00130593,-0.00293483,-0.00141548,-0.00148252,-0.00176085,-0.00384552,-0.00602975,-0.00319353,-0.000935556,-0.000488015,-0.00392135,0.0017065,0.00109342,0.00268576,-0.000262689,0.00190182,0.00264066,0.000617982,-0.0013054,0.00674618,0.00238824,0.00134548,-0.0010743,-0.00113467,-0.00332102,-0.00174631,-0.00121382,-0.00150224,0.00378189,0.00465353,0.00438357,0.00170972,0.00219496,-0.00224253,-0.000496511,0.00422308,-0.00314581,-0.00309927,-0.00359705,0.00198485,-0.0063477,-0.00162278,-0.00259419,0.000365871,-0.00142413,0.00426568,-0.00119292,-0.00314943,-0.000591431,-0.00120646,-0.000928707,-0.000186146,-0.00133679,-0.00364357,-0.0026509,-0.00126092,-0.000950987,-0.00227306,-0.0021617,0.00168249,0.00212978,0.000908302,-0.000615361,0.00245334,-0.000569945,-0.00282393,-0.00163111,-0.00584789,-0.0050088,-0.00181935,-0.00473728,0.000799909,-0.00365398,-0.00125469,-0.000299001,0.00393804,0.00358373,0.00144196,-0.00074458,0.000880064,0.00613107,-0.00279363,0.00591531,-0.00507192,-0.00542968,-0.00808774,-0.00227965,-0.00322661,-0.00388742,-0.00138869,0.000997549,-0.00121206,-0.00217202,-0.00225149,-0.000763726,0.00265637,-0.0026309,-0.00614849,-0.00587049,0.000483656,-0.00408758,0.00436501,0.000549443,-0.000707553,0.00293562,-0.000355305,-0.00209083,0.00155512,-0.00412888,-0.00189264,-0.00336291,0.00216225,0.0030348,0.00232068,-0.00146216,-0.00274188,-0.00426819,-0.00751831,-0.00319803,-0.00516837,-0.00118017,0.00160856,-0.00469492,-0.00258526,-0.00154178,-0.00673977,-0.00281243,0.00116461,-0.00168662,-0.0011993,0.0018605,-0.00167222,-0.00398582,0.00315233,-0.00347918,0.000728137,-0.00687305,-0.000756234,-0.00680872,0.00035949,-0.00172502,0.00345672,0.000100333,0.00126153,-0.00514874,-0.00722393,-0.00240342,-0.00161583,-0.00219583,0.00171131,-0.00273808,-0.00222671,-0.00597528,-0.00186891,-0.00180622,0.00112554,-0.000423245,-0.0021313,0.000896794
