0,0,0,0.0121365,0.47748,0.0224522,0.00138413,0,0.00956148,0,0.00108852,0,0,0,0,0,0.224862,-0.168589,-0.0418101,-0.237975,0,0,0,-0.00619808,-0.0121624,0,0.00186957,0,0,0.179132,0,0,0,0.0064375,0,0,0,0,0,-0.0519213,0,0,-0.119551,0,-0.00548341,-0.00356558,0,0,0,0,0,0,0,0,0,0.000625941,0.182477,0.0416345,8.82971e-05,0,0,0,0.358678,0,0,0,0,-0.00828644,0,-0.000165024,0,0,-0.0103035,0,-0.00592026,-0.0407796,0,0.0318144,-0.0127608,0,0,0.00625453,0,0,0,0,0.000346368,0,0,0,0,-0.144471,-0.0222055,0,0,0,0,0,-0.0030147,0,0,0,0,-0.000371003,-0.0843077,0,0,0,0.373411,-0.012739,0.154033,-0.246745,0,-0.0036595,0,-0.00031222,0.00141372,0,0,-0.177457,0,-0.00585187,0,-0.000695268,0,0,-0.00353478,-0.0147128,0,0,0,0,-0.000136029,0,0,0,0,0,0,-0.182865,-0.0149315,0,-0.0099908,-0.110486,-0.178814,0,0,0,-0.266206,0,0,-0.000746018,0.15067,-0.10084,0,-0.000619322,0,0,-0.387912,-0.000733789,-0.000726792,0,0,0,0,0,0,0,0,0.0173459,0.102969,0,0.134622,0.323841,0.285054,0.169501,0,0,0,0,0,-0.00190864,0.0418714,0.00281786,0.167079,0.0158257,0,-0.000349833,-0.184976,-0.128683,0,0,0.0587347,0.131891,0.4754,0.0175753,0.119935,0.0379162,0.0887439,0.00191295,0,0,0.106744,0,0.161781,0,0,0.0446732,0.155167,0,0.0318015,0,0.0148463,0.00247683,0.164096,0,0.000844249,0.00617033,0.00169349,0,-0.0573855,-0.0496633,-0.00664807,-0.00790505,0,0,0.0020102,-0.000227039,0,0,-0.224738,0,0,0,0,0,0,-0.216782,0.0604725,0,0,0,0,0,0,0,0,-0.0498212,0,0,-0.000696048,-0.353302,-0.000719284,-0.0344047,0,-0.0602246,-0.0297614,-0.251189,0,-0.00111758,-0.42723,0,-0.116614,-0.0037728,4.58997e-05,-0.506406,0.0203458,0,-0.0244817,-0.507965,0,0.000971665,0,0,0.000821284,0,0,0,0,0.058394,0,0,0.000929631,-0.000777308,0,0,-0.10424,0,0,0.0302198,0.000125608,0.000376605,0,0,0.358394,0.239416,0,0,-0.235509,-0.0535589,0,-0.127756,0.000661966,0,-0.000175723,0,-0.00319947,0.000443981,0.250657,0.012215,0,0,0.0354818,0,0,-0.0052991,0,0.105832,0,0,0,0,0,0,0,0,0,0,0.172704,-0.000362764,0,-0.00990037,-0.00299353,0,-6.39183e-05,0,0,0,0,-0.160111,-0.000262868,0,-0.0410115,-0.105677,-0.00899456,0,0,0,0.000302248,0,0,0,0.0413523,0,0,0.145936,0,0,-0.0584373,0,0,0.13469,0,0.00019947,0.00552326,0,-0.000935454,0,0.0642067,0.000220065,0,0,0,0.000212952,0,0,0.241903,0,-0.0921737,-0.313216,-0.0665175,-0.404955,0.000872097,0,0,0,0,-0.000353419,0,0,0,0,0.157595,-0.014163,0,0.0398159,0.000250935,-0.00618358,0.000359895,0,-0.000192177,0.0715383,-0.0984251,-0.0138986,-0.705208,-0.370003,0,-0.00155184,0.429914,-0.128549,5.89944e-05,0,-0.182481,0,0,-0.630435,0,0,-0.085958,0,0,0.000210457,0.180211,-0.117729,-0.176479,0.3491,0,0.462974,0.221589,0,0,0.319784,0.136191,-0.00419853,0,0.0813159,0,0,0.299253,0.276573,0.664519,0,0,0.162427,0,0,-0.556449,-0.00157837,0.00678613,0,4.07102e-05,0.3424,-0.403318,-0.337383,0.227634,0.035729,0,0.181331,-0.239218,-0.487307,-0.00891378,0,0,0.117082,0.0299411,0,-0.00856266,0,0.0851401,-0.0715315,0,0.00129019,0,0,0.0148071,0,0,-0.00189922,-0.0229045,-0.00385244,0.44911,-0.462455,0,0,0.149843,0.000349934,0,0,-0.0617655,0,0.00199299,0.222599,0.235657,0,-0.362238,-2.96507e-05,0,0,0.451851,0,0.0731129
1,0,-2.72056e-06,0.00107719,0.571364,0.00336061,0,0.1018,0,0.00749128,0.000263592,0,0.000591924,0,-0.000396414,0.0399936,0.431696,0,0,-0.205603,0.1024,0.149007,0,0,0.14018,0,0,0,0,0,-0.240789,0,0,0,-0.00399557,0,0,0,0.0117072,-0.00180033,0,0,0,0,0,-0.0109745,6.07177e-06,0,-0.000179266,0,0.000265773,0.134455,0.140493,0,-0.000728642,0.154127,0,0,0,0.0210513,0.11482,0,0.0149307,0,0.00315914,0,0,0,-0.00725523,-0.0311415,0,0,0,0,-0.00351907,-5.93497e-05,0,0,0.000788581,0.0514751,-0.00049925,0.0916816,0,0.372711,0.0148254,0.139343,0,-0.00133893,0,0,0.221977,-0.079738,0,0,0.00039965,0,0,0.134768,0,0,0.111937,0,0,0,6.16356e-05,0.12784,0,0,0.427986,0,0.00278562,0,0,-0.428638,0,0,0.000985631,0,-1.25508e-05,-0.0173497,-0.101881,-0.754473,-0.207585,0,0.00120815,0,0,0.000190129,0.439353,0.0263306,0,0,0,0.2222,0.326246,0,-0.0838834,0,0.096657,-5.34186e-05,-0.0417782,3.85354e-05,0.0704972,0,0,0,-0.145716,0,-0.0608809,-0.0669223,0,0,-0.000514858,0,0,0.121699,0.192212,0,0,0.000106108,0,0,0.0246531,0,-0.0720024,0.0001457,0.00278059,0,0,-0.0969506,-0.00980925,0,0,0,-0.0011093,-3.84177e-05,-0.470284,0,0,0,0,-0.304513,0,-0.00160167,0.128127,-0.360905,0,0.157532,0,-0.0622135,-0.121095,0.37941,0,0.0124568,0.000802507,0,0.295713,0.0694632,0.00215219,0,0,0,0,0,0.00428691,0,0,0,-0.0140105,0,0,0.00220264,0,0,0,0,0,-0.227155,0,-0.374187,-0.529954,0,-0.0279656,-0.00737538,0,0,-0.000920332,0,-0.183085,-0.000679449,0,0,-0.00025841,0,-0.0312672,0.111507,0.000539888,0,0,-0.0368155,0.00258765,0,0,-0.00195688,0.0934657,0,0,0,0,0,0,-0.0595732,-0.00748531,-0.00269977,0,-0.000324121,0,-0.264252,0.306313,0,-0.266053,0,0.000657392,0.103838,0,0,0,0.0433041,0,-0.269819,-0.165992,0,0,0.000192073,0,0,-0.000935109,-0.398289,0,0.303815,-0.0422343,0,0,-0.00913306,0,0,0,0,0,0.000207179,0,0,0,0,0.109686,0,-0.0348563,-0.000299571,-0.11447,-0.00697423,0,-0.0257273,0.00159565,0,0,0,0,0.248057,0,0,0,-0.000311373,0,0.219264,0,0,0,0,0,0,0,0,0,0,-0.0400105,0,-0.0325919,0,0,-0.346756,-0.0461599,-0.391481,0.0387458,0,0,0,0,0,0,0,0,0,0,-0.00326909,-0.158203,0,-0.181112,0,0,-0.138167,-0.00840259,0,0,0,0,-0.000535112,0,0,0.000338889,0,-0.244061,0.0809632,0.127312,0.105589,0.176041,0.252897,0.0303804,-3.37815e-05,0,0,6.99759e-05,0,0,0,0.0371442,0,0.0912472,-0.00688218,-0.758529,-0.217952,-2.61189e-05,-0.170736,0,-0.0360869,-0.102396,-0.0441633,-0.155508,0.00218886,-0.279625,-0.00112947,0,0,0.00163363,-0.254596,-0.000194518,5.05069e-05,-0.0534628,-0.534003,-0.0717154,-0.0211272,-0.0784738,0,-0.264205,-0.000302049,-0.0978668,0,0,0.102954,0.258754,0,0,-0.0354342,0,0,0,0,0,-0.170549,0,0,-0.0026431,0,0,-0.0373883,0,0,0,-0.00370091,-0.000964496,-0.00327044,0.0053728,0,0.19066,0,0,0.233332,0.14504,0.000481337,-0.228726,-0.00281214,-0.0835012,-0.096693,0,0.0424416,0,0,-0.000385956,0.185525,-0.000699729,0.059215,-0.00503888,0.112986,0,0,-0.180917,0,0.444838,0,-0.531832,0,-0.000544507,0.00654469,0,0,0.464597,0,0,0,0.358878,0.112735,0.148612,1.80111e-05,0.0542952,0.027773,0.303433,0.27373,0,0,0.0533753,-0.00021496,0.00132879,-0.00193842,0.0837042,0,0.00019282,0,0.00229062,-0.000137997,-0.0581845,0,0,0.336868,0.0815512,0,0,0.0861842,0.000221486,0,0,0,-0.316222
2,0.0180533,0.00191772,0,-6.92166e-05,-0.00525684,0,0,0,0,0,0,0,0.435354,0,0.892249,0,0,0,-0.745206,0,0,-0.230625,0,0,0,0.00114809,0,0,0,0,0,0,0.0211414,0,0,0.0239257,0,0,0.000623276,0,0,0.0663738,0,0,0,0,0.000667936,0,0,0.119926,0.0539566,0,0,0.186984,0.000216425,0,0,0,0.0132915,8.55709e-05,0,-0.00357074,0.00114464,0,0,-0.44587,0,0,0,0,-0.575311,0,0,0,-0.00458941,0,0.0575746,0,0,0,0.0111413,0,0.164839,-0.0011062,0,0,0,0,0,0,0.00475234,0,0,0.119733,-0.0195464,0,0,0,-0.157222,0,-0.196368,0,0,-0.000182008,0,0,0,0,0,0.00918278,-0.0621332,0,0,0,0.000278807,0,0,-0.0052774,0,0,0,0,0,0,0,0.130904,0.22387,0.409357,0,0,0.151909,0.00669183,0.00180247,0.000193333,0,-0.0558374,-0.197788,0,0,-0.0713226,0,-0.0773359,-0.0330501,0.00795084,-0.0464615,0.00488115,0.0214723,0,-0.000344435,-0.00104976,0,-0.310535,0,-0.000956388,0,0,0,0,0.0554604,0,-0.0028258,0.308993,0,0,0.00501986,0.093898,-0.386419,0,0.00153231,-0.33002,-0.360798,-0.734005,0,0,0,0,0,0,0.00158745,0,-0.256462,0,-0.00144026,0,-0.0431163,-0.13244,0,0,0,0,0.00139432,0,-0.171101,0.123901,0,0,0,0,-0.00067318,2.46607e-05,0.00123719,0,0,0.0569798,0,0,0,-0.525572,-0.0390791,-0.109979,0.00146738,0.0633204,0,0.0858369,0,-0.165384,-0.000888577,-0.0844567,-1.34397e-05,-0.00132839,0,-0.37269,0,0,-0.00571327,-0.166893,0,0,0,0,0,-0.17446,0,-0.000482415,-0.0619674,-0.191236,0,0.00141995,0,0.000801021,0,0,-0.00287124,0.173144,0,0.307799,0.000372058,0,0,0,0,0,0,0.011567,-0.000491073,0,-0.160836,-0.114262,0,0,0,0.186883,0.191943,0,0.00461818,0,0,0,0,-0.000968154,0,0,0,0,0,0,0.0206209,0,0,0,0,-0.000917281,0.759047,0,0,0.0847693,-0.00222095,-0.102736,0.211861,-0.00419714,0,0.0947317,-0.00495307,0,-0.00016459,0,0,-0.0780705,-0.0322062,-0.0898621,0,7.89937e-05,0.0254531,0,0,0,0,0.00951479,0,0,0,0,-0.0294418,0,0.0137641,0.00116094,0,0,0,0,-0.195222,0,0,-0.00110502,0,-0.00153704,-0.0762346,0.00201092,-0.0108515,0,0,0,0,0,0,0,0,-0.00510314,0,0,-0.0243624,0,-0.0494735,-0.324658,-0.0637405,-0.000470424,0,0,0,0,0,0,0,0,0,0.000280861,0,0.14652,0,-0.0403714,0,0,0,0,0.00894828,0,0,0,0,-0.000153223,0,0,-0.0312014,0,0,0.100264,0,-0.80821,-0.457241,-0.00121305,0,-0.338294,-0.10607,0.000119665,0,0,-0.3317,-0.228513,0,0,-0.236571,-0.442545,-0.192643,-0.00498144,0.0648358,0,0,-0.00097218,0,0.336633,0.184624,0.574052,-0.000329439,0,-0.118791,0.117857,0.256231,0.00271619,0,0.359686,0.00398806,0.0630144,0,-0.00140278,0.00475559,0,-0.576146,0.00403248,0.00223395,-0.201965,0.00526052,0,-0.164877,-0.623595,0.00171497,-0.0317571,-0.85526,0.000635088,0.339447,0.33692,0,0.0420219,0,0,0,0,0,0.137217,0.0010244,0.10417,0.00627652,0,0.2332,0.152951,-0.00139946,0.00253804,-0.00524237,0.426624,0.207758,0,0,-0.000296081,0,-0.000948667,-0.172606,0.00266695,0,0,0.000433171,0,0.290711,-0.000627967,0.0118358,0.540341,0.223798,0.00218189,0,0,0.0685289,-0.0329554,0.000220813,0,0,0,0,0.331819,0,0.0882009,0.0199633,0,0.128211,0.0028555,0.381207,0.0368604,0.257025,0.000397454,0,0,0,-0.000527757,0,0,0,0,0,0,-0.00104226,0.000162881,0.00234493,0
3,0,0,-0.00151651,-0.146059,0,0.364785,0,0,0,0.0012214,0,0.000690105,-0.0211964,0.00227152,0.141691,0,-0.00115888,-0.000992801,-0.66714,0,0,0,0,0,0,0.000138787,0.234391,0,0.0772798,0,0,0,0.0159382,0,-0.00331605,0,0,0,0,0.00253703,0.000382583,0,0,6.8856e-05,-0.00577954,0,0,0,0,0,0,0.00482237,0.00410621,0.000262309,0,0,0.00197371,0,0,0,0,-0.0516466,0,0,0,-0.0320306,-0.00111975,0,0,0,0,0,0,0,0,0,0.367867,0,0,0,0.000414219,0,0,0.0204657,0.024072,0,0,0,0.0152281,0.598194,0.200618,0,0,0,0.00392136,0.101418,0,-0.0950917,0,-0.334632,-0.000306422,0,0,0.00139155,0,0,0,0,0,0,-0.00892356,0.0444285,0,0,0,0,0,0,-0.123905,-5.56137e-05,-0.000685634,0,-0.00112927,0,0,-9.77171e-05,0,0.0011704,0,0.10045,-0.00152755,-0.00452418,0,0.241612,-0.0302052,0,-0.087641,-0.114501,3.39036e-05,0,0,0,-0.000650086,0,0.0267512,-0.00557199,0,0,0.0189028,0,0,-0.00363357,0,0,0.0316181,0.460934,0,0,0.00148771,0,0.0211751,0,-0.000393013,0,0.0681402,0,0,0,0.00767915,-0.468431,-0.247621,0,0.0166124,0,0,-1.03646e-05,0.114366,0.00471999,0.423228,0.124187,0,0.242326,0,0,-0.26889,-0.514683,0,0,0.0488125,0,5.12391e-06,0.000963499,0,0.000119964,0.000845237,0,0,0,0,-0.124018,0,0,0,0,0,0,0,0,0,0,0,-0.28731,0.00106188,0.140722,-0.0044936,0,0,0.00144185,0.237994,0,-4.57481e-06,-0.00234819,0.266744,0,-0.0163129,-0.000602468,-0.257801,0,0,-0.0020374,-0.152859,-0.00959674,-0.591804,0,-0.00151787,0,0,0,0,0,0,0,0,-0.000808531,0.127491,0.342943,0,0.000307336,0,0.00143263,-0.00107311,0,0,0.000237438,-0.378579,0,-0.000390632,0,0.000575712,0,0,0,-0.0713707,0,0,-0.102668,0,0,-0.0756657,0,0,0.00107815,0.000185294,0,0,-0.00013688,0,-0.0633746,0.164955,0,0.201365,0,0,0,0,0.124422,0,0,0.411996,-0.206148,-0.0141664,0,-0.0960504,0,0,0.383151,0.194768,0,-0.00138249,-0.198954,0,0.00112733,0.241695,0,-0.00150789,0,0,0.21384,0,0,0,0,-0.00166058,0.139868,0.862841,-0.142464,0,0,-0.000433222,-0.276173,-0.183618,-0.000652603,0,0,0,-0.00692573,0,-0.00671591,0,0.736515,0,0.203125,0,0,0,0,0,0,0,0,-0.115786,-0.101937,-0.887145,-0.198633,0.000708808,-0.00727371,0,-0.34899,0,0,0,0,0,-0.00188003,0,0.00860557,0.00148172,0.000913599,0,-0.00290017,0,0,0,-0.00724588,0,0.175511,0.0596929,0,0,0,0,-0.00133558,0,0,-0.0087314,-0.000770849,0.00016065,-0.238156,-0.00185551,0,-0.0811212,-0.00065682,-0.178828,0,0,-0.00602442,-0.00722208,-0.000756679,-0.173971,-0.255773,-0.0234168,0.00408812,-0.0947703,-0.164434,-0.000630424,-0.0656816,-0.0506086,0.000163495,0,0.00216129,0.223132,0.00161897,-0.250744,0,0,0,0.33004,0.0734964,0,0.00468223,0,0.249859,0,0,-0.263978,-0.00699991,0,0,0.037987,-0.199049,-0.0117686,0.00159502,-0.311817,-0.144225,0.165549,0,-0.131362,0.652741,0,-0.486536,-0.00739044,0.0177083,-0.00200901,-0.105828,0.206172,0,0,0,0,0.0101229,0.00500139,0,-0.000380322,0,-0.000417046,-0.952933,-0.422494,0.20698,-0.000742676,0,0.000261519,0.00162176,0,0.730164,0,0,0.275555,0.0777135,0,0.459457,0.00156365,0.0879372,0.0519028,0.156811,0.176799,0.111119,0.0884755,0,0.000629498,0,0.000471946,0,-0.00272224,0.0683402,0,0.104048,0.000544548,0.00159103,0,-0.027184,0.135276,0,0.00144452,0,-0.00518087,0.0310717,0.409999,0.470561,0.285722,-0.00306927,-0.205693,0,0,-0.00200086,0,0,0,0,0,-0.20603
4,0,0,0,-0.191131,0,0,-0.0610067,0,0,0,0.00167831,0.00299537,0,0,0,0.000900406,0,0,-0.37815,0,0,0,0,0,0,0.000636618,0,0,0,0,0,0,0.00481076,0,0,0.0875183,0,0,-0.00215781,0.0507569,0.144393,0.00769484,0,0.102272,0,0,0.272931,0,0,0,0,0,0,-1.39986e-05,0,0,0,0,0,0,-0.00935461,-0.203129,0,0,0,0.429836,0,0,0,0,0,0,0,-0.0047546,0,0,0,0,0,-0.000498192,0,0.0054817,0.0439928,0.00858672,0.140873,0,0,0.00032312,0,0.000991976,0,-0.275707,-0.121403,0,0,0.00282252,0,0,0,0,0,0.00746887,0,0.00218382,0,6.08969e-05,0,-0.270451,-0.248282,-0.00560032,0,0,0,0,0,0,-0.00180438,-0.00643945,0,0,-0.00249297,0,0,0,0,-0.0158117,-0.260441,0,0,0,-0.0982774,-0.220948,-0.549131,-0.000710173,-0.417969,0,0,0,0,-5.34937e-05,0,0.0150818,0,0,-0.00872377,-0.000392492,-0.161881,-0.212396,0,0,0,-0.726915,0.00703559,0,0,0.705479,0,-0.0752556,0,0,-0.140597,0,-0.000338296,0,0,0.295966,0,0.000248265,-0.355857,-0.376298,-0.00019252,0,0,0,0,0,0.000352617,0.036417,0,0.000969476,0.0967163,0,0.00136955,0,0,-0.0259032,0.0472191,0,0,0,0,0.388684,0.0886071,0,0.0218424,0.0753536,0.329744,0,0,0,0,0.000545096,0,0,0,0.00198093,0,0,0,0,0,-0.287572,9.85238e-05,0,-0.242359,0,0,0.00391143,0.139618,0,0,0,0,0,0,0,0,0,0.000590576,0,0,0,-0.0116782,0,0,-0.00433188,0,0,0,0.00195259,0,-0.07066,-0.0419612,-0.0992159,0,0,0,0,0,0,0.0997998,-0.000136046,0,0.0631761,-0.00119523,-0.00105577,-0.321147,-0.00644635,0.0613434,0,0,0.489189,-0.0815957,0,0,0,0,-0.00437882,0,0,0,0,0,-0.000185428,0.0236847,0,0,0,0.435381,0,0,0,0,0,0,0.174182,0,0.206023,0.308311,0,0.00108147,0,0,0,0,0.497339,0,0,0,0,0,0,0,0,0,0,-0.274544,0.00104711,0,0,0,0,-0.282598,0.00248031,0.678348,0,-0.000320217,0,0,-3.4535e-05,0,-7.16086e-05,0,0,0,-0.0538133,0,-0.00246438,0,0.000518652,-0.0468098,0,-0.00175481,-0.329171,0,0,0,0,0.00670423,0.174443,-0.000559807,0,-0.335304,-0.0346809,0,-2.50764e-05,0.00238901,-0.0977205,-0.00153734,-0.457491,0,0,0,-0.396578,-0.000322088,0.0033583,0,0.200101,0,0,0,0,0,0.0723494,3.18782e-05,0.640302,0,0,0,0,0,0,0,0,0,-0.318269,0,-0.00152051,0,-0.000399192,0,0.00120376,-0.00702544,0,0,0,0.180758,-0.104342,-0.155798,0,-0.187506,-0.000758822,0,0,0,0.491017,-0.00187984,0,0,-0.00184686,-0.000712004,-0.657804,0.135239,-0.00511399,0,-0.388977,0,0,-0.000273039,-0.000180324,-0.660781,0,0,0,-0.00713665,-0.46668,0.414286,0,0,0,-0.00364635,0,0,-0.000332961,0,0,-0.24777,0,-0.0198083,-0.250348,-0.252131,-0.000742222,-0.0706916,-0.0472291,0.144786,-6.78243e-05,-0.0014641,0,0,0,0,0.00202522,0.44377,0.490918,0.00878372,-0.00604547,0,0.0011703,-0.0079012,0.0177975,0.440436,0,0.330575,0,0.00066268,0,0.00074912,0.0182305,-0.00170635,0,0,0.922199,0,0.348761,0.00141476,0,-0.032308,0,0.418407,0,0,0.00420095,0,0.424966,-0.000153193,0,-0.00164756,0.247324,0.388974,-0.22498,0,0,0.290643,0,-0.107536,0.00124803,0.0362422,0.246032,0.00103916,0,0,0,0,-0.0646533,0.00557203,0,-0.0030026,0,-0.0184495,0
5,0,0,0,-0.174703,0,0.00017987,-0.267706,0,-0.0492321,-0.152102,0,0,0,0,0.397422,0.0491674,0.00180852,0,-0.255721,0,0,0,0,0,0,0,0,0,0,0,0,0,0,-0.12631,0.000913442,0,0,0,0,0,0,0,0,0.479568,0,4.34132e-05,0.00124891,0.00264832,0,0.434152,0.15522,0.19175,0,-0.000810797,-0.0013952,0,0,0,0,0.00137179,-0.0147214,0,0.047578,0,0,0.0663715,0,0.00470775,0.134432,0,0,0.256107,0,0,0.0710449,0.00044415,-0.0548025,0,-0.258697,0.00493095,0,0,0,0,-0.00489925,0,0,0,0,0,0,-0.0118242,-0.0847488,-0.000647683,0,-0.134117,0.175579,0.281916,0.0265316,0.0752592,0,0,0,0,0,0,-0.0527247,0,0,-0.499464,-0.0980636,0,0,0.00176078,0.00135058,0,0,0.000502034,0.0120814,0,0,0,0.742374,0.110971,0.407538,-0.000320756,-0.000815356,0,0,-0.0113825,0,0,-0.00593666,-0.332969,-0.471291,-0.312433,0,0,0,-0.0514379,0,0,0,0.0405281,-0.220914,0,-0.000590345,-3.00938e-05,-0.000526469,-0.37113,-0.445559,-0.04887,0,-0.0617211,-0.169931,0,0,-0.000426354,0,0,-0.0903193,-0.00764572,-0.313564,-0.000804819,0,0.00990669,9.83831e-05,0,-0.201008,-0.0964088,-0.00106097,-0.00671315,-0.000593365,0,0,-0.0028997,0,0,0,0,-0.0458475,0,0,0,0,0,0,-0.005536,-0.00111474,0,-0.0950287,0,-0.365789,-0.222693,0,0.000242139,0.120902,0,-0.0119628,0,0,0,0,-0.00519789,-0.608749,0.0371027,0,-0.427496,0.00285844,0,0,0,0.788967,0,-0.0644213,0.00106579,0,0,0,0,0,-0.156757,0.267731,0,0,-0.00414666,0,0,0.00394557,0.125742,0.20343,0.300583,-0.0013637,0,0.0707213,0.00162528,0,0.00404588,0,0,0,-0.00622249,0,-0.0162646,0,0,0,0,0,-0.000926663,0,0,0,0.0040772,0.377374,0,0,0,-0.213532,0,0,0.283751,0.0018527,0,0,0.00043443,0,-0.000817102,-0.00519994,0.000661515,0,0,0,-0.000770358,0,0,0,0,0,0,0,0,0,0,0,0.0372497,0,0,-0.0201957,-0.202089,0.00633696,0.0181911,0,0,0,0,-0.000380912,-0.0020768,0,0,-0.00330801,0,0,0.000103567,0,0,0,0,0,0,-9.54865e-05,-7.87633e-05,0,0.000301434,0,-0.0425539,0,0,-0.00449583,-0.398028,0.00331918,0,0,0,0,-0.135797,0,0,0,-0.0396517,0.00266784,0.0771578,0.00233678,0.0104585,0,0,0,0,0.0166724,0.244198,0.0602659,0.109525,0,0,0.566588,0,-0.000792505,-0.00045211,0,-0.00704189,0,0.0631848,-0.0327158,-0.00819825,-0.00838129,0,0,0,0,0,0.000127982,0,0,0.000999296,0.000266344,0,0,0,0,0,0.0200458,0,0.000265798,0,0,0,-0.00468756,0,0.0010906,0,0.0952061,0.0456919,-0.190604,0,0,0.00228999,0,0,0,0.151947,0,-0.162365,0.00167752,0,0,0.00044197,-0.00146718,0.632526,0.67334,0.0362649,0.000565546,0.0345929,0.00213144,-0.156542,0,0,-0.0484875,-0.249872,0.000383468,0.00347731,0.00879043,0.00205608,-0.00358965,0.00782151,-2.08584e-05,0,0.421501,6.20996e-05,0.00196076,-0.00178655,0.367568,0,0.380878,0,0,-0.310075,-0.229315,0.109621,0.286676,0.00368192,0,0,0,0,-0.0861679,0,0,-0.000392175,0,0.0252186,0.411301,-0.0181199,0.125984,0.0016159,0.0848726,0.00477158,0.162854,0.00444606,-0.14826,-0.121442,0.00233452,0.00155761,-0.00642353,-0.0556254,0,-0.0333276,0.00146757,0.129452,-0.345086,0.000873403,-0.0697605,0,0.082193,0.124917,0.423028,0.00209356,-0.00224823,0,0,0,0.000213873,-0.00130232,0,0.00160522,0,0,-0.000408216,0,0,0,0,0,0,0.00804279,0,0,0,0.0423244,0,0,-0.338834,0,0,0,0,0.093318,0,0,0,0.0701327
6,0,0,0,0.00238414,0,0,0,0,-0.0965213,0,0,-0.0501018,0,0.133258,0.200803,0,-0.0441514,0,-0.776864,-0.343662,0,-0.0577548,-0.0353073,0,0,-0.000655288,0,-0.000115006,0,-0.169912,0,0,0.338275,0,0,0,0,0,0,-0.0018168,0,0,0,0,0,0,0,0,0,0,0.00372951,0,0,0,0,0.153018,0.00299078,0,0.00505017,0.326838,0,0,0,0,0,0.226044,0,0.174021,0.0182156,0,0,0,0.00336675,0,0,0,0,-0.321526,0,0,0,0,0,-0.000407556,0,0.311142,0.368903,0,0,0,-0.139505,0.0294518,0.162986,0,0,-0.450685,0.00098662,0.521056,0.000297222,0.410533,0,-0.135969,0,0,-0.0976898,-0.11746,0,0,0,0,-0.0512444,0,0.492609,0,0.00030659,0,0,0,0,0,0.000690686,0,0,0.000405499,0.415583,0.00205315,0,0.0160683,0,-0.0948581,0,0,0,0,-0.0579629,-0.131087,0,0.00189127,0.0471077,0,0,-6.10701e-06,0.065565,0,-0.13477,0,0,0.0147445,0,-0.344588,-0.130827,0,0.109521,0,-0.00293993,0,0,0,0,0,0.00349975,-0.00483411,-0.385459,0,0,0,0.16679,-0.0011316,0,-0.0537845,0,-0.0990857,0.135966,0,0,0,-0.00380602,0,0,0.00484207,0,0,0.00188477,0,0,0,0.00692266,-0.00152821,0,0,0,-0.292279,-0.406012,0,-0.000147365,0,0,0,-0.00237339,0,0,0,0,-0.000588373,-0.329101,0,0,0,0,0,0,0.227288,0.28287,0,0,0.00782639,0.102439,0,0,0,0,0,0,0,0,-0.101623,0,0.00151008,0,0,0,0,0,0,0,-0.0463099,0,0,0,-0.00378681,0,0,0,0.00141067,-0.000126725,0,0,0,0,0,-0.00549856,0,0,0.00309795,0,0,0,0,-0.00370346,0,-0.00223444,-0.0244795,0,0,-0.000585307,-0.0218851,0,0,0,0,0,0,0,-0.330294,0,-0.000427036,0,0,0,-0.00252482,-0.0914494,-0.00156909,0,-0.000463711,0,0,0,0,-0.000205327,-0.0520897,0,0,-0.101283,0,0,-0.00678279,-0.00358237,0,0,0,0,0,0,0.00190728,0,0,0,0,0,0,-0.0295473,0,0,0,0,0,0,0,0,0,0,0,0,0,0,0,0,-0.111505,0.261556,0.0498469,5.57679e-06,0.107936,0.223652,0,0,0,0,0,0.18936,0.0674071,0,0,0,0.0368329,0,0,-0.2632,-0.123658,-0.117315,0,0,0,0,0,0,0,0,0,0,6.4067e-05,0,0.0363252,0,0.0473494,0,0,0,4.96061e-05,0,0.137836,0,0,0,0,0,-0.22156,-0.113939,0,0,0,0.350813,0.000125402,0,-0.00358839,0,0.000190761,0,-8.71361e-06,0,0,0,0,0,-0.00552144,-0.543685,0,-0.265123,0,0,0.0273664,0,0,0,0,0,0,-0.148788,-0.000524725,0.395231,0,0.000117012,0.00189395,0,0.0388987,0,-0.141387,0.566383,0,0,0,0.49648,0.267405,0.309758,0.530924,-1.59568e-05,-0.242513,-0.408832,0,0.00683726,0,0.000441189,0,0,0,-0.229279,0,0,0,0,0,0,0,0,0,0,-0.0216781,0,0.000517453,-0.409357,0,0,-0.143276,0,0.530413,0.000110622,0,0,0,0.0593046,0,0,0,-0.0944486,0,0.598602,0.00180072,0.00113804,0,0,0,0,0,0,-0.257033,0,0,0,0,1.0083e-05,0.128531,0.000139006,0,0,-0.282157,-0.00400778,-0.0048014,-0.107288,9.33815e-05,0,0.000471671,0,-0.00468462,0,-0.000611506,0,0,0.00178414,0,0.00906505,0.000217813
7,0,-0.0961341,-0.000918797,0,0,0,-6.94899e-05,-0.243222,0,0,0,-0.0185956,0.000138206,0.0210494,0,0,-0.000108915,-0.000599334,-0.242739,-0.0454531,-0.0460535,0,-0.167103,0,-0.115041,-0.00101003,-0.219615,0,0,-0.0557875,-0.00044462,0,0.000315403,0,0,0,0,-0.00352402,-0.290895,0,-0.00126327,0,0,-0.109935,-0.000242399,-0.143221,-0.0729781,0,0,-0.000549233,0,0,-0.0152571,-0.00980387,0,0.365549,0,-0.259991,0,0,-0.0759868,0,0,0,0,0,0.0260286,0.340086,0.0380186,0,0,0,0.44594,0.58719,0,0,0,-0.0542784,0.000557786,0,0,0,0,-0.0006267,-0.597227,0.526387,0.440019,0.00136544,0,0.0179052,-0.00370914,0.280803,0.713932,0.00122747,0.205908,-0.000346685,0,0.180599,0,0,0,-0.00108705,0,0.000111461,0,-0.00878677,0,0.22944,0,0.314897,0,0,0.0147557,0,0,0.000234768,0,0,0,0,0.206949,0,0,0,0.00811049,8.76493e-05,0.295337,0,0,0,0,0,0,0,0,0,0.00189864,0.444139,0.00169233,-0.00311548,0,0,0,0,0,-0.370375,0.0355334,0,0,0.0137983,0.000939977,0.147269,0.355694,0,0,0,0,0,0,0,0,0,0,0.00232237,0,0.00115207,0,0,0.0746489,0,-4.98213e-05,0,0,0,0,0,-0.0732313,0,0,0,0,0,0,0,0,0.374263,-0.109734,0,-0.197337,0.0264983,0,0,-0.083192,0,-7.70848e-05,0,0,-0.0539836,-0.000461007,0,-0.00163399,-0.356531,0,0,-0.420666,0,0,0,-0.000297298,0,0,-0.0028326,0,0,-0.110429,0,0,0,-0.000222796,-0.00947066,0,0,0,-0.000114429,0,-0.120954,0,-8.31308e-05,0,0,0,0,0,0,0,-0.000597844,0,0.0377354,0,0.0362062,0.0582133,0,0,0,0,0,0,0,0,0,0,0,0,0,0.00322545,0,0,0.00040256,0,0,0,-0.000325128,0,0,0.000682152,0,0,0,-0.337829,-0.348104,0,0,-0.000669257,0,0.00288521,0,0,0,0,-0.0268447,-0.0174092,0,0.137083,0,0,0,0,0,0,0,-3.27723e-05,0,0,0,-0.0105049,-0.102096,0,0,0,0,0,0,0,0,0,0,0.00525461,0,0,0,0,0,0,0.24196,0,0,0.001486,0,0,0,0,0,0,0,0,0,0,0,0.547703,0.00349455,0,0,0.000493352,0,0,0,0,0.00091129,0.69085,0.00532306,0,0,-0.155463,0,0,0,-0.00101136,0,-0.00115069,0,0,0.000794468,0,-0.0080717,0,0,0,0,0,9.07931e-05,0,0,0,0.00146039,0.132059,0.285041,7.91811e-05,0,0,0,0,0,0,0,4.35011e-05,-0.279118,0,0,-0.00291083,0.00100173,0.00243934,0,0.000957962,-0.0168448,0,0,-4.71799e-05,0,0,0,0,0.000245938,0,-8.10512e-05,-0.264776,0.00117283,0,0,-0.377274,-0.000934172,-0.00122501,-0.000386986,0.472484,0,0.0146213,0,0,0,0.207823,0,0,0,0,0.00109562,-0.000368661,-0.225524,0.000105063,0,0,0.305904,0.629691,0,0.00583037,0.0190482,0.0170102,0,0,0,-0.109963,-0.0951814,0.330661,-0.0151072,0,0,-0.120825,0,0,-0.0399528,0,0,0,0,0.00065798,0,0,0,0,0.00429661,0,0.119845,0.205935,-0.0105941,-0.0638945,0.0353565,0,-0.0106368,-0.00370822,0,0,0,0.00167984,0,-0.370715,-0.00454145,0,0,0,0,-0.000341653,-0.347732,-2.09585e-05,-0.0039268,0,0,0,-0.000687697,0,0.000298965,-0.0955148,0,-0.093811,0,0,0,3.4783e-05,0,0,-0.000962874,0,0.00611104,7.76519e-05,-0.000946176,-0.0122653,-7.91454e-05,0,0,-0.000912345,-8.26258e-05,-0.128715,0
8,0,-0.00406575,0,0,0,0,0,0,0,0,0,0,0,0,0.000117074,0,0,0,-0.356663,0,0,0,0,0,0,0,0,0,0,0,0,0,0.0815986,0,0,0.0348444,0,0,-0.129743,0,0,0,0,0,0,0,0,0,0,0,0,0,0,-0.319708,0,0.701639,0,-0.470248,0,0,-0.447831,-0.0867668,0,0,0,0.0983601,0.346922,0.0390814,0.0171697,0,0,0,0,0.19882,0.0562497,0,0,-0.00856033,0,0,0,0,0.0555735,0.216176,0,0,0.611343,0,0,0.502494,0,0,0.183249,0,0.00180398,-0.0628355,0,0.263476,0.0637518,0.13301,0,0,0,-0.00073538,0,0,-0.00106279,0.117877,0,0.170287,0,0,0.00215522,0,0,0.0892213,0,0,0,0,0.0525067,0,0,0,0.11256,-0.00273276,-1.09512e-05,0,0,0,-0.00725638,-1.78368e-05,-0.00978575,0,0,0,0,0,0,-0.271037,0,0,-0.126424,-0.256836,0,0,0,0,0,0,0.141415,0.229891,0,-0.0164467,0,0.00112273,0,0,0,-0.00148806,0,0.00109315,0,0,0,0.0659893,0,0,0,0,-0.0971147,0.00346523,0,0,0,0,-0.00129549,0,0,0,-0.0112042,0,0,0,0,0.0984403,-0.605333,-0.00137423,0,0,0.00503651,-0.0162514,0,0,0,0,0,0,0,-0.00559141,-0.000426735,0,0,0,0,0,0,0,-0.285834,0,0,-0.29519,0.270947,0,-0.0961355,0.0364022,0,-0.218927,0,0.0524367,0.33603,0,0.0268592,0,0,-0.000278785,0,0,0,0,0.00298776,0,0.397476,0,0,0,0,0,0.000984683,0.220806,0,0,0,-5.25005e-05,0,0,0,0,0.00145632,0,0.577587,0.000143227,0,0,0.000251922,0,0,0.00196796,0,0,0,0,-0.00562948,0,0,0.138713,0,0,-0.623087,-0.321302,-0.00220019,0,0,-0.00339406,0,0,0,0,0.000550229,-0.00256611,0.00245071,0,0,0,0,0,0,0,0,0,0.632917,0,0,0.0693687,0,0,0,0,0,0,0,0,0,0,0,0,0,0,0,0,0,-0.0168238,-0.307614,0,0.379529,0,0,0,-0.00133379,-0.00432005,0.325345,0,0,0,0,0,0.198403,0,0.234223,0.214195,0.000315443,0.00964112,0,0,0,0,0,0,0,0.00710894,0,0,0,-0.00117352,0,-0.155439,0,0,-0.131715,-0.231714,0,0,-0.619061,-0.048062,-0.236985,0,0,0.00325104,0,0,0,0,0,0,0,0,0,0,0,-0.15813,0,0,0,0,0,-0.635636,-0.0461927,0,0,0,0,0,0,0,0,0,0,0,0,-0.000639984,0,0.0049723,0,0,-0.000742642,0.0102209,0,0,-0.415972,0.193774,0,-0.00308671,0,0,0,-0.188737,-0.0737135,0,0.481923,0.127951,-0.000175201,0,0,0,0,-0.431048,0.0720609,0,-0.0348962,0.0433387,0,0,0,0.124152,0.727281,0,0,0,0,-0.565682,0.693684,0.139128,0,0,-0.0915898,0,0,0,0.447539,-0.000468185,0,0.150675,0,0,0,0,0,0.00504864,0,0.00280158,0.00204636,0,-0.063502,0.0018398,0,-0.459548,0,0,-6.41925e-05,-0.121786,0,-0.0546125,-0.213291,0,-0.023839,0,0,0,-0.000605366,-0.182716,-0.00147832,0,0,0,0,0,-0.175084,0.000877786,-0.00101001,-0.183161,0,0,-0.00560574,-0.00115391,-0.180798,-0.00484826,-0.000306482,-0.000266889,0,0,0.0191536,0,0,0,0,0,0,0,0,0
9,0.102842,0,0,0,0.00229209,0.00250469,-0.00362489,0,0,0,0,0.0267057,0,0.00384715,0,0,0,0,-0.269569,-0.138586,-0.0115911,0,0,0.000875491,0.0012094,-5.68953e-05,0.0211932,0,0,0,0.0795232,0,0.422813,0,0.00155994,0.388715,0,0,-0.00432452,-0.0797465,-0.00236536,0,0.0759314,0.00904796,0,-0.00643401,-0.00301922,0,0.00467759,0,0,0.0134328,0,0,0,0.384281,0,-0.481857,0.0739713,0.353101,-0.0365411,0,0,0.0300483,0,0,0.288481,0.113444,0.0690216,0,0,0,0,0,0.00254084,0,-1.82044e-05,-0.540554,0,0,0.00458116,0,0.0949589,0.228228,-0.000355408,0,0.0805435,0,0,0.794767,-0.550074,0,0.0118541,-0.0638949,0.368546,-0.619861,0,0.574621,0,0.000648446,0,0,0,0.000721762,0,0,-0.36607,0.000156244,-0.00124019,0,0,0,0.00102191,0,0,0,0,0,0,0,0.0451533,0,0.0665763,0,0.0850079,-0.00152532,-0.14558,0,0,0,-0.0282655,0,-0.00633568,-0.209828,-0.213391,0,0,0,-0.108882,0,0,0,0,-0.000355582,-0.224509,0,-0.00531043,0,-0.199399,-0.139539,0.00305432,0.383939,-0.010271,-0.00246071,-0.00236294,0,0.000721867,0,0,0,-0.308192,0,-0.00666183,0,0.000455649,0.181649,0,0,-0.00488546,0,-0.412182,0.000295564,-0.00128315,0,-0.0102422,0,-1.36424e-05,0,0,0.000272006,0,0,0.000497641,0,0,0.33719,0.00126531,0,-0.00316633,0,0.172185,-0.0544509,-0.158478,0,-0.060782,-0.178891,0,0,-0.0751804,0,0,0,-0.187452,0,-0.00130132,0,0,0,0,0,0,0,0.00861565,0,0,0.00534127,0.000100785,0,-0.0271966,-0.0527863,0,0,0,0,0,0,0,0,0,0,0,0,0.0991518,6.64597e-05,0,-0.000835942,0,0.0873691,0.0695534,0,0,0,0,0.00450087,0,-0.000463842,0,0,0.00349231,0.000435235,0,0,-2.48637e-05,-0.0589768,0.00343502,-0.156393,0.000463933,0.00870174,0,0,0,-0.143801,-0.0697082,0,-0.00065994,0.00111213,0,0,0,-0.00151742,0,0,0,-3.76994e-05,-0.0511971,0,0,0,0.00496222,-0.000514563,0,0,0,0,0,0.0239987,0,0,0,0,0,0,0,0,-0.00178661,0,0,-0.000212412,0,0,0.0792607,0.00231089,-0.0986572,-0.062702,0,0,0.00168939,0.108491,-5.47379e-05,0,0,0,0,0.000763354,0.000359767,0,-0.184226,-0.00239239,0,0,0.000436476,0.000367199,0,-0.0781157,-0.148429,-0.189316,0,-0.169862,0.00403399,0.00149233,0.136026,0.22591,0,0,0,0,0.0123215,0,0.000220063,0,-0.00084251,0,0,0.611422,0.274736,0,0.00601176,0.000740899,0,0,0,0,-0.249904,-0.000249887,-0.111838,0,0,0,0,-0.000322603,0,0,0,0.0222556,0,0,0,0,0,0,0,0,-0.000207122,-0.000274573,0,-0.254589,-0.307908,0.0506022,0.756987,0.311827,0,0,0.0081734,0,0.00403013,0.00671742,0.00933904,0.00142531,0,0,0,-0.109365,0.0211729,0,-0.225713,0,-0.00273437,-0.00362166,0,0.181757,0,0,-0.127252,0,0,-0.00363027,-0.000968288,0,0.3628,0.327579,0.173903,0.000473142,0.179108,0,-5.01966e-05,-0.22905,0,-0.00231203,0,-0.577654,0,0,0,0,0.779507,0.128328,0,0.000637816,0.000186315,-0.44251,0.109285,0,0,0,-0.105649,0.143829,0.00119043,0,0,-0.221682,0,-0.243484,0.117182,0,-0.00784135,-0.142562,-0.00452557,0.00156999,-0.00101744,0.00660445,-0.00257093,0.00373748,0.00566268,0,0.716374,0,0,0,0,0,0,0,0,0,0,0.107578,0.00804484,0,-0.000887233,0,-0.00480962,0,0,-0.216428,0,0.141683,-5.22522e-05,0.00154536,-0.000624253,-0.117137,0.0913858,0,0,0,-0.511263,0,0,0,0,-0.00639399,0.00255859,0,0,0.000173501,0.263187,0,0.0728392,0,0,0
10,0.00483824,0,0,0.0053839,0,0,0,0,0,0,0,0,0,0,0,0,0,0,-0.454677,-0.106252,0,0,0,0,0,0,0.010917,0,0,0,0,0.000594063,0.000959661,0,0,0.0007813,0,0,-0.00386311,-0.644429,0,0,0,0,-0.00211367,-0.101869,-0.000930196,0,0,0,0,0,-0.000153187,-0.0974678,-0.00200946,0.0461278,0,-0.276239,0,0.000753428,-9.30987e-07,0,0,0.191979,0,0,0.534,0.353109,0,0,0,0,0,0.125965,0,0,0,-0.861144,-0.120648,0,0,0,0,0,0,0,0,0,0,0.00542409,-0.3709,0,0.327858,0,0,-0.000635312,0.0234979,0.000746303,0,0,-0.00386045,-0.0529288,0,0,0,0,-0.00665096,1.28234e-05,0,0,0,0,0,0,0,-0.000631563,0,0.0162809,0,0,0.261953,0.206966,0.0509872,0,0.0680607,0,0,0.00482403,-0.0586561,0,0,0,0,-0.173751,-0.327609,0,0.224287,0.133493,-0.00867171,-0.774523,-0.0251576,-0.0876456,0,-0.00920298,-0.118494,0,0,0,0,0,0,0,-0.00157013,-0.0430067,0,0,0,0,-0.000792419,-0.000544263,-0.00292969,0,0,0.160991,0,0,0.00223342,0,0.000221206,-0.0256543,0,0,0,0,0,0,-0.00152375,0,0,0,0.172126,0,0.00425395,0.296986,0,0,0.0020183,0.000531958,-0.000109919,0,0.0901824,-0.0052226,0,0,0,-0.00547999,-0.0225586,0,-0.000839635,0.000285783,0,-0.000106009,0,0,-0.031977,0,0,-0.000770811,0,0.338572,0.0728664,0,0.31909,0,0,0.00217538,0,0.0157845,0,0,0,0,0.191874,0,0,0.0461371,0.0165977,0,0,0,0,0,0.000465468,0.0276119,0.492599,-0.0230028,0,0.00111065,0.00403246,0,0,0,0.000566172,0.0428229,0,0,0,0,0,4.24119e-05,0,0,0,-0.108169,0.06881,-0.00202048,0.00212525,0.437152,0,0,0,-0.185145,-0.179911,0,0,-0.393316,-0.00249121,0,-0.202971,0,-0.0130676,0,0,-0.404992,-0.02544,-0.0916005,0,0,0.0372678,0,-0.261108,-0.00715975,0,0,0,0,0,0,0,-0.0275737,-0.0108045,0,0,0,-0.00116662,0,0,-0.000389799,0,0,0,0.170312,0,0,0,0.000481617,0.310779,0,0,0,0,0,0.522664,0,0.278642,0,0,0,0,0,0,9.17264e-05,0,-3.35989e-05,0,0,0.00514458,-0.140479,0.0561151,0,0.253693,0.000391932,0,0,0,0,0,0,-0.000924769,0,0,0,0,0,5.33819e-05,-0.0210393,0,0,0,0,0,0,0,-5.2468e-05,0,0,-0.000208078,0,0,0,0.39744,0.0873108,0,0.181545,0,0,0,0,0,0,0,0,0,2.11725e-05,0,-0.259817,-0.528372,0,0.590869,0,0.00132552,0.000856364,0.0180453,-4.72795e-05,0,0.157641,0.419587,0,0,-0.0567358,0,0,0.171741,0.0222282,0,0.000642573,0,-0.404603,-0.0055017,0,0,-0.341797,-0.00108888,0,0,-0.0150886,-0.160829,0,-0.000285816,0,0.224738,0.00172006,0,0,0,-0.00474481,0.000306043,0,0,0,0,0.000195873,0,0,0.000321672,0,-0.00100921,-0.000925902,0,0,0,0,0,0,-0.0417376,0,0,-0.0389437,-0.342845,-0.127706,-0.205538,-0.0101034,0.176095,0,-0.00576353,0,-0.32247,0.386247,0,0.208611,0,0,-0.00073429,-0.000286639,-0.059153,0.0383347,0.00105568,-0.0110697,0,-0.000972682,0,0.000106329,0,0.000650002,0,0,0,0,0,-0.427557,-0.0434578,0,-0.180761,-0.000253137,0.00358487,0.00392661,0,0,0,-0.0949294,0,0,0,-0.000551092,0,-0.0505343,-0.00279369,0,0,0,0.000220579,0.0964531,0,0.159686,0.157067,0,0.0423603,0.00033607,0,0
11,0,-0.205141,0,2.85009e-05,0,0,-0.182801,0,0,0,0,-0.00388021,0,-0.000557094,0,0,0,-0.000469703,-0.514841,-0.000680609,0,0,0,0,0,0,0.000787811,0,0,0,0,0,0,0,7.57686e-05,0,0.0857151,7.55514e-05,0,-0.250803,0,0,0,0,-0.000613725,-0.396461,-0.152511,0,0.00299523,0,0,0,-0.138207,0,0,0.0332756,0,0,0,0,-0.00107441,0,0,0,0,0.00808104,0.406853,0.0358455,0,0,3.88522e-05,0,0,0.198183,0,0,0,-0.429688,0,0,0,0,0,0,0,0.102347,0,0,0,0,-0.454518,0,0.513179,0,-2.16189e-05,-0.0588731,0,0.00776783,0,0,-0.00118979,-0.0447074,0,-0.00805429,0,0,-0.291438,0,0,-0.000208901,0,0,0,0,0.089048,0,0,0,0,0,0.339668,0,0.0203375,0,0.254455,0,0,-0.00237226,0,0,0.00515659,0,-0.00337632,-0.491816,0,0.173307,0,0,-0.408123,0,0,-0.000536387,0,-0.14399,0,0,0.388469,0,0,0,0.00160805,0,0,0,0,0,0,0,-0.00430474,-0.000524026,-0.00153632,0.000938695,0,0,-0.300298,0,0,0,0,0,0,0.0196605,0,0,0,0.00505144,0,0,0,0,0,0,0.31688,0.362964,0,0.345051,0.104838,0,0,0,0.113482,-0.0453219,0,0,0,0,-3.69401e-05,-0.000736119,-0.120035,0,0,-0.0326236,0,0,0,0,0,-0.0153504,0,0.111084,0.000333105,0,0.504161,0,0,0,0,-0.225072,0,0.092235,0,-0.00116164,0.723552,0,0,0.0434703,0.180704,0.108116,0,0.356655,0.00131819,0,0,0,0,0,0,-0.312793,0,0,0,0,0,0,0,-0.202526,0,0,0,0,0.00260018,0,0,0,0.288977,0,0,0.000186892,-0.152805,0,-0.0341611,0,0,0,-0.00406491,0.000208641,0,0,0,0,-0.0240692,0,0,-0.750831,0,0,0,0,0,0,0,0,0,-0.0929265,0,6.72429e-05,0,0,0,-0.142053,0,0,0,0,-0.000814804,0,0,-0.000590925,0,0,-0.00267247,0,0,0,0,0,0.0563923,-0.0511861,0,0,-0.00017402,0,0.00107909,0.234301,0.104976,-0.0709979,0,0,0,0,0,0,0,-0.0119137,0,0.0765204,0,-0.0736403,0.177857,0,0.00149164,0,0,0,0,0,0,0,0,0,0.000372364,0,0,0,0,-0.00073628,0,0,-0.0144964,0,0,0,0,0,-0.00119268,0,0,0,0,0,0,0,0,0.111173,0,0,0,0,0,0,0.00186598,0.00019614,0,0,0,-0.289396,-0.471484,0,0.299385,0,0.0952705,0.612743,0.243175,-0.00178656,0.282845,0.0620657,0.136957,0,0,-0.229207,0,0,0,0,0.0624895,0,0.000629845,0,-0.703843,0,0,0,0,0,0.0978627,0,0,0,0,0,0,0,0.000101423,0,0.239334,0,0.00261726,0,0,0,0,0,0,0,0,0,0,0,-0.124466,-0.0592767,8.17195e-05,0.0781462,0,0,-0.000362554,0,0,0,0,0,0,-0.0153283,0,-0.1112,-0.000506726,0.133383,0,0,0,0,-0.0064736,-0.000271964,0,0.00098055,0.0075165,-0.00140262,0,0,0,0,0,0,-0.169732,-0.0207606,0,-0.0418774,0,0,0,-0.22649,-0.000496259,0,-0.214531,-0.0571637,0,0,-0.357158,0,0,0,0,0,0,0,0,0,-0.0721791,0,0,-0.00303199,-0.050617,0,0,0,0,0,9.2479e-06,0,0,0
12,0,-0.839385,0,0,0,-0.0988283,-0.000646896,-0.100145,0,-0.200744,0,-0.263846,0,0,0,0,0,0,0,0,0,0,0,0,0.0368451,0,0,0,0,-0.0350827,0,-0.000113205,0,0,0.221661,0,0,0,0,-0.0814406,-0.07424,0,0,0,0,0,0,0,0,0.151956,0,0.129754,0,0,0,0,0,0,0,0.000148533,-0.00341465,0,0.159657,0,0,0.000384369,0,0.00294231,0,0,0,9.95034e-05,0,0,0,0,0,0,0,0.000725102,-0.0490379,0,0,-0.0724914,-0.000621318,0,0,0,-0.195689,0,0,0,0.144876,0,0,0,0.000479812,0.261895,0.00448777,0.328433,0,-0.164644,0,-0.000976326,-0.00359518,-0.00154459,-0.0345132,0,0.357914,0,0.0404219,0.000611618,0.186102,0.00476468,0,0,0.196893,0,0.225227,0.00105927,0.467786,0.245385,0.00337408,0,0.00604389,0,0,0.231319,0,0,0.0842288,0.00636413,0,-0.122572,-6.46609e-06,0,0.0012258,0,-0.000594072,0,0,0,0.0612601,0,-0.156622,0,0,0,0,0,0,0,0,0.000324147,0,0,0,0,-0.00121978,-0.281991,-0.491814,0,0,0,-0.493294,0,0,0,0,0,0,0,0,0,0,0,0,0,0,0,0,-0.0458628,8.76158e-05,0.00671776,0,0.000543849,0,0,-0.00513226,-0.00402648,0,0,0,-0.240466,0,0,0,0,-0.213861,0,0,-0.000599197,0,0,0,0,0,0,0,0.415418,0.00326962,0.0350437,0.458039,0,0,0,0,-0.000971194,0,0,0.0893859,0.00052682,-0.0713104,0,0,0,0,0,0,0.000448741,0.00060945,0,0,0.00342408,0,0,0,0,0,0,-7.80721e-05,0,-0.000195013,0,0,-0.484967,0,0,0,0,0.00101262,0.196367,0,0,0.10052,0.174612,0,2.50053e-05,0,0,0,0,0,0,-0.202287,0.00755017,0,0,0.190761,0,-0.00151307,0,0,0,0,0,0,-0.00515234,-0.00655847,0,0,-0.252452,0.000324599,0,0,0,0,0,-4.76464e-05,-0.0744174,0,0.000113375,0,0,-6.68314e-05,0,0,0,0,0,0,0,-7.18385e-06,0,0.000273633,0,0,0,-0.189351,0,-0.0667572,0,0.00090029,0,-0.0998062,-0.267365,-0.0494045,0,-0.00241499,0,0,0,-0.159757,-0.231151,0,0.120878,0,-0.124924,0,-0.000639564,0,0,0,0,0,0,0,0,0.328463,0.145064,0.0750801,0,0,0.000977097,0,0,0.00129763,-1.81308e-05,0,0,0,0,0,0,0,0,0,0,0,0,0,0,0,0,0,0,0,0,0,0,0,0,0,0,0,-0.145903,-0.672227,0.000629023,0.0389917,0,0.000884478,0.138321,0.00272741,0,0,0,0,0.0146626,0,0,0,-0.130268,0,0,-5.48817e-05,0,0,0,0,0,0,0.195957,-0.146394,0,0.483873,0,-0.150535,-0.0493821,0,0,-0.00714213,0,0,0.0790544,0.410433,0,0,0.0401585,0.00442613,0.00120274,0.163447,0.105299,0.284728,0,0.00383111,0,-0.223031,0,0,0.00128002,-0.062506,0,0,0,0,0,0,0.000285187,-0.0332045,-0.00580821,0,-0.394599,0,-0.00120861,0.109419,0,0.195787,0,0,-0.0670102,-0.000752167,0,0,0,0.54342,0,0,0,0,0.000116017,0.0109048,0,-0.000181497,-0.0287114,0,0,0,0,0,-0.0707492,-0.00326274,0,-0.0058791,0,0,3.5106e-05,0,0,0,-0.000465588,0,-0.169797,0,0,-0.000729981,0,0,0.134032,-0.00608373,-0.131117,-0.0696514,0,0,0,0,0,0.316858,0,0,0.124955
13,-0.00089856,-0.449699,-0.0557621,0,0,0,0,-0.154608,-0.209162,-0.00160509,0,0,-6.97429e-05,-0.000937117,0,-0.197692,0.0446934,0,0,0,0,0,0.0961181,0,0.109556,0.0731848,0,-0.115377,0,0,0,0,0,0,0.112943,0,0,0,-0.170275,0.0150144,0,0,0,0.35359,0,0,0,0,-0.0145979,0.132042,-4.11527e-05,0,0,0,0,0,0.000936998,0,-0.00143298,0,0,0,0,0,0,0.191467,0,0,0,0,0,0.0257868,0,0,0.0160062,0,0.0106374,0.244187,0.0234651,0.135695,0,0,0,0,0.0869068,0,-0.00159234,0,0,0,0.0015383,0,0,0,0,0.203105,0.452851,0.00465742,0.202368,0.118832,0,-0.308565,0,-0.111321,-0.054111,-0.492683,-0.152363,-0.121628,0.00557323,-0.00687931,0.0707949,0.179073,0,0.258708,0,0,0.00581771,0.00127772,0.368056,0.218997,0,0.351764,0.248376,0.00299736,0,-0.0101743,-0.33692,0,0,-0.152291,0,0,-0.0658935,0,0,0,0.082008,0,0,-0.00179798,0,0,0,0,-0.344896,-0.491103,0,-0.144136,-0.00485119,0,0,0,0,0.00202429,0,-0.00198252,0,-0.0319677,-0.000263405,0,-0.0797268,0,0.0310889,0,-0.0516262,0,0,0,-0.000415661,-0.0109807,0,0,0,-0.0556498,0,0,0,0,0,0,0,0,0,0,0,0,0,0,0,-0.131703,-0.000753457,0,0.000851818,-0.085982,0,0,0,0,-0.18173,0,0,0,0,0,0.0073043,0,0,0,0,0,0,0,0,0,0.164177,-0.000697038,-0.000142747,-0.373162,-0.260127,0,0,0,-0.122113,0,0,0.218243,0,0,-0.000117797,0.000495912,0,0,0.0826896,0,0.00115392,0,0,-0.0708561,0,0,0,0,0,0,0,0,-0.000162401,0,0,0.0188075,-0.00541329,0,0,0,0.183422,0,0,0,0,0,0.00271978,0,0,0.0425098,-0.447881,0,0.0609147,0,0.00266906,3.18923e-05,0,0,0.139629,0.00045752,0,3.28107e-05,0,0.000723171,-0.000821978,0,0,0,0,0,0,0.170744,0,0,0,-0.00158403,0,0,0,0.00386904,0,0,0,0,0,0,0,0.184964,0,0,0,0,-2.75953e-05,0.221725,0,0,0,-0.00140028,0,0,0,-0.064916,0,0,0,0,-0.000348294,0,-0.000496148,0,0.00010389,0,0,0,0,-0.184137,0,0,0,0,0,0,0,0,0,0.00234111,0,0,0,0,0,0,-0.000411695,-0.0121009,0,0,0,-0.42323,3.56504e-05,0,0.000177972,0,0,0.300795,0,0,7.55957e-05,0,0,0,0,0.00236323,0,0,0,-0.00830149,0,0,0,0,0,0,-0.218254,-0.179743,0,0.0664801,-0.000370657,0.0311286,0.0213035,-0.331753,0.00124572,0,0.388207,0.206669,0,-0.263919,-4.08987e-05,0,0,0.0313418,0.0476499,-0.117526,0,0.0414178,0,-0.00143695,0,0,0,-0.133201,0,0.000562327,0,0,0.357949,0.000130846,0,0,0.00136827,-0.514504,0.177158,0.137687,-0.0136471,0.0290783,0,-0.244,0,0.0977865,0.0417638,0,-0.0907467,0,-0.0650572,-0.00660472,0,0,0,0,0,0.0448555,0,0.113746,0.0423923,0,0,0,-0.000962184,0,0.00290671,0,0.00101054,-0.00808967,0,0.306617,0.0243922,0,0,0,0.66463,0,-0.597855,0.304297,-0.00450229,0.205297,0,0.00825004,0.00496143,0,-0.000238487,-0.163403,-0.000879921,0,-0.00180458,0,0,-0.000173106,0,0,0,0.336411,0,0.00193256,0,0,0,-0.00220308,0,0,0,0.00014252,0.0428299,0.129551,0.210919,0.0181751,0,-0.0540196,-0.354073,-0.000965128,0,0,0,-5.30679e-05,0,0,0,0
14,0,-0.208506,0,0.182118,0.0167662,0,0,-0.0109095,-0.178333,0,-0.0121978,0,0,-0.310092,0,0,0.00373118,0,0.353522,0.00351074,0.017064,0.0379706,0.552611,0,0,0.206724,0,0,0,0,-0.000191184,0,0,0,0,0,-0.00326383,-0.0309119,0,0.0621564,0,0,0,0,0,0,0.00735623,0,0,0.167507,0,-0.0110956,0,0,0,-0.114485,0.000131721,0,0,0,0,0,0,0,0,0.00121059,0,-0.00263342,0,0,0,0,0,-0.170586,0,0.0319041,0.144706,0.00256428,0,0.000555033,0.0252495,-2.7331e-05,-0.0119814,0,0.453175,0,-0.362665,0,0,0,0,0,0,0,-0.00504154,0,0.690077,0,0.000171294,0,-0.332068,-0.104341,0,-0.00177032,-0.738548,-0.365372,0,-0.452738,0,0,0.0911279,0,0,0.456837,0.0110162,-0.0313494,0,0,0,0,0,0,0.229007,0.231477,0.0498192,0,0,0,0,0,0,-0.270737,-6.00565e-05,0,0.0750874,0,0,0.000393666,0,-0.00168815,-0.283458,-0.0198144,0,0,0,0,0,0.0611755,0.315811,0.000570522,0.00398896,0,2.29484e-05,0,0,0,0,0,0,0,-0.000124201,0,0.000432435,0.0432478,0.0628475,-8.50384e-05,0,0,0,0,-7.71807e-05,-0.37473,0,0,0,0,0.093166,0,0,0.00194716,0.000373822,0.459794,0,0,0,0.000208747,0.183978,0,0.110397,0,-0.0153408,-0.000403368,0,0,0,0.200238,0,0,0,0,0,0,0,0.000294426,0.00148538,0.0146428,0.173352,0,0,0,0,0,-0.0145233,0,0,0,0.00159099,-0.0149076,0,0,-0.00780821,0,-0.257515,0,-0.000308171,0,0,0,0,0,-0.000212198,0,0,0,0,0,0,0,0,-0.000334863,0,0,0,0,0,0,0,0,0,0.0566214,0,0.18865,0,0.00190419,0.253593,0,0,0,0.00175157,0,0,-0.432467,0,0,-0.370829,0,0,0,0,0.00292375,0,0,0,0.0403986,0,0,0.560049,0,0,0,-0.10753,-0.00430981,0,0,0.246546,0,0.000662134,0,0.202438,-0.0017284,0,0,-0.0163546,0.00121129,0.118771,0,0,0,0.0454017,0,0,0.0219021,0,0,0,0,-2.72575e-05,0.295559,0,0,0,-0.148622,0,0,0.000831762,0,0.161343,0,0,-0.165047,0,0,0,0,0.000149722,-0.000178222,0,0,-0.00242975,0,-6.9167e-05,0,0.000228378,0.101744,0,0,0,0,0.265849,0.00778124,0,0.000639046,0,-0.04351,-0.00107091,0,0,0,0,2.71163e-05,4.32784e-05,0,0.0853699,0,0.00383891,0,0,0.000234162,0,0,0.41665,0,0,0,-0.000667326,0,0,0,0,0,0,0,0,0,0,0,0,-0.150758,0,0,0.159818,-0.0136925,0,0,0,6.93901e-05,0.100777,0,0,-0.224968,0,0,0,0.000957327,0.00273829,0,0,0,0,0,0,-0.0644307,0,-0.122021,0,0.0232684,0,0,0,0,0.165333,-0.288923,0,-0.00394729,0,-0.329994,5.33195e-07,0.106821,0,0.0552758,0.018327,-0.283949,-0.128331,-0.0175231,-0.00215019,0,-0.251865,0,-0.235408,-0.216063,0.815921,0.0102896,0,0,-0.00566163,0,0.0906126,0,0,-0.133938,0,-0.00469998,-0.00523518,-0.00176315,0,0,0,0,0,-0.23971,-9.88756e-05,0.001009,-6.68835e-05,-0.165928,-0.00155652,-0.00103719,-0.164469,0,-0.0176775,0.1783,0.00151831,0,0,-0.00381536,-0.000409955,0,0,0,0.312492,0,0,0.235166,0,8.88448e-05,0,0,0,-0.0862313,0,-0.822879,0,-0.0277005,0,0,0,0.00100234,0.0550006,0,0,0,-1.87952e-05,0,0,-0.00541711,0,0,-0.00141336,0,0,-0.162986
15,-0.0908034,-0.0825064,0,0.727013,0,0.0480837,0,0,0,0,0,-0.0103559,-0.0605156,0,-0.0479693,0,0.113198,0,0.32563,0,0,0,0.466717,0.000937351,0,0.139842,0.00889481,0,0.00150295,0,0,0.0456782,-0.00282661,0,0,-0.000202972,0,0,0.000925568,0.0562142,0,0,0,-0.0459185,0.00111277,-0.00352441,0,0,0,0,0,-0.227988,0,0,0.0199333,0,0,0,0.000746856,0,0,0.00076125,0.000597452,0,0,0,-0.604645,-0.172222,0,0,0,0,0,-0.00558085,0,-0.0014287,0,0,0,0.0379929,0.134919,0,0,0,0.739032,-0.00202215,-0.000103057,0,0,0,0,0,0,-0.189274,-0.13977,-6.72736e-05,0.00815377,-5.26202e-06,0.0616421,0,-0.364967,-0.15455,0,0,-0.255722,-0.563064,0.0126168,0,0.000412607,0.00332583,0,0.000556929,0.0653799,0,0,-0.308286,0,0.00107683,0,0,0,0,0,0,0.00113068,0,0,0,0.0479116,0,0,0,0,0,0,0.425674,0.0104801,0,0,0,0,0,0.441948,0.272846,0,0,0,0.206511,0.0340186,0,0.00181657,0,0,0,-0.0642302,0,0.106173,0,0,0,-0.000134671,-0.233135,0,0,0,-0.0071562,0.25613,0,0,0,0,-0.157713,0,0.00179661,0.0747136,0.186387,0.159397,0,0,0.189275,0.150646,0.0536639,0,0.000574254,-0.000244045,0.0110318,0,0,0.109996,0,0.000209951,-0.00678194,0,-0.0254297,-0.000354671,0,0,0,9.37378e-05,-0.0986186,0,-0.00025041,0,0,0,0,0,-0.00134973,0,0.00464318,0.110301,0,-0.200387,0,0,0,0,0.00434282,0,0,-0.542502,0,0,0.244095,0,0,0.00119165,0,0,-0.00825112,0.00109467,0,-0.0218462,0.307377,-0.000954387,0.00324212,-0.237207,-0.0239913,7.20695e-05,-0.0164461,0,0,0,-0.236658,0.000345829,0,0.00106793,0,0,0,0,0.0471851,0,0,-0.136259,0,0,0,-0.0160091,0,-0.0760105,-0.165276,0,-0.00369567,0,0,-0.00281009,0.000199395,0.156806,0.0237508,0,0,0,-0.0027882,0,0,-0.100702,0,0,0,0,0,0.0751317,0,0,0,0,0,-0.000439471,-0.00137733,0.612561,0.0109999,0,0.317973,0.0046986,0,0,0.00216808,0.368118,0,0,0.00519512,0,0,0,0,0,0,-0.00360218,0,-0.168442,-1.02847,-0.00331399,-0.0235011,0.00196021,0.000450621,0.00797934,0,0,0,0,0,0,0.00084232,0.000925002,0,0.000107854,0,-0.057789,0.000125053,-0.000518284,0,0,0,0,0,0,0,0.341254,0.0115381,0,0,-0.000359551,0,0,0,0,-0.0853881,-0.0296548,0,0,-0.00977993,0.000233858,7.97038e-05,0.000238939,0,2.19669e-05,0,0,-2.49358e-05,0.496719,0,0,0,-0.00799355,-0.000599031,0,0,-0.12141,0.16984,0.225801,0.000809813,0.00174622,0.00156012,0,0,0.111664,-0.0121326,-0.137113,-0.153847,0.0393963,-0.313312,-0.000417447,0,0,0,0.164964,-0.00128654,-0.0995213,0,0,0,0,0,-0.122253,-0.171315,-0.000177354,0,0,0,0.000116093,-0.000271139,0.00724248,0,9.58116e-05,0,0,0,-0.329447,-0.0807977,0,-0.291162,0,-0.00045156,0,-0.00124339,0.468461,0,0,-0.000231769,0,0.400917,-0.00827884,0.295823,-0.555553,-0.344796,-0.318693,0,-0.0113385,-0.311576,0.00078938,0.00131531,0,-0.0140053,0,0,0.00112286,0,-0.386435,-0.39584,0.000562992,-0.241134,0.137303,0,0,9.72569e-07,-0.170284,0.000257286,0.0644085,0,0,0,0.0237531,0.240617,0.0957722,-0.252519,-0.00743723,-0.00886614,-0.010293,0,-0.105922,0,0.0120499,-0.0103925,0,0,-0.00107861,-0.000353078,0.00267081,0,0,0,0,-0.00295103,0.00152887,-0.0485804,0,-0.309678,0,-0.422077,0,0,0.195857,0,0.0285241,0,-0.319209,0,0,0,0,0,0,-0.0282389,0,0,0,0,-0.0005685,0
