0,0.0164695,0.0146061,0.049276,0.101803,0.0601372,0.0431163,0.0170423,0.0345547,0.0145647,0.0449209,0.0169237,0.0144376,0.00530044,0.00302536,0.000176293,0.0552919,-0.026144,-0.0239717,-0.0486632,0.00299905,0.0324564,-0.00577903,-0.0314136,-0.0317736,0.0216046,0.0348907,0.0230769,0.0245386,0.0559259,0.00258948,0.0296593,0.0115473,0.0325256,0.0134571,0.0289119,0.0111977,-0.00979868,0.0285236,-0.0611132,0.000190738,-0.0251156,-0.0425243,-0.0224389,-0.031077,-0.0119891,-0.00483733,-0.0115358,-0.0285526,-0.0294488,-0.00672743,0.0172213,0.0352053,0.00993967,0.018393,0.0399595,0.0685817,0.0533463,0.0240877,0.00325616,0.000509027,-0.00628123,0.04878,-0.0220429,0.00422972,-0.00339709,0.0151773,-0.00966765,0.00397235,-0.0261801,-0.00420721,0.0102151,-0.0150315,-0.00642537,-0.0210531,-0.0240565,-0.00937143,0.0358445,-0.0269235,-0.0103857,-0.00307975,0.0525267,-0.0109248,0.00294598,0.0154678,-0.0184789,0.0320432,0.00604241,0.00444677,0.0149532,0.053827,-0.0455494,-0.0251011,0.0342119,0.0196088,0.0284574,0.0111573,0.023919,-0.0431818,-0.0256264,-0.0272131,0.0283818,-0.00012844,-0.0324362,-0.0139404,0.0359732,-0.0184126,0.0159791,0.0891301,-0.0210498,0.0698436,-0.0700172,0.00418685,-0.0268694,0.00410857,-0.0496399,0.0474439,-0.00113615,0.0200727,-0.0551775,-0.00329066,-0.0376794,-0.00924451,-0.034028,-0.00947387,-0.0209508,-0.0368189,-0.0487522,0.0144796,-0.0131437,-0.0010681,-0.0255742,-0.029347,-0.0115108,-0.0278716,-0.0294243,-0.0274868,-0.00936599,-0.0104644,-0.0610082,-0.035923,-0.00296543,-0.0466943,-0.0336811,-0.0529643,0.00073739,0.00301213,-0.0218222,-0.0449268,-0.0159868,0.041712,-0.0254244,0.0575313,-0.031606,0.00213361,-0.0248562,0.00372605,0.0024022,-0.0525813,-0.0292162,-0.0336425,0.0234973,0.0197187,0.0282515,-0.00240889,0.00285022,0.00533584,0.0205073,0.0204658,0.034867,0.033845,0.0127109,0.0445243,0.0555649,0.0473943,0.0534133,-0.0109277,-0.00922967,-0.00991125,0.00328196,0.00188483,-0.0470857,0.0297845,0.0364828,0.0649444,0.0372818,0.00799416,-0.0401313,-0.0769944,-0.0724571,-0.0273349,0.0119568,0.0381173,0.0595296,0.0834704,0.0416074,0.0265111,0.0421232,0.0504171,0.046198,-0.00120563,0.00582559,0.0480077,-0.0226947,0.0474254,0.0156963,-0.000813588,0.044425,0.071378,0.0028688,0.01449,-0.00493969,0.0149473,0.00783161,0.0339256,-0.00460241,0.0222483,0.0401725,0.0280715,0.0292292,-0.0436074,-0.0429599,-0.02185,-0.0502668,-0.00190633,-0.0119552,0.0177021,-0.0148071,-0.0123035,-0.0270832,-0.0471855,-0.0139108,-0.00513943,0.0250824,-0.00996098,-0.0107171,-0.0266636,-0.0415742,0.0505906,0.00818843,0.0172684,-0.0224107,-0.0056234,0.0262676,-0.0192742,0.0124605,-0.0079968,-0.0464216,-0.0169941,-0.0195542,-0.035355,-0.079274,-0.0248587,-0.019486,-0.000657227,-0.0531687,-0.0480834,-0.0735573,-0.0124079,-0.0129215,-0.0652701,-0.0117511,-0.0381901,-0.0240153,0.0238352,-0.0872431,0.0261626,-0.00298053,-0.0269348,-0.0957983,-0.027023,0.0211562,0.00197415,-0.0278259,0.0216445,-0.00401775,0.0211031,-0.0151014,0.0127875,0.0401091,0.0362672,0.0214448,0.0186955,-0.00683722,0.00318004,0.0200156,-0.0427939,-0.0176621,0.00918913,0.0502365,0.0325265,0.0280465,0.00550326,0.024238,0.093232,0.0792351,0.0351937,0.00566991,-0.0560574,-0.0339671,0.0038555,-0.0406566,0.0159201,0.0158961,-0.00299977,-0.0157189,-0.0356929,0.0244948,0.0539878,0.0324845,0.0271944,0.00852584,0.0254927,-0.0038749,-0.000368979,-0.0314801,-0.0173334,0.046566,-0.0113976,-0.00630566,-0.0317013,0.0170582,0.00268195,0.00291007,0.020428,0.00536944,-0.00477856,0.00789348,0.0417979,-0.0117814,0.00643333,-0.0103569,-0.0399384,-0.0143182,-0.0159667,-0.015632,0.00862212,0.0225846,-0.0140993,-0.0566276,-0.0246287,-0.024736,-0.0458032,-0.0491674,-0.031001,0.00604113,0.0135596,-0.0142435,0.0250539,-0.0212214,-0.0221976,0.0220439,0.0446465,0.015401,0.0205839,0.0575469,0.00664722,-0.0159124,-0.0450904,-0.000627205,0.0130873,0.0472799,0.0137605,0.0317142,0.0572396,0.0201239,-0.0275933,0.0261298,0.0502966,0.0270897,0.0200035,-0.010637,-0.0147266,0.0127623,-0.00780064,0.0147919,0.0616195,-0.0151371,-0.0327906,-0.0658649,-0.0184296,-0.0712712,0.0159669,-0.00995637,-0.0021473,-0.0215999,0.0203559,-0.0268154,0.00235033,-0.0223232,0.00927262,-0.0185413,0.0452427,-0.0221086,-0.0134029,0.0346427,0.0309896,-0.0245958,0.0367128,0.000454952,-0.0332592,0.05155,-0.0245057,-0.0562927,-0.111815,-0.0951114,0.00680276,-0.0121784,0.066465,-0.0469618,0.0174602,-0.0423629,-0.0546026,-0.0087106,-0.00810947,-0.100108,-0.0182481,-0.0255803,-0.0649595,0.00718627,-0.0039871,0.0166953,0.0503086,-0.0487686,-0.0531516,0.0657735,-0.0180793,0.08811,0.0805286,0.0139555,-7.44529e-05,0.0795004,0.0672316,-0.0260202,-0.00146195,0.0556312,0.0100379,0.0198632,0.0660762,0.0790959,0.0983162,0.0062031,0.014667,0.0790428,0.0343978,-0.0171247,-0.100304,-0.0187499,0.035536,0.00983257,0.0447553,0.0885852,-0.0734196,-0.070195,0.0534538,0.0312359,-0.00041061,0.0340992,-0.0650481,-0.0667374,-0.047964,-0.0203932,0.00256472,0.036926,0.0559745,-0.0222571,-0.0210238,0.0113239,0.057412,-0.0287784,0.0232877,0.0240929,0.00849424,0.0137042,0.0231639,-0.00864362,0.00966846,-0.0209075,-0.0411303,-0.0444572,0.0682158,-0.0766067,-0.00680441,-0.0172721,0.0527727,0.00476934,0.0334635,-0.00565632,-0.033458,0.0218212,0.0408205,0.0632507,0.0876719,-0.0128376,-0.0403452,-0.00613305,-0.00842201,0.00533555,0.0755705,-0.00236424,0.0502336
1,0.0381412,0.00855774,0.030885,0.0803039,0.0286435,-0.0336977,0.0329389,0.00618078,0.0355761,0.0241189,0.00648543,0.0282997,0.0207246,-0.0578253,0.0319271,0.0764925,4.71379e-05,-0.0088772,-0.0408929,0.0340224,0.0467318,-0.013972,0.00628941,0.0502263,0.0268222,0.0200987,0.0129254,0.0287675,0.00435034,-0.0623165,0.0148781,0.028458,0.0265294,-0.0411419,0.0260941,0.0220505,0.00719002,0.0476327,-0.0204976,-0.0078234,-0.00755033,-0.00895574,-0.00477474,0.0181916,-0.0167509,0.0334833,0.0303023,-0.00488581,-0.0220108,0.0421833,0.0529427,0.0542455,0.0309844,-0.0256213,0.0398539,0.0193362,0.011823,0.0130463,0.0324402,0.0607205,0.0195522,0.0754479,0.0291219,0.0420209,-0.00975242,0.0210027,0.0121124,-0.0097351,-0.032799,-0.00980719,0.0135954,0.027528,-0.00515552,-0.021762,-0.0190832,-0.0118093,-0.0081847,0.011836,0.0186209,0.00733511,0.0633923,0.013684,0.123095,0.0579713,0.0564084,-0.00144591,-0.0252772,-0.00114709,-0.00018667,0.0884762,-0.0246249,-0.029832,0.025502,0.0255598,0.0293436,-0.00806638,0.0437001,-0.0030206,0.0116218,0.0482873,0.00139288,0.0220929,-0.00313313,0.0388331,0.0715453,0.0142193,0.00536703,0.0782625,-0.000691469,0.0415641,-0.0131754,-0.0174915,-0.0687729,-0.00526147,-0.0111238,0.0184145,-0.0107233,-0.0328038,-0.0370852,-0.0445248,-0.0932181,-0.0719014,-0.0317037,0.0381947,-0.00434615,-0.00917542,0.0171949,0.0653373,0.0342873,-0.0136753,0.00402371,-0.00058161,0.0484765,0.0591766,0.00768717,-0.0493068,-0.0257543,0.0300029,-0.0342128,-0.0512774,0.0206553,0.0351376,-0.00906509,0.0282014,-0.0145722,-0.041934,-0.0331644,-0.0233528,-0.029877,0.00983811,-0.0410339,-0.0387077,-0.00849529,-0.0131023,0.0463786,0.0732313,0.00430076,0.00956234,0.0429964,0.0225548,0.0331978,0.0445685,0.0193727,-0.0306969,0.0191797,0.0306229,-0.00397661,0.0209637,-0.0374771,-0.0426181,-0.0210272,-0.0227176,-0.00306102,-0.0526756,-0.0322149,-0.0903719,-0.0188248,0.0212922,-0.00694866,-0.0122507,-0.0725396,-0.0212012,-0.049229,0.0448685,-0.0881819,-0.0247381,0.0123997,-0.0167551,-0.0623645,-0.0619137,0.0571233,-0.00218124,0.0565443,0.0455507,-0.0131906,0.0414358,0.033894,0.0252343,0.00364726,0.0024293,-0.0464096,0.00213283,0.0029337,0.0248272,-0.0332255,0.0159584,-0.0128442,-0.0457962,-0.0239968,-0.0130974,0.0370047,0.00183069,-0.0158947,0.0112225,-0.00371632,-0.00170787,-0.0515679,-0.0143418,-0.079702,-0.0783584,-0.0170843,-0.0257829,-0.0297272,0.0150278,-0.0271627,0.000446574,0.00687096,-0.0631484,-0.0403119,-0.00753415,-0.0143112,-0.0383142,0.0365485,-0.0353678,0.040898,0.030341,-0.00872517,0.0247458,-0.0191676,0.0495282,0.0236515,0.026707,-0.0326308,0.0508279,0.0270237,0.044142,0.00166963,0.0352482,-0.00315933,0.0150879,-0.0306382,-0.0274469,-0.0279717,0.00733193,0.012977,-0.00834115,-0.0669172,0.0524238,0.0225555,-0.044525,-0.0123574,0.0288272,0.0566993,0.0177911,-0.00368692,0.0159608,0.0344777,0.00537618,-0.0658138,-0.057598,0.00440263,0.00680441,0.0152225,-0.0198778,-0.013853,-0.0229862,-0.0992264,-0.0146535,0.0499647,-0.0277827,-0.00357502,0.00740406,-0.0356307,0.0252795,0.0350275,-0.0285824,-0.00557276,0.0262619,0.00354527,0.00749675,-0.000687755,-0.00702295,-0.00365151,0.0375078,-0.0150804,-0.0381731,-0.0343812,-0.0620015,-0.0584677,-0.0359307,-0.0486693,0.0250429,0.00403452,-0.00953488,0.00928899,-0.00704618,0.0455143,0.000807676,0.0298387,-0.0231888,-0.00490187,0.0364994,0.0825788,0.0516873,0.0132972,-0.00195645,-0.00604204,0.0175078,-0.000836801,-0.0328915,0.0167422,-0.00579348,0.00189649,-0.0315941,-0.0208366,-0.0188199,0.00375665,-0.0155632,-0.0568505,-0.0205805,-0.05609,0.0341879,0.0348973,-0.0215066,-0.0330938,-0.0208871,-0.00294114,-0.0187921,0.0075479,-0.0119618,-0.026864,0.0103678,-0.0308615,-0.0435738,-0.0209453,-0.0555337,0.0222991,0.024563,-0.0540649,-0.0220535,-6.1204e-05,-0.00657418,0.0390463,0.0269836,-0.0115055,0.0165026,-0.0222392,0.0437081,0.0019559,-0.0550766,0.0498587,0.0538598,0.058317,0.0747222,0.0582947,0.0528009,-0.0114094,-0.022109,0.00969166,0.0286201,0.00791472,0.00288164,-0.00607178,0.0397972,-0.0117727,0.0367946,-0.0329676,-0.0933128,-0.0574863,-0.0302775,-0.0456204,-0.0115859,-0.0496847,-0.0481542,-0.0429693,-0.0637597,0.0197046,-0.0511965,-0.0301972,-0.0122628,-0.0181706,0.00859988,-0.0642729,-0.0266211,0.0312057,-0.0193261,-0.0750285,-0.0305048,-0.0340665,-0.0576109,-0.0131637,-0.0433555,-0.0383393,-0.0478797,-0.0204474,-0.00542385,0.0579304,0.0769155,0.00714301,0.0375184,-0.046854,0.00543456,0.00494446,-0.00768623,-0.00680057,0.0029676,-0.0444709,-0.000676825,-0.00434027,-0.0200458,0.0133518,-0.00306183,-0.0252077,0.0252025,0.0187256,-0.0113411,-0.0251992,-0.030364,-0.0220354,0.0377628,0.00251603,0.0714381,0.00205187,0.00472408,0.061444,0.0537798,0.0196826,-0.0588706,-0.0233613,-0.0415608,-0.0575577,0.0003315,0.0253569,0.00881766,-0.00449536,-0.0120517,0.0370676,0.000908576,0.024418,-0.0422439,0.0472174,-0.01126,0.00332394,-0.0729814,-0.0129506,0.0658416,-0.0362362,-0.0910288,0.00227102,-0.0326976,0.0250543,0.00811809,-0.00500644,0.0656895,-0.0121867,-0.00897694,0.0245184,0.0505762,0.0587378,0.0712695,0.0301603,0.0465903,0.0638889,0.0848132,0.0645884,0.0159714,-0.000542617,0.0452251,-0.0209289,0.0367823,-0.0319871,0.0557447,-0.0145081,0.0410037,0.010371,0.0519427,-0.00910688,-0.045262,-0.0178213,0.0211626,0.0940435,0.0779632,-0.0175788,0.0178199,0.0272482,0.0268063,-0.0144463,-0.0225993,0.013597,-0.0587427
2,0.0550762,0.0536005,0.0364023,0.00672112,-0.0176061,0.00197741,0.00420953,0.000941755,-0.0059703,0.0211468,0.00213865,-0.00340131,0.0613436,-0.00342975,0.0805588,-0.0161755,-0.00151075,0.0148374,-0.0665363,0.010614,0.00622695,-0.0536227,-0.0112511,0.00641131,-0.0188547,0.00182693,-0.0239154,-0.0044092,0.00826881,-0.0195533,-0.0245713,-0.00416899,0.0432425,0.0094811,-0.0283298,0.0570068,0.0235869,0.0178783,0.0514735,0.0310324,0.00706264,0.0437609,0.002083,0.00386482,0.00402384,0.025648,0.028772,-0.0195767,0.00886916,0.0522527,0.0492052,0.0105089,-0.0122015,0.0280621,0.0254696,0.0249623,0.0064235,-0.0172164,0.024844,0.0189157,0.0193535,-0.012243,0.00633665,0.00318269,0.004551,-0.0537997,-0.0195749,-0.0190086,-0.0239969,0.00153306,-0.0572243,0.0128899,-0.00304807,0.000369968,-0.0307143,0.00756307,0.0374628,0.00206827,0.0155244,0.002996,0.0616217,0.0175385,0.0786329,0.00670582,0.00560402,-0.00180445,-0.00668062,0.00414806,0.0200477,0.0336114,0.0378743,0.0189114,0.00771408,0.0498509,-0.00925095,0.0146387,0.0308207,0.0188685,-0.019882,0.00167761,-0.0224636,-0.00853033,-0.00988609,0.000132858,0.0251763,-0.0113543,-0.00766615,0.0120659,0.00984674,0.0433819,-0.0201401,0.018918,0.00295103,-0.0109374,0.0436935,-0.0237713,-0.0298192,-0.0474114,0.016327,0.0129421,0.00604732,0.0288161,0.0216965,0.0156361,0.00235434,0.0199518,0.0482378,0.0614206,0.00525448,-0.0225957,0.0171343,0.01059,0.0050157,0.00497118,-0.0154113,-0.0525552,-0.0618368,0.00211424,-0.015953,-0.0435562,-0.0189462,-0.0435373,-0.0454602,0.0497148,-0.0539413,-0.00119877,0.0141162,0.00588777,-0.0251566,-0.0216909,0.00100366,-0.0694203,-0.0280541,-0.0347106,-0.0104607,0.0216393,-0.0213556,0.0149107,0.0551106,0.0119242,-0.0435502,0.0545582,-0.0132246,-0.0171167,0.0227013,0.0353622,-0.0823213,-0.00995225,0.019583,-0.0603911,-0.0836922,-0.129645,0.04067,-0.0131343,0.0204917,-0.0343059,-0.0264641,-0.0154337,0.0065659,0.00805129,-0.0736778,-0.0117818,-0.0439917,-0.0328778,-0.0364433,-0.0415743,-0.0320828,-0.00914208,-0.00262018,0.0234836,0.0202597,-0.00625144,-0.0279305,0.0612901,-0.00778897,-0.0329048,-0.0169352,-0.0126329,-0.0431663,0.024018,0.0288305,-0.000850591,0.00922359,0.055618,0.0308226,-0.0192754,-0.0259115,-0.0877727,-0.054246,-0.0403711,0.0404925,0.0488474,0.00746648,0.0436167,-0.0238139,-0.0490566,-0.0321459,-0.0199903,-0.000909629,-0.0289549,-0.00959507,-0.0629734,-0.00757905,-0.0225336,-0.03746,-0.0422558,-0.00964381,-0.0307711,-0.0165615,-0.0138117,-0.00490289,-0.0462886,0.0288602,-0.0266212,-0.0639114,-0.0705635,0.011395,0.0382764,-0.00312291,0.0140187,0.00397758,-0.0152345,-0.0381437,0.0254918,0.0123145,0.0711274,0.0369389,0.0177515,-0.0187849,-0.0113346,-0.00638245,-0.0104036,-0.0115144,0.0480816,-0.020051,-0.00468088,-0.0508215,-0.0500383,0.0241317,-0.0137754,-0.00615838,0.0633845,0.0571799,0.0103727,0.031077,-0.00549374,-0.00383066,0.0238781,0.00985027,-0.025797,0.0277459,0.0256651,0.00966949,0.0032628,-0.0107097,-0.0180213,0.0290051,-0.0100475,-0.00434662,-0.00181519,-0.00288849,0.00247124,0.10232,0.00487721,5.60693e-06,0.0613778,-0.0117104,-0.0303383,0.062041,-0.00807418,-0.00146716,0.0681363,-0.0115256,0.0276582,-0.000872101,0.00173373,-0.0101725,-0.0401735,-0.0452425,-0.0423797,0.0291484,0.035908,0.0686994,0.0195539,0.00361859,-0.00197059,-0.0144048,0.0454755,-0.00266856,0.0051022,-0.00129015,-0.0121476,-0.0047834,0.0152044,0.043254,0.0405641,0.010251,-0.00553834,-0.0157528,-0.00887569,-0.0336138,-0.0126061,-0.0267063,-0.0304717,0.00415962,-0.0281962,-0.0427175,0.0156391,-0.0374145,0.010431,-0.0204991,0.0180073,0.012314,0.0165929,-0.0266994,-0.0288142,-0.0102173,-0.0226547,0.00031358,0.00860065,-0.0342395,0.0280238,-0.0405546,-0.0782967,-0.0346227,-0.0490118,0.00737916,-0.00973527,-0.0171081,0.00310843,0.00671885,0.0124217,-0.00708787,-0.0218008,0.000524926,0.0317005,0.00527481,0.0747085,0.0105446,-0.0553987,0.0213554,0.00500042,0.0423644,0.010056,0.0440485,0.014583,-0.0251665,-0.0260185,-0.0117229,-0.0240657,-0.0252871,-0.0300199,-0.0388545,-0.017539,0.00438309,0.0404661,0.0112993,-0.106079,-0.0757724,-0.0401511,0.0092385,-0.0848087,-0.0680981,0.0123033,0.00303124,0.00888935,-0.0532259,-0.0506561,-0.0420183,-0.00320362,-0.0640124,-0.0903751,-0.0432435,-0.0448981,0.0648818,0.0223473,0.0110357,-0.000726972,0.0328572,0.0676095,0.0432599,0.0926857,0.00229327,0.0255764,-0.0296465,0.0577839,0.0955653,0.0572302,0.0273522,0.0931834,0.0515875,0.0187539,0.000382064,-0.0656041,0.0366434,0.0318406,-0.110682,0.0213831,0.0475854,-0.084124,0.0422245,0.0222322,-0.0294614,-0.09961,0.0299317,-0.044964,-0.114688,0.0169628,0.0746953,0.0692195,-0.00615553,0.0364671,0.0178618,0.0307831,-0.0123479,0.0121235,0.023643,0.054626,0.0626866,0.0509483,0.0473383,0.0308866,0.0580046,0.0707513,-0.00151141,0.0296138,-0.0378959,0.0682257,0.0180884,0.0210979,0.066827,0.00411198,-0.0115478,-0.000974655,-0.0387457,0.0111406,0.00866026,0.0304274,0.0189854,0.0318202,0.0662028,-7.49379e-05,0.0420697,0.0570235,0.0609546,0.0265398,-0.0240469,0.0115598,0.0223465,-0.0394575,0.0243388,0.011857,0.00219663,0.0337355,-0.00418854,0.0801078,-0.0109048,0.0412233,0.0107214,-0.0126789,0.0362714,0.0336718,0.0671952,0.0398725,0.0569485,0.0432233,0.0352093,-0.00300388,-0.0185428,0.0035612,0.0356008,0.00278739,-0.0336182,0.00129864,0.00765975,-0.0116206,-0.0284506,0.00941131,0.0170285,-0.0137765
3,-0.028295,0.00638391,-0.0377364,-0.0421049,-0.0158222,0.0666493,-0.00680599,0.00457161,0.0316723,0.0389123,-0.000471687,0.0340655,-0.0487236,0.00580897,0.037875,0.0213996,-0.0236125,-0.0122744,-0.0790636,0.00741652,0.00561217,0.00143638,-0.0326819,0.00228253,-0.00477816,0.00465303,0.03696,0.0223179,0.0371979,-4.42703e-05,0.0184042,0.0343728,0.0384049,-0.0121189,-0.0433478,0.0330896,-0.000393991,-0.0117088,0.0104388,0.0482129,0.0242134,0.00445765,0.00484098,0.0197261,-0.0375178,-0.00881619,0.01268,0.0178515,-0.00342445,0.000790987,-0.0123645,0.0143298,0.0312822,0.0156905,0.00522833,-0.000466583,0.0256544,0.00576228,-0.0253381,-0.0184688,-0.00795143,-0.0512664,-0.0339186,-0.0168891,-0.000118713,-0.0356216,-0.0362304,-0.00162076,0.00507344,-0.00125714,-0.0224085,-0.00639441,-0.0120343,0.00256694,0.0170925,0.0142823,0.0408144,-0.00297937,0.00512321,0.00764702,0.0232928,0.0114496,0.0291466,0.0592857,0.0351986,0.0168547,-0.00463529,0.0107586,0.0283831,0.0776411,0.0561084,0.000714448,-0.0235542,-0.00105063,0.0640477,0.0380343,0.0126161,-0.0326504,0.0149649,-0.0444064,-0.00543063,0.0128268,0.0191,0.00566724,-0.00237665,0.0115318,0.0106842,-0.0108855,0.012422,0.0233263,-0.0082333,0.0509121,0.0348992,0.00986219,0.0127325,-0.00377858,-0.00327076,0.00339731,-0.0117924,0.0163496,0.0181831,0.000350498,-0.0284837,0.013918,-0.000146089,-0.0248474,-0.0159208,0.0100774,-0.00494697,0.0143012,-0.0289886,-0.0406327,-0.00646903,0.0333941,-0.0431855,-0.00914512,-0.0388252,-0.034736,0.00467566,-0.0103621,-0.026125,-0.00361952,-0.0438745,-0.0104923,0.0183235,-0.0581302,-0.00701038,0.0186141,0.0311318,-0.0136482,-0.0204268,-0.0501671,-0.0257159,-0.00403884,0.0221783,0.0538011,0.00117023,-0.017741,0.0264817,0.0125945,0.0236465,-0.0218484,-0.025932,0.0043696,0.0154336,0.00684338,-0.0304448,-0.00440934,0.0227913,-0.0686381,-0.0529944,-0.0212497,0.0177716,-0.0126288,-0.00270853,-0.014866,0.0326591,0.0328043,0.0591291,0.0385929,0.000991853,0.0586617,0.0131511,-0.0107116,-0.0494153,-0.0857345,0.0270722,0.0120681,0.0195347,-0.0208105,0.0241076,0.0162129,-0.0239362,0.029212,0.0200378,0.00811373,0.0032599,0.000512887,-0.0233811,-0.0488308,-0.0205234,0.000300777,-0.0154469,0.0222453,0.00830656,-0.00747968,0.00992544,-0.0220437,0.0141166,0.00556242,0.00129316,-0.0480269,0.0152383,0.0476562,-0.0411232,-0.0194645,0.0306848,0.018292,0.062767,-0.0110506,-0.0352119,-0.0371403,0.0823581,0.0133072,-0.0747687,-0.0257349,-0.0832748,0.00257898,-0.000374715,-0.0159364,-0.0259963,-0.0469526,-0.072427,-0.0298242,-0.0290845,-0.0232459,-0.0184965,-0.00101466,-0.0156444,0.00155815,0.0141088,-0.0142456,-0.0231178,-0.0236191,0.0451098,0.0565896,-0.00186224,0.0257053,0.015177,0.0311886,-0.0129652,0.0128457,-0.00694631,0.0135544,-0.0209289,-0.0139755,-0.0240121,-0.0117256,0.0595828,0.0237885,0.033599,0.0045067,-0.0445387,0.0168029,0.0281848,-0.0123038,0.0239398,-0.00826409,-0.0429491,-0.0222094,-0.00961856,0.0314028,0.0328469,0.021668,-0.00239484,-0.0169733,0.0142961,-0.0142504,0.0469348,-0.00180028,0.0599629,0.000261814,0.0380119,0.0212492,0.0212667,0.0597656,0.02432,0.00700191,0.0643483,-0.0233199,-0.0116077,0.0357587,-0.0173788,0.00529686,8.22442e-05,0.0695889,0.0605287,0.00838738,-0.0173138,-0.0431989,0.00482253,0.0455571,0.0590683,-0.0115568,-0.0181478,-0.00562248,0.00118584,0.0658564,0.0109496,0.0244419,0.00270105,0.0199311,-0.0384463,0.0407889,0.135626,-0.0180161,0.0148409,0.00764566,-0.028663,-0.0694605,-0.0438029,-0.0436361,-0.00800776,-0.00396682,-0.0236603,-0.0696366,-3.92564e-05,-0.056372,0.0408841,0.119723,0.0148087,0.0770844,-0.00827978,0.013326,-0.0134855,-0.0157387,0.00591149,5.11114e-05,0.053295,0.0401236,-0.038573,-0.0235827,-0.0865158,-0.0451065,0.0233535,-0.0525715,-0.00408334,-0.0641807,-0.0164183,0.0169169,0.000427656,-0.000502324,0.0349095,-0.0280947,-0.0216908,0.0330563,0.0239237,0.0249695,0.0119747,-0.0359538,-0.00289011,-0.0188022,0.00991007,-0.0112667,-0.00336069,0.0514487,0.0456871,0.0126157,-0.0063029,0.00125601,-0.00547613,-0.0371504,-0.0130121,-0.0193318,-0.0380919,-0.00528616,0.00767878,-0.0525112,-0.00622718,0.00696231,-0.0348744,-0.0223414,-0.0378591,-0.00146937,0.0315941,-0.0189361,-0.0163612,-0.0142976,-0.060756,-0.0740969,-0.0440569,0.022271,-0.0251514,-0.0468883,0.0088929,-0.0285617,-0.0289963,0.0282239,-0.0070475,0.0152077,0.0392408,0.0067204,-0.0509298,0.0172089,0.0224581,-0.0212732,0.0723877,0.0616073,0.00277962,0.0250392,-0.0079566,0.0546207,0.0311284,0.0309696,-0.0435862,-0.0167238,0.00523584,-0.00692989,0.0412227,-0.0548535,-0.0367537,0.0225659,-0.0478464,-0.0449566,0.0690386,0.00422396,-0.0463717,0.103697,0.0414052,-0.0585694,-0.0531059,0.0394351,-0.0181107,-0.0233836,0.0694652,0.00660934,-0.00649066,0.00672381,-0.00273485,0.0155462,0.0333029,0.0035308,-0.0233875,0.0371542,-0.0219654,-0.119904,-0.0874148,0.068558,-0.00811149,0.0200177,0.0479697,0.00846525,0.0109484,0.10217,0.00479689,0.0111935,0.0735545,0.0460379,0.0202648,0.0872992,0.0524653,0.0643965,0.0345643,0.0467204,0.0700011,0.0189568,0.0551837,0.0177197,0.0106803,-0.0249312,0.0123336,-0.00825274,-0.013516,0.0404252,0.0117759,0.0564997,0.0234596,0.0293228,-0.0165343,-0.0501728,0.0588253,-0.011991,0.0088773,-0.0320175,-0.039583,0.0421416,0.0788894,0.074572,0.0440632,-0.00269478,-0.0463584,0.0241103,0.00564122,-0.0211679,0.018894,0.00114426,-0.0141189,-0.024454,0.00498519,-0.0457723
4,0.00715125,0.0112164,0.00614571,-0.0940792,-0.0402103,0.0055049,-0.0430814,0.00353568,-0.0164091,-0.0143813,0.0398129,0.0307076,0.010416,-0.0241971,0.0239632,0.0474885,-0.0190365,0.000548049,-0.0696075,-0.0020947,0.0129392,0.000577284,-0.0113522,0.0255775,-0.00644277,0.0101511,-0.00704194,0.0156429,-0.0130197,-0.00219053,0.0307907,0.00283098,0.0238829,-0.0133528,-0.000300913,0.0613794,0.0517791,0.0114612,-0.0150311,0.0371908,0.0447159,0.0387721,0.0245801,0.0529681,0.0165642,0.0281062,0.0617051,0.0407436,0.00066318,0.02258,0.0126734,0.00623704,0.0246676,-0.0234494,-0.0058889,0.000689978,0.00290613,-0.0210193,0.00895749,0.0444611,-0.0337762,-0.0463452,-0.013093,0.00758582,-0.00407929,0.0714218,-0.0135526,-0.0209725,-0.010339,-0.0226428,-0.0404494,0.00643578,-0.0318518,-0.0526294,-0.0106932,-0.00887995,-0.0120169,-0.00426113,-0.0171868,-0.0398394,0.0280132,0.0382256,0.0382978,0.0370429,0.0497125,-0.0498622,0.0260146,0.0219338,-0.0284019,0.018415,0.00213701,-0.0819133,-0.0675679,-0.0320653,-0.00368296,0.0323671,0.0385367,0.00631694,0.0153683,0.0326834,0.00707665,0.0335164,0.00213754,0.000248909,-0.0243398,0.0212563,-0.0186965,-0.0749829,-0.0637553,-0.0430455,0.0174484,0.00994926,-0.0268701,0.0195829,-0.0183321,0.0289709,-0.0462188,-0.0371172,-0.0048492,-0.00591344,-0.0409805,-0.0167361,0.000859292,-0.0051109,-0.0221005,-0.0307907,-0.0500175,0.0111179,0.0134964,0.00411122,-0.0305274,-0.0491745,-0.0849447,-0.0438232,-0.0527271,-0.0158251,-0.0166735,-0.015619,0.013402,-0.0141597,0.00910244,0.0368074,-0.0416874,-0.0255798,-0.0404842,-0.00355101,-0.0256399,-0.0446902,0.00894091,-0.0387423,-0.0101737,-0.0949813,0.0198156,-0.0368304,-0.0387834,0.0465865,-0.00562118,-0.0629629,0.00525401,-0.0036397,-0.053952,-0.0183668,-0.0359692,-0.0240498,-0.0176416,0.051042,0.0341323,0.0256642,-0.073182,-0.0738702,-0.0276278,-0.0141265,-0.02222,-0.00978208,0.00573301,0.00694683,0.0198838,0.0331739,0.0174575,0.0138978,0.0413933,0.0219177,0.0186147,-0.00892152,-0.0386615,-0.0405469,0.0431397,-0.0203106,0.00295841,-0.0509796,0.0361752,0.0735899,0.0525412,-0.0227557,0.0526192,0.0493914,0.0785489,0.0387073,0.00956201,0.01395,-0.00903704,0.0330431,0.0215932,0.0278372,-0.00965918,0.0255855,0.0254788,0.001103,0.0139137,-0.00979194,-0.018039,-0.0600209,0.0343336,-0.00652265,-0.0715579,0.017289,-0.00765449,0.0539399,0.0690205,-0.014849,-0.00704998,-0.00634621,-0.0168963,-0.0266752,-0.0423847,0.00795425,-0.0454766,-0.0131607,0.00772645,-0.00576292,-0.0149226,-0.0125198,-0.0635389,-0.0122287,0.00371913,-0.0417458,-0.0153224,0.000563446,-0.0350591,0.0295703,0.00509555,-0.052652,-0.0458444,-0.0334939,0.00030574,-0.0261595,0.0070756,0.0153788,0.017864,0.0171145,0.0622744,-0.0209749,0.0111972,0.0486739,-0.0216506,-0.0260716,-0.0689934,-0.0505641,0.0457134,0.0225323,0.0186924,0.0981055,-0.0196194,-0.0040675,0.0136027,-0.00418417,0.0218127,-0.0268087,0.00626579,0.00432416,-0.00643422,-0.0164107,0.0138051,-0.0327884,0.0418369,-0.021521,0.0121018,-0.00439956,0.0520263,0.00157393,-0.00211872,-0.0202671,0.0252759,0.00180593,0.0306264,0.0598878,0.0360834,0.0662869,0.0643593,-0.00726454,0.0222124,0.0328254,0.023913,0.0267512,-0.00362088,0.0530962,0.0148971,-0.00372065,0.0119178,0.0227084,0.00801702,0.00838463,-0.00246126,-0.024838,-0.0126507,-0.00705544,-0.0645024,0.00918707,-0.0135667,0.00989357,-0.0190709,-0.0343153,-0.0693188,0.0343654,0.0867668,0.00497655,-0.00726743,0.0147124,0.00250408,-0.0216857,-0.00500896,-0.0276272,0.0216508,0.0250746,0.0166241,-0.0667319,0.0253907,-0.0466973,0.0206026,0.0367298,-0.042896,0.0181065,-0.0408189,-0.0557066,-0.0123912,0.00668714,0.02051,0.0188164,0.0640643,0.0786928,-0.00094631,0.0242928,-0.0321302,-0.0227575,0.00949769,-0.0351727,0.0151011,-0.0664347,-0.0290253,-0.0565845,-0.00747917,-0.014624,0.00267355,-0.0706052,-0.0406856,0.0445227,0.0105773,0.0474671,-0.0155615,-0.0198273,0.0138463,-0.0101375,-0.0210983,0.0347796,0.0244381,0.067143,0.0217812,0.0433861,0.0160456,-0.00089764,0.00397272,-0.00793437,-0.0159169,-0.0164039,-0.0228007,-0.0499314,-0.00113229,-0.0294365,-0.00520851,-0.0316187,0.0155142,0.0644865,0.00481125,-0.00545827,0.00607825,-0.0260108,0.0637182,-0.011991,-0.0261631,-0.00755705,-0.0353083,0.00421324,-0.00777023,-0.0114834,-0.0112751,0.0754813,-0.0269368,0.000326322,-0.0289204,-0.0412513,-0.0121078,-0.0874063,0.0243321,-0.0277016,0.0257748,-0.0884552,-0.0443266,0.00427943,-0.0304069,-0.0301749,-0.0741429,-0.0114988,0.00955761,0.00464836,-0.0598261,-0.0760521,0.0726323,0.0047184,-0.00244453,0.00763534,-0.0315171,-0.0157538,-0.00921884,-0.0242897,0.0182454,0.0293517,-0.063348,0.0141751,-0.0318726,-0.0617463,-0.0651466,-0.0161443,-0.0315588,-0.0289121,0.099084,-0.00498354,-0.0222718,-0.0164651,7.6144e-05,0.00842206,0.0186756,0.0037474,0.0765576,0.0639403,0.041217,-0.013576,0.012443,0.0476697,-0.0122271,0.0310119,0.065732,0.0193732,0.0511469,0.00778897,-0.0103761,0.0180571,0.0439094,0.0245687,-0.0309625,0.00641293,0.0216495,0.125769,0.0269219,0.0777326,0.0453406,0.0153295,-0.0102144,0.013859,0.0811914,0.0144284,0.00742124,0.0568917,0.0324556,0.0883751,0.014534,0.0119786,-0.0170048,0.0647526,0.0835669,-0.0662528,0.0097965,-0.0109646,0.0420408,0.0130832,-0.0551528,0.0264675,0.0311211,0.038795,0.0018519,0.0150651,0.03242,0.0352156,-0.0111134,-0.0721091,0.0363727,0.0247733,-0.0322579,0.0361509,-0.0255093,0.00781809
5,0.0204882,0.0164187,0.0111665,-0.0745446,-0.0177142,0.00394242,-0.0731208,-0.0364909,-0.0649103,-0.0690931,-0.00181787,-0.0124263,0.0342082,0.00679467,0.0725774,0.039799,0.0273261,0.00390222,-0.0688838,-0.0384549,-0.00856437,-0.0169758,-0.0124178,-0.00900116,0.0118283,-0.00700663,0.00832966,-0.0409046,-0.0374595,-0.04008,0.0213093,-0.0210875,0.0180197,-0.0387656,0.0461777,-0.0278298,0.0255221,0.0244071,0.0135306,-0.00287496,-0.0100771,0.0186437,0.0240822,0.0785639,-0.00408269,0.0135269,0.0152859,0.0271005,-0.0121413,0.0748239,0.0349411,0.0594097,0.0147498,-0.0414733,-0.0331424,0.0111534,-0.00601739,-0.0228673,0.0277689,0.0369681,-0.0308031,0.0103971,0.0559983,0.0349135,0.0085048,0.0335397,0.0037744,0.0295497,0.0371824,-0.017226,-0.0388501,0.0438575,-0.0159613,0.011597,0.0315283,-0.00595602,-0.0572655,-0.0335517,-0.0861533,0.0237245,-0.00695964,-0.0135579,0.0172692,-0.0233278,-0.0312381,-0.020744,0.0118773,-0.0249273,-0.04009,-0.0134251,-0.0315431,-0.0493831,-0.027583,-0.0310548,-0.00939618,-0.0516699,0.0481861,0.0462248,0.0308215,0.0483098,-0.0378042,-0.00114042,0.00450272,-0.00777038,-0.0439617,-0.00913878,-0.0755028,-0.0426258,0.0174762,-0.0958659,-0.0563828,-0.00497852,-0.00151489,0.0348683,0.0241369,-0.0442772,-0.0116066,0.0103206,0.021762,-0.00893792,0.0253047,0.025773,0.10621,0.0483025,0.0683057,0.00592267,-0.0235104,-0.00426648,0.0087486,-0.0240519,0.00232207,0.016373,-0.0245543,-0.0560482,-0.0672933,-0.0327249,0.0152709,0.0276423,-0.00269261,-0.023708,-0.0181478,-0.0133914,0.00797252,0.0288337,-0.0528783,0.0268005,-0.0160049,-0.00631657,-0.0257898,-0.0858823,-0.044309,-0.0286293,0.0174427,-0.0524906,-0.0741231,0.00603481,-0.0188794,-0.0518507,-0.0131929,-0.0117904,-0.0469607,-0.0555743,-0.103872,-0.048073,-0.0150442,0.0302894,0.0154256,-0.0109078,-0.0756161,-0.0453444,-0.0476465,-0.0232835,-0.0309952,0.00303257,-0.0163992,-0.0256515,0.00627947,-0.0277282,-0.0189755,-0.0184141,-0.0195849,-0.0213639,-0.00692146,-0.00879714,-0.00408142,0.00473499,-0.0148245,-0.00664696,-0.0231979,-0.00525459,-0.0416704,0.0167504,-0.058513,-0.0513159,-0.0147971,0.0363359,0.046387,0.0325744,-0.0276333,0.0175325,0.02828,0.0258718,0.0156936,-0.0328346,-0.0793095,0.0405241,0.00799235,-0.0579064,0.0499931,0.0249021,0.0160848,0.0436148,0.0989002,-0.0191576,-0.0426467,0.0383528,-0.00276637,0.00181231,0.0113921,-0.00104593,0.00696188,-0.0511245,0.0669123,-0.0160441,-0.0137607,-0.0477376,0.00140316,0.0288836,0.0164716,0.0350013,0.0465589,0.0442913,-0.0421231,0.0235235,0.0261222,0.00822032,0.0133352,0.0196711,-0.00149055,0.00970245,0.00957588,-0.0470801,-0.0270475,-0.0196625,-0.00328763,-0.0214685,0.00204926,-0.0191052,0.0182659,-0.00661447,-0.0229019,-0.0047069,-0.0111664,0.0323645,0.0608803,0.0284595,-0.0386964,0.0249881,-0.0443529,0.0197543,-0.0318334,0.0352549,0.0353753,-0.0100803,0.00603225,0.0261508,0.0199748,-0.0196228,-0.0408129,0.0294824,-0.0326589,-0.00974535,0.0132769,-0.0460471,0.0145289,-0.0180973,-0.00693524,-0.000306204,0.0167636,-0.00717073,-0.017137,0.00249617,0.0155312,-0.0337935,0.0138172,0.0326237,-0.00711768,0.018378,-0.0308448,-0.0618955,0.0524283,0.0307315,-0.00423537,0.0114943,-0.0469535,0.0204888,-0.0334821,-0.0337667,-0.00370075,-0.019755,-0.036876,-0.00788856,-0.021309,0.0158364,0.0249951,0.0218796,0.0155203,-0.0195909,-0.0221294,-0.0154587,-0.0342343,-0.0254287,0.000551954,0.0225019,0.029485,-0.0404892,0.0082912,-0.0168652,-0.0405477,-0.0663018,0.0218359,0.0305238,0.00143432,-0.0210042,-0.0275325,-0.089932,0.00714999,-0.0186191,0.0218824,-0.038694,0.0299984,0.0282076,0.00692255,0.0223957,0.0113659,0.020287,0.0133379,0.00996564,0.0303591,0.0604207,0.0372604,0.0279612,0.00550375,0.0432336,0.075944,-0.00931027,-0.0261954,-0.0382023,-0.0424391,-0.0388801,0.020164,0.0526601,-0.0529156,-0.0642981,-0.0258747,-0.00556699,-0.0300258,-0.00743283,-0.00603155,-0.00431764,0.0298137,0.00231524,0.00722965,0.0136627,0.0294492,0.00542081,-0.00640307,0.0327459,0.0132316,0.0259059,0.0469717,0.00606495,0.0230786,0.0410533,-0.0069171,-0.0172583,-0.0631626,0.0120962,0.0228319,-0.00475512,0.0576229,0.074475,-0.0245388,-0.00431204,-0.0275658,0.024371,0.0209556,-0.0178665,-0.01607,0.0482343,-0.0373042,-0.039112,0.0206861,-0.0071627,-0.0277911,0.017859,-0.0352022,0.0717219,0.0936126,0.0338171,0.0226338,0.0107788,0.0077191,-0.0385782,-0.0244075,-0.0415412,-0.0784976,-0.0714741,0.00265605,0.0150663,0.0334412,0.0390055,-0.0253958,0.035558,-0.0395466,-0.0248806,0.094578,0.0169883,-0.00287669,-0.0425964,0.0525527,0.0146566,0.0735443,0.0300738,0.0111615,-0.057704,-0.0497878,0.0132455,0.0654334,0.0253757,-0.0338385,-0.0283194,-0.00257805,-0.0065296,-0.0281412,-0.004922,0.00112263,-0.0163312,-0.0118236,0.0296189,0.0446018,-0.0531553,0.0717384,0.0191695,0.0176637,0.023932,0.027693,0.0305006,-0.045847,-0.0521536,0.0455346,0.0255384,-0.0445866,-0.0484782,0.0133715,-0.0237925,0.0342028,0.0294418,-0.0823429,0.0150853,-0.0401269,0.0448147,0.0295097,0.0430693,0.0789545,0.036015,-0.0401526,-0.0144999,0.00604803,-0.0224489,0.0153436,-0.0106467,-0.0166487,0.030869,0.028017,0.0254045,-0.0365752,0.0281827,-0.0102683,0.00724194,-0.00167973,0.00597709,-0.0217569,0.0136664,0.000635016,-0.0112075,-0.0165044,0.0449946,-0.0184822,0.0159454,-0.058427,-0.00611768,0.0145618,-0.00448434,0.0186497,0.0461212,0.0183094,0.0357156,0.00996805,0.0639129
6,0.0224607,-0.032821,-0.0243184,0.0413237,0.0165641,0.0371226,-0.0176758,-0.0346555,-0.0611629,0.0020155,0.00350752,-0.0690026,0.0334317,0.0755054,0.0380042,-0.00105834,-0.0257631,-0.0387648,-0.0901622,-0.0660797,-0.0382427,-0.0495634,-0.0697703,-0.0237761,-3.98768e-05,-0.0311402,-0.00429127,-0.0557566,-0.0199735,-0.0736779,-0.0144642,-0.00960851,0.0668246,-0.025819,0.0123037,-0.030375,-0.012176,-0.00735712,-0.011768,-0.0417104,-0.016256,-0.00228775,-0.00147555,-0.00522523,-0.020267,-0.0240806,-0.0237722,0.0189705,0.0225883,0.00278759,0.0313975,0.0242842,-0.0227684,-0.0147253,-0.00459332,0.0583785,0.0309668,-0.0356685,0.0292789,0.0494972,0.00386684,0.00141811,-0.0044776,0.0292758,-0.000223345,0.0330551,0.0320705,0.0715999,0.0538829,0.0274995,0.00583772,0.0146248,0.0406875,0.0402666,0.0195997,0.0136263,-0.002243,-0.0664411,-0.0156179,0.0200174,-0.00165869,-0.00805971,-0.0111395,-0.0697073,-0.0297933,0.0769056,0.0812715,0.0154107,0.00568246,-0.0273559,-0.0468819,0.0386536,0.0641114,0.0433859,0.0130674,-0.0653153,0.0481279,0.0728453,0.014985,0.0645186,-0.0544418,-0.0579218,0.00831021,-0.00222063,-0.0559054,-0.0491409,-0.0326868,-0.0221941,-0.0114768,0.0048763,-0.0748719,-0.000240097,0.0853851,0.00364988,0.0220728,-0.0400392,-0.0250646,-0.0142404,-0.0159808,-0.00105637,0.0560765,-0.00102336,0.0547178,0.0367282,0.072831,0.0279703,0.0103252,0.0289581,0.00570575,-0.00913484,-0.00088767,0.00209108,0.0137628,0.0143864,-0.0374672,-0.0364112,0.0162344,0.0358394,0.0463192,-0.00379634,-0.0137157,-0.0294118,0.00921501,-0.0107882,-0.00615229,0.0103999,0.00689262,0.0276678,-0.00166435,-0.0633976,-0.058164,0.0115615,0.0433446,-0.0391822,-0.0330792,0.0207482,0.00743344,-0.0145851,-0.00582683,-0.0168701,0.0429878,-0.0378399,-0.0792414,-0.0115925,0.0361797,0.0186093,0.046044,-0.0215289,0.00977075,-0.0187244,-0.0135268,-0.0191483,0.0520856,0.0389198,0.0279786,0.0368373,-0.0371148,-0.00488878,0.0230556,0.0255609,0.00840276,-0.0195061,0.0158514,0.0134711,0.011096,0.00847853,0.0358357,-0.0230826,-0.0493215,0.0177947,0.0139292,-0.0559267,-0.0729119,-0.0078528,-0.0439836,-0.0260546,-0.0305037,-0.0392595,-0.0225642,0.035993,0.0211457,-0.0211597,-0.00577852,-0.036731,-0.0747083,-0.00507011,-0.0368002,-0.0373308,0.0290699,-0.000104196,-0.0191435,0.0492,0.0525461,0.0154963,0.0138999,0.0252317,0.0412222,-0.014713,-0.00650276,0.000679258,0.000474521,-0.0189506,0.0287974,-0.00472464,0.00756504,-0.046917,-0.0121963,0.0307235,0.0194693,0.0295468,0.0404973,0.0165331,-0.000643154,-0.0040768,0.0227484,-0.0446758,0.0234021,0.0056151,-0.00376569,-0.028814,0.0213471,-0.0186448,-0.016143,0.0498486,-0.00460026,-0.0184394,0.00650333,-0.0263533,-0.00638497,-0.0230606,-0.0495259,-0.0397242,-0.00353581,0.0139232,-0.0037774,-0.00665416,-0.0125508,-0.014219,-0.0597065,0.0051172,-0.0378994,-0.0340868,0.00162984,-0.0139777,-0.0136482,-0.0373998,-0.0190326,-0.0205084,-0.041588,0.0047662,-0.0140145,-0.0101631,-0.0018108,-0.0832478,-0.0129202,-0.0371391,-0.0207134,-0.00557081,0.0140991,-0.0386285,-0.0603589,-0.00743337,0.00189364,-0.0555125,0.00600208,0.0189642,-0.0196418,-0.0134846,-0.0292542,-0.0465543,-0.00124588,-0.0278221,-0.0475056,-0.032607,-0.0326985,-0.0349515,-0.0362928,-0.0114222,-0.0165944,-0.0227547,-0.00355969,-0.0041416,-0.0269946,0.0303741,0.00690857,0.013262,-0.0088432,0.00722543,-0.0179695,0.00830863,-0.0373402,0.00412938,-0.00520674,-0.00804064,0.0126513,-0.0304135,0.0104921,-0.0151395,-0.0262164,-0.0229808,0.0105327,0.0164509,-0.00677126,-0.00784125,-0.0234142,-0.0556182,-0.00517857,-0.0563469,0.0667468,0.0441641,0.0343483,0.0515982,0.0558711,0.0370139,-0.0166187,-0.0149069,-0.0140806,0.0271979,0.0607122,0.0413213,0.026621,-0.00108601,-0.0247196,0.0447514,0.0409913,0.012004,-0.0758455,-0.0627456,-0.0444312,-0.033892,0.00916732,0.0344021,-0.015351,-0.0279807,0.0249288,0.00615722,-0.0189008,-0.0487649,-0.020487,0.00805752,0.00569304,0.0172848,0.00949062,0.0357699,0.0175905,0.00641009,0.00571381,0.0154285,0.0235085,0.0470524,0.0303095,0.0136471,0.0279807,0.0309253,0.0225082,-0.0575689,-0.0820868,0.00242199,-0.0191449,0.0294189,0.0699255,0.0168667,-0.00429757,-0.024363,-0.014108,0.0436882,0.0030195,-0.0294536,0.00747074,0.0304837,-0.0126144,-0.000205537,0.0450698,-0.0273889,-0.055257,0.00386244,-0.0607687,-0.0111431,0.0342732,0.0538489,0.0235227,0.00433837,0.00820763,0.00345651,0.0140116,0.00493605,-0.0541409,-0.0146265,0.0441321,0.0187799,0.0381631,-0.00447584,-0.000371492,0.022476,-0.0171327,-0.0335305,0.0876621,0.00227873,0.00735342,0.0182835,0.0976791,0.0882336,0.0788728,0.111014,-0.0192042,-0.054901,-0.075584,-0.0373224,0.0129265,0.0383906,0.0172623,-0.021945,0.0121672,0.0069871,-0.048781,0.0232386,0.0166654,0.0290448,-0.0158449,0.000143618,0.0174143,-0.00438857,-0.00306929,0.0128162,0.00465551,-0.0406324,0.0139292,0.0366778,-0.0601582,0.0205917,0.0179567,-0.0565286,-0.0322073,0.077139,0.0158833,0.00425785,0.0217048,-0.0170197,0.0377417,-0.0273929,-0.0134151,0.0163608,-0.0454723,-0.0207587,0.0917832,0.0440104,0.0141659,-0.0168345,-0.0121491,-0.00449822,0.00202765,-0.0105009,-0.00364401,-0.0661146,0.0133317,-0.0280879,-0.00407148,0.0253872,-0.00615427,0.0338026,0.0123656,0.0141336,-0.0323973,-0.046104,-0.0572934,-0.0336449,-0.0359071,0.0202543,0.0377631,0.0242643,-0.0347157,-0.0314118,0.0223762,-0.0270043,-0.0142785,0.01357,0.0267543,0.0147972,0.0376411,0.021863
7,0.00253229,-0.0489285,-0.0235658,0.017472,0.00947581,0.0194828,-0.0247235,-0.0510788,-0.0281625,-0.027566,0.0184442,-0.0372812,0.0514955,0.0416998,0.0299586,-0.0106067,0.000169214,-0.0193186,-0.0518508,-0.022861,-0.0289031,-0.0174342,-0.0480042,-0.0219075,-0.0386293,-0.0408184,-0.052592,-0.0325656,-0.0281494,-0.0498357,-0.0182493,0.00495814,0.0372607,0.00860788,-0.00468351,0.0240871,-0.0134485,-0.0264619,-0.0494964,-0.0145071,-0.0260779,0.00131185,0.0127436,-0.0448141,-0.0141598,-0.0468033,-0.0353823,0.0463124,0.0197665,-0.0242189,0.00877379,-0.0159756,-0.0318005,-0.0371302,0.0130536,0.0733958,-0.00996138,-0.0697339,0.00261524,0.00627023,-0.0579803,-0.0298787,-0.0183005,-0.00228656,0.00164968,0.0564709,0.0602562,0.0783633,0.0705663,0.0191768,0.00242248,0.0199723,0.0910583,0.110402,0.0384968,-0.0173984,0.00530151,-0.0414504,0.0419994,0.00596498,-0.0172887,0.00772235,-0.00585487,-0.0487274,-0.0594335,0.105099,0.118943,0.0593767,0.0337541,0.0531036,-0.0304886,0.0900264,0.138586,0.0481886,0.0606128,-0.0122247,0.00699458,0.0617388,0.0186579,0.0159351,-0.00651967,-0.0577307,0.00690824,0.0050233,-0.00450918,-0.0381788,0.0117974,0.0548567,-0.0171697,0.0753719,-0.0282836,0.015249,0.0551699,-0.0179036,0.0220359,0.0157251,0.0214207,-0.0101244,0.0158891,0.0217664,0.0591026,0.0219554,0.00781115,-0.0207182,0.0439012,0.0312546,0.0680433,0.0118273,-0.00437348,0.0163629,-0.00356525,0.0168215,0.0352956,0.0212385,-0.0121843,-0.0224554,0.0279206,0.0846306,0.0623569,-0.0251306,-0.028239,-0.0174242,0.0287488,-0.018522,0.00888075,-0.0665378,0.0473645,0.040043,0.0296053,0.0234796,0.0314604,0.0575646,0.0744208,0.0121343,0.0171515,0.0320621,0.0428895,0.0112936,0.0154243,0.00795177,0.0302202,-0.000720891,0.0168336,0.0398809,0.0111383,0.0311987,0.0480486,0.00385712,0.0696742,0.0069502,-0.0229986,-0.00258712,0.0112567,0.0436891,0.00432322,0.0109035,-0.0400641,0.0126244,-0.0039933,-0.00510859,-0.009716,0.00874277,-0.00386161,0.0211563,-0.00716931,0.0511702,-0.0313052,-0.0141353,-0.0693361,0.0270503,0.0247474,-0.026218,-0.0549248,-0.0191942,-0.0438162,0.0347778,-0.0192137,-0.0415235,-0.0260159,-0.00362377,-0.0160729,-0.068652,0.0283687,-0.0121143,-0.0687439,0.00825714,-0.0060935,-0.0111559,-0.0382913,0.0115018,-0.0355253,-0.0246353,0.0102092,0.0314349,-0.0429264,0.00319985,0.020461,-0.0525014,-0.0467119,-0.0133935,0.0165616,0.000214852,-0.00608757,-0.0159898,0.0276235,-0.0284868,0.0137184,-0.0186397,0.00602783,0.0389861,-4.54002e-05,0.0127379,0.0137658,0.000538038,0.0376373,-0.0154774,0.0389234,0.0455328,0.0129377,0.0666369,0.0570705,0.0128474,-0.028651,-0.00678539,0.0239519,-0.0152578,0.0188135,0.00475755,0.00157936,-0.00463257,-0.0271822,-0.0288898,-0.00584224,0.0167641,0.0261367,0.0118632,-0.0287328,0.00267218,-0.00350972,-0.0117842,-0.0103582,-0.00680011,-0.00926894,-0.0252676,0.0401441,0.0112739,-0.0143449,-0.000619415,-0.0736635,-0.0543532,-0.0288486,-0.00208649,-0.0258682,-0.016227,0.00762857,-0.0245549,-0.0215058,-0.0259859,0.0304424,-0.016123,-0.0369703,-0.0254018,0.0574213,-0.0249604,-0.00530262,0.0127225,-0.0200996,-0.017894,0.00301356,-0.0190559,-0.0143135,-0.00524434,-0.00124909,-0.00565537,-0.0503138,-0.0678573,-0.0402973,-0.0202343,-0.00140964,-0.000252196,0.00946272,0.00360089,-0.0190318,0.0195823,0.0300224,0.0071619,0.0233536,-0.00561988,-0.0130121,-0.00964311,0.00400895,0.0284583,0.0391548,0.0678368,0.0476641,-0.0364263,0.0214769,-0.000542588,-0.000231791,0.00322986,0.0173002,0.00493312,-0.0190114,-0.010304,-0.00588594,-0.0209499,-0.00593116,-0.0231292,0.0756197,0.0447074,0.0122772,0.0407443,0.0152407,0.0215656,-0.0167485,-0.0105333,-0.00722219,0.0395935,0.0790134,0.0339916,0.0070708,-0.0304913,-0.0579465,-0.0147553,0.00735453,0.0145998,-0.00781383,0.0178044,0.000494221,-0.000234975,0.000113833,0.0344072,6.00962e-05,-0.0297133,0.0190724,-0.000252,-0.0103521,0.012448,0.019436,0.0219802,0.00725051,0.0159815,0.0148503,0.0390288,0.0635315,0.0375974,0.0339807,0.0212026,0.0105546,-0.00344579,-2.46521e-05,-0.00893789,-0.00171038,0.0114304,0.0231523,-0.0715174,-0.0232875,0.00405918,-0.0358676,0.0294148,0.0549234,-0.000556494,0.0207711,-0.0329341,-0.0138388,0.0251621,-0.0283095,-0.0417571,-0.0376919,0.00922228,0.0199952,-0.00823051,0.0288279,-0.0251012,-0.0657529,0.0303519,0.0173959,0.00680303,-0.0670798,-0.0351359,-0.0194296,-0.0426087,0.0833175,0.0242468,0.0505203,0.00263039,-0.0220551,0.00312232,0.0363809,0.0274249,-0.0152789,0.00599414,0.0205908,0.0229987,-0.0346315,-0.0453886,0.0343657,-0.000672873,0.000792044,0.093252,0.0783679,0.0110343,0.0325043,0.0158915,0.0396819,0.00772328,-0.00331683,-0.0317351,-0.0519081,-0.0360619,0.0924609,-0.0199507,-0.0246755,-0.00448801,-0.0553655,0.0266985,0.0104589,-0.0419237,0.000600803,0.034675,-0.00777644,0.0130257,0.0461612,-0.00937562,-0.0222088,-0.0141375,-0.0209211,0.0160137,0.00769282,0.0388617,0.0405979,-0.0307563,-0.00379979,0.0429969,0.0153655,-0.0193123,-0.0376476,-0.0274811,-0.0229075,-0.0315191,0.0163392,0.00177354,-0.0899193,-0.0289115,-0.0236641,0.00223708,0.0364255,0.0162837,-0.0249097,-0.0575555,-0.0203609,-0.04619,-0.00189172,-0.00408889,7.83792e-05,-0.0388898,-0.0170038,0.0211008,-0.0401048,-0.037669,-0.0463121,-0.00976651,-0.00192664,-0.0206763,0.0210922,0.0204115,0.0185292,-0.011132,0.0476811,0.0525009,0.0199047,-0.028327,-0.0328787,-0.00176566,-0.0134731,-0.0118911,-0.00870337,-0.0329779,-0.0364108,0.00117034
8,-0.00520617,-0.0462935,-0.0259426,-0.0032338,-0.0265022,-0.00205591,-0.0312929,-0.0190813,0.0141367,-0.0332342,0.0302711,-0.025189,0.000552608,-0.0214506,0.0266867,0.0206321,0.00571155,0.00049845,-0.0588286,-0.0134827,-0.00656247,-0.00709604,-0.00250127,-0.002326,-0.00567918,-0.0131945,-0.00548437,0.00652206,0.0273391,-0.0181918,0.0013281,0.00732068,0.0390355,0.00354661,0.0215626,0.0272072,0.0334317,0.0289937,-0.00173427,-0.0138058,0.00820871,0.0440118,0.0347712,0.0258862,-0.0128423,-0.00482598,0.00206772,0.0121946,-0.00156049,0.019358,-0.0155107,0.017275,-0.0254589,-0.0650117,0.016915,0.0821854,-0.00218098,-0.0703749,0.0121297,0.000140011,-0.0778399,-0.0606799,0.00103713,0.0231645,0.0235223,0.0548021,0.0646896,0.0355187,0.0412368,0.00812675,-0.0120425,0.0321057,-0.00161002,0.0532496,0.0484375,-0.00309625,0.00982602,-0.0357559,0.0254092,0.0298676,-0.00569404,0.0255728,0.04191,0.0591744,0.0273272,0.00647348,0.0910048,0.0401104,-0.00754871,0.0669073,-0.00703971,0.0169488,0.0603663,-0.00131074,0.0251905,-0.0440946,0.0053922,0.0899371,0.0739052,0.0625528,0.011439,0.016147,0.0172747,-0.0202257,0.0246854,0.0425177,-0.0416873,0.0555386,-0.0228697,0.062136,-0.0061189,-0.0102872,0.0336479,-0.00569035,0.0330796,0.0585086,0.0333633,-0.0108314,0.0243626,0.00542493,0.0503348,0.0279125,0.0280075,0.0135766,0.0774261,-0.00832671,-0.00586357,-0.0119865,-0.0164518,0.0184373,-0.0208397,-0.0178839,-0.0333172,0.0108746,-0.000960278,-0.0268253,-0.000122649,0.0495493,0.0151967,-0.0523287,-0.025227,0.0342228,-0.0364523,-0.0405459,0.0130415,0.0177662,0.0351539,0.00293063,-0.0137023,-0.0182234,0.0342069,0.0600745,-0.0187733,-0.050805,-0.0386412,0.0422897,0.0383849,-0.0246361,0.0111277,-0.00583295,0.0304356,0.0136259,-0.0189949,0.0425507,-0.0101264,0.064924,-0.00725824,0.0275367,0.00425569,-0.0018845,-0.0421628,0.00804216,0.00954463,0.00935538,-0.00757546,-0.0185907,-0.0472187,-0.0126257,-0.00778324,-0.0218172,-0.0429441,-0.0111061,0.0287185,0.015907,-0.0230807,0.034902,-0.0895226,-0.0498908,-0.0334864,-0.0300854,0.0296343,-0.0233225,-0.0216261,0.00466765,-0.0366173,0.0142811,0.00119521,-0.00203654,-0.00710826,-0.0436917,-0.0289374,-0.00935717,-0.0208947,0.0126188,-0.0366295,-0.00421488,-0.00333842,-0.00817587,-0.0443075,-0.00169915,-0.0132348,-0.0269657,0.0690355,0.0376352,-0.0253854,0.0411118,0.0234744,-0.0659492,-0.0125851,0.0500521,0.0777851,-0.0211646,0.0436761,-0.00553969,0.0294212,-0.0340556,0.00347262,0.00556294,0.00691064,0.0473267,0.0630832,0.0326568,0.0684281,0.027307,0.00778264,-0.0218197,-0.0195889,-0.00158151,0.00767948,0.0442964,0.0195427,0.023109,0.00553913,-0.0274863,0.0365025,-0.00385779,0.0369586,0.0294492,0.0522322,0.0346958,0.0844233,0.046319,-0.0224082,0.00430242,0.0509795,0.0026114,-0.00925245,0.0390253,-0.0301036,-0.00431846,-0.0181549,-0.0311096,-0.0496942,-0.017323,-0.000375432,0.0495261,0.014021,-0.0203116,-0.0991922,-0.067914,-0.0456083,0.0218664,0.0185783,-0.0702142,-0.0557268,0.0215028,-0.0282918,-0.0110803,0.035125,-0.00942884,0.00489794,-0.0344287,0.0199001,0.00449079,-0.00818297,0.012832,0.00697934,0.00879231,0.0241639,-0.0302117,0.0836415,-0.0177327,0.00150146,0.0314518,-0.0226089,-0.0303341,-0.00995807,-0.0211672,-0.000117528,0.00456862,-0.0324734,0.0216714,-0.0134865,-0.0157539,-0.0133635,-0.0177098,0.00392338,-0.000390947,-0.0285688,-0.0253604,0.023585,-0.0256255,-0.0322592,0.0358504,0.0853694,-0.0199757,-0.0160785,-0.0324895,-0.026103,-0.0252949,0.0540176,0.0248225,-0.0231641,-0.0200611,0.0097531,-0.00656065,0.0678741,-0.030388,0.0651642,0.074295,-0.00221153,0.0392928,-0.0112423,0.00824699,-0.0245013,-0.000192891,0.0368228,0.0316725,0.0330577,0.0480311,0.0551903,0.0398315,-0.0219869,-0.0314711,-0.014932,-0.0390978,0.00341192,0.0251459,-0.0260142,-0.0811819,-0.0158086,0.00388904,-0.0847644,-0.0533993,-0.0532464,-0.017065,-0.000550357,0.0264844,0.025632,-0.0256124,0.0351616,0.0231814,-0.0252491,0.000538321,-0.0131177,0.00919421,0.0177661,-0.0188347,-0.0273403,-0.0433137,-0.0152637,-0.014989,-0.0338422,-0.000517927,0.00378218,-0.110634,-0.0642863,0.0383033,0.0326472,0.0140993,0.0235114,0.0166963,0.0199876,-0.00426898,0.0245289,0.0312606,-0.00239872,0.00137251,0.00781502,-0.02388,-0.00285906,0.00988098,0.0344321,0.00972804,-0.0422947,0.0529434,0.0178675,-0.0462942,-0.0877739,0.0361766,0.00509894,-0.0547217,0.00433921,-0.0252695,5.79471e-06,-0.0756408,-0.0657926,-0.00163947,0.0663349,0.0616589,-0.0477985,0.0207335,0.0112838,0.0469522,-0.0269602,-0.0970082,0.0316728,-0.0141945,-0.0590523,0.0565277,-0.00660918,-0.00781945,-0.018444,0.028903,0.111371,0.0476977,0.00501153,0.0117118,0.00156496,-0.0750334,0.0961745,0.0427507,-0.00780699,0.0018516,-0.0230519,0.0148415,0.0089073,0.0221477,0.0673642,-0.0114502,0.0345081,0.0240422,0.00324457,-0.00846757,-0.0043946,-0.00907108,0.0191182,0.0469522,0.0245674,0.00176619,-0.0131671,-0.0123021,-0.0222722,0.0416075,-0.00236974,-0.106552,0.00595241,-0.0193932,-0.0455199,-0.0713224,-0.0194524,-0.0271284,-0.066587,0.00780974,-0.0189054,0.00867048,0.031962,0.0260961,-0.00998526,-0.0446487,-0.0534581,8.34896e-05,-0.0322135,-0.0440851,0.043019,-0.00943009,-0.028367,0.0284724,-0.0336688,-0.0495198,-0.0228826,0.00510341,-0.0528248,-0.0383038,-0.0760098,-0.0570131,-0.0448248,-0.0218368,0.00388807,0.0142511,0.0447133,-0.00957647,-0.0215581,-0.00807421,0.0305032,0.0137901,0.0372977,0.0289507,0.0394379,0.0275703
9,0.0783069,-0.00840921,0.0480644,0.0429373,0.0355887,0.0263503,-0.0261556,-0.00796878,-0.00980564,-0.0141778,0.0231016,-0.0110845,-0.0146594,0.0144192,0.019107,0.0171373,-0.0185048,-0.0131099,-0.0568283,-0.0428073,-0.0199157,-0.0103187,0.000486648,0.0398448,0.0409543,-0.0152005,0.0325552,0.00193879,0.0292237,0.00129312,0.0342587,0.0293215,0.0732306,-0.018345,0.0221094,0.0633435,0.028565,0.0107487,-0.0145105,-0.030991,-0.0160455,0.0128405,0.0393412,0.0530107,-0.0205532,-0.0256011,-0.00972246,0.0226527,0.0338587,0.00940758,-0.00623982,0.0224247,-0.0333951,-0.0306319,-0.00890824,0.0504377,-0.0316802,-0.0802013,0.0212715,0.0378186,-0.0553889,-0.0109428,-0.00767957,0.0424509,0.0300178,-0.0116108,0.0585782,0.0528914,0.0436504,0.0135255,-0.00375828,-0.0208539,-0.0356136,0.00144231,0.0368762,0.0240399,-0.0192325,-0.0855162,-0.0499976,0.0147368,0.0224433,0.0339072,0.0177945,0.0171351,-0.0169493,0.0167786,0.0590849,0.0227599,0.00855153,0.058547,-0.0377298,-0.00347411,0.0509673,-0.00975914,0.0209324,-0.0718142,0.0117741,0.0959802,0.0228545,0.0358072,-0.00740867,-0.0209293,0.0280551,0.0500277,-0.00108894,0.0150843,-0.0556179,0.0405165,-0.0212047,0.0406552,-0.015018,-0.0275725,0.022747,0.00160641,0.0082911,-0.0125831,-0.01313,-0.0218953,-0.0203476,-0.00632606,0.0452741,0.0052221,0.0685195,0.0347869,0.0715537,-0.00350112,-0.0366145,-0.00286115,0.0235695,0.00720891,-0.0124141,0.00381139,-0.0300812,-0.0321348,-0.0336336,-0.000671914,0.00587357,-0.00960254,-0.0376074,-0.0108901,-0.00465352,0.01119,-0.00908322,-0.0209165,-0.0427368,0.0437646,-0.0035787,-0.00781717,-0.0517306,-0.0497594,0.0426779,0.055913,-0.0249736,-0.0441503,-0.0353584,0.0238078,0.0369008,-0.00195958,0.0255055,0.0153708,-0.0550102,-0.0109074,-0.0301692,0.00247332,0.0148283,0.0826017,0.00937165,0.0254893,-0.0242946,-0.0157877,-0.0999019,-0.0135522,-0.0165209,0.0177989,-0.0222126,-0.0321049,-0.0321061,-0.0253787,-0.00727785,0.015325,-0.00161619,-0.00978882,0.00730507,0.0224594,-0.00524319,0.057377,0.0290436,0.00910003,-0.0305411,-8.67655e-05,0.0535025,-0.0408577,-0.0638829,-0.0225703,-0.0457857,-0.0437179,-0.0191031,-0.00857062,-0.0115628,0.0116798,-0.00838798,0.00366475,-0.0643612,-0.0267651,-0.0362967,-0.021082,0.0267649,0.0139762,0.0210536,0.00575376,0.0217718,0.0256513,0.0220604,0.0058531,0.0300567,0.0399016,0.0359325,-0.0137933,-0.0355864,-0.0438448,-0.000197997,0.00789796,0.0162362,-0.00195589,-0.0154489,-0.0165785,-0.00111134,0.0244127,-0.00315586,0.0403366,0.00767178,-0.00683528,0.0374459,0.0263264,-7.56947e-06,-0.0435086,0.00655487,0.0589458,0.0399504,-0.0143532,-0.022531,-0.0184481,0.00488587,0.0428432,-0.00259733,-0.0167071,0.0167365,0.0273693,0.0392543,0.0187114,-0.0417936,-0.00851014,-0.0300977,-0.0509489,0.0126103,-0.047017,0.0251593,0.0439364,-0.0329851,-0.00534164,-0.0158557,-0.0445701,-0.0525539,-0.00982753,-0.0268065,0.0614968,0.00315692,0.0165405,0.00862155,-0.0215896,-0.00650781,0.015248,0.00236282,-0.0424903,-0.0725833,-0.00896386,-0.0190488,-0.0319658,0.0219074,-0.0109814,-0.0188395,-0.0356588,0.00990644,-0.0065291,0.00498919,0.0294967,0.0122188,0.0116537,0.0071325,-0.0380702,-0.0234083,-0.0276741,-0.0187216,0.015991,-0.0328951,-0.0254777,-0.035006,-0.0411299,-0.00451462,0.0226125,0.0238493,0.0210162,-0.0453086,-0.02905,-0.0248866,-0.0012091,-0.0150203,0.0460844,-0.0251275,-0.0244476,0.025569,-0.00965861,0.00516282,0.0319311,0.0588297,0.0168588,-0.0378526,-0.0444877,-0.0215922,-0.0187593,0.00806597,0.0256305,-0.0201675,-0.0346339,-0.0549264,-0.0663407,0.00664979,-0.0538576,0.0443948,0.0328284,0.0268918,0.0462249,-0.00103703,0.00113792,-0.0337308,-0.00279997,0.0340044,0.000713583,0.0223973,0.00117356,-0.0325972,0.022938,-0.00814865,0.0802691,0.0418487,-0.00262583,0.026683,0.0480035,0.0193725,-0.00299582,0.0124139,0.0290718,-0.0668883,-0.028408,-0.0459403,-0.0185168,0.0080979,-0.00589036,0.00716245,-0.0196279,0.0158529,0.00536487,-0.0200237,0.0491626,-0.00379176,0.0126465,0.0340851,-0.00716118,-0.0158295,-0.0145441,-0.0204587,-0.0196821,-0.0248179,0.000783379,-0.00206679,-0.073968,-0.0643161,0.0439329,0.0993974,0.067816,-0.000947149,-0.0390083,0.0281929,0.0220752,0.0177281,0.0466275,0.0321833,0.0169899,-0.00206471,-0.0167064,-0.0101887,-0.0476929,0.0550153,0.00638133,-0.0809667,0.0292756,-0.0254791,-0.0554574,0.00203141,0.0696803,0.0305407,-0.0397247,-0.0523699,-0.0351123,-0.0200569,-0.0247013,-0.0464812,-0.0128184,0.0590667,0.0580574,0.024442,0.00759669,0.0544308,0.0197187,-0.0195888,-0.0815606,-0.0134663,-0.0425703,0.00610596,-0.0957529,-0.0143491,-0.00106786,-0.00380656,-0.0120583,0.0880823,0.0601916,0.0394557,0.0266242,-0.00288703,-0.104543,0.0586099,-0.00692087,-0.0194462,-0.00390886,-0.0402913,0.054959,0.033248,0.0136651,-0.00198938,-0.0446408,-0.0148884,-0.0677629,0.0335973,-0.0388618,-0.0574821,-0.0410189,-0.0422201,0.0423981,0.0122054,0.0362554,-0.027306,0.00256807,0.0287619,0.0292205,0.10052,-0.0231716,0.0242172,-0.00822012,0.00719007,-0.0266348,0.0158378,-0.00740804,-9.79986e-05,-0.0318632,-0.00298688,0.0340686,0.0758362,0.0262647,-0.0221525,-0.0215365,-0.0399712,-0.0120244,-0.0246706,-0.0692217,-0.000232778,0.0125168,-0.0326652,0.0203722,-0.0125986,-0.0558583,0.0437406,0.00412096,-0.0164403,-0.00115345,-0.108875,-0.0149165,-0.00215004,0.0157102,0.033907,-0.0347418,0.0429978,-0.0252663,0.0194018,0.0151528,0.0698641,0.0162396,0.0439632,-0.016808,0.0102784,-0.0473624
10,0.0562624,-0.0142395,0.0184886,0.0381625,0.00287316,0.00368462,0.00412713,0.00959654,-0.00860285,0.0232794,0.0411497,-0.00745469,0.0150212,0.00589547,0.00169476,0.013393,0.00524629,-0.0219824,-0.0810361,-0.0526257,-0.0100201,-0.01579,-0.0209549,-0.00288456,0.0415276,0.00558796,0.0411324,-0.0139686,0.021405,-0.00734484,0.02428,0.0252644,0.0400817,-0.0175286,0.0174334,0.0399644,0.0291187,0.00679793,-0.0472754,-0.0689921,-0.012961,0.0267144,0.0169701,-0.0245361,-0.031975,-0.0475649,-0.0217332,0.0121424,0.000354909,-0.0251482,-0.0407976,0.0142394,-0.0420864,-0.0420297,-0.0490002,0.026416,-0.0134687,-0.066358,-0.0221585,0.0108196,-0.0419165,0.0150399,0.00589756,0.0546945,0.0156629,-0.0152148,0.0826092,0.0713178,0.0116271,0.0236776,0.0313058,-0.00912877,0.0152214,0.0304411,0.00287317,-0.00919272,0.00967963,-0.0962784,-0.0566455,-0.00939735,0.0280968,0.0181236,0.0185959,0.0110912,-0.00871521,0.0301818,0.0195062,0.03913,0.0217144,0.0444572,-0.0546603,-0.00221457,0.0749322,0.0349231,0.00175742,-0.0391519,0.0463115,0.0259119,0.00606386,0.0153495,-0.038471,-0.0352788,0.0165882,0.00280891,0.00422184,0.0114383,-0.0403713,0.0251421,-0.000835945,-0.00439009,-0.0115061,0.00232288,0.0260994,0.00808859,0.0215794,-0.0299419,0.0182636,0.0107294,0.00751203,0.0144749,0.0817686,0.0527156,0.0488264,0.0176124,0.0541751,0.0206634,0.0176008,0.0191231,-0.0593619,0.00441757,-0.00418279,-0.0115078,-0.017085,-0.0475719,-0.0672753,-0.00405996,0.0484569,0.0525664,-0.0271297,-0.0859364,-0.0443308,-0.050707,-0.00563795,-0.0439508,-0.0180984,0.0333051,0.0160244,0.0235037,0.00777995,-0.0346449,-0.0119774,0.000215989,-0.0167157,-0.0400414,-0.00664092,0.00736659,0.00406664,-0.004414,-0.0128867,-0.0169349,-0.0275039,-0.0151692,0.0253777,0.0590342,-0.000239666,0.0396312,0.0379089,-0.00227773,0.0405542,-0.00716369,-0.00448015,0.0283206,0.0378813,0.00891536,0.0121624,0.0177788,-0.0209112,-0.0219191,-0.000684264,0.0102387,0.0295936,-0.00365151,0.0279607,0.0820562,-0.00531753,0.0157967,0.024841,0.0248071,-0.0350977,-0.0134899,0.0490583,-0.0435471,-0.0368813,-0.0311367,-0.0281669,-0.037393,-0.0361128,-0.0150185,-0.0296994,0.0314427,-0.00634176,-0.0368683,-0.0152828,-0.0248268,-0.0529668,-0.0141459,-0.0155026,-0.022515,0.00397823,0.0571087,0.0452669,-0.0240175,0.0581417,0.0154478,0.00106235,0.036762,0.0165105,0.0138758,-0.00443132,0.0225482,-0.000436893,-0.00973561,0.0673176,0.0102956,0.0212109,0.0624913,0.0682394,0.0346781,-0.00498498,0.0459135,-0.0143189,-0.0160226,0.0665878,0.0590227,0.0969473,-0.0309379,0.0501588,0.0647087,0.0651163,8.02371e-06,-0.00309821,0.00712875,0.0283813,0.052692,0.0238952,-0.0198418,-0.0096298,-0.0203924,-0.000391354,0.0287463,0.0142143,0.014852,-0.00887373,-0.0368919,0.0376991,-0.0149194,0.0334702,0.0942062,-0.010846,0.0242797,-0.00424415,-0.033531,-0.0502614,-0.00439591,-0.0234457,-0.0405613,-0.0314059,-0.0345551,-0.0331243,0.0233236,-0.0398152,-0.013614,-0.0202769,-0.0636756,-0.0519253,-0.0539883,-0.0194502,-0.00445941,0.0567417,-0.00817777,-0.0838986,-0.0407299,-0.00123949,-0.0231475,0.0117568,0.0255402,0.00274982,-0.00662545,0.015154,-0.0404345,-0.0229289,-0.00895199,-0.00739119,0.0132663,-0.0391119,-0.0387165,-0.0169243,-0.0245479,-0.00177582,-0.00339864,-0.0127188,0.0579471,-0.0351268,0.0112707,0.00961831,0.0285665,0.0554719,0.00181544,-0.0257754,-0.0321186,-0.00590364,-0.0310512,0.0598271,0.00803486,0.0526018,0.0161983,-0.0154122,0.00837856,-0.000552036,-0.0178011,-0.0234733,0.0305377,-0.00439183,-0.0339753,-0.0253147,0.00582167,0.0269032,-0.0637454,0.0491005,-0.0192867,0.037215,0.0251864,-0.0396358,0.013561,0.00523909,0.00252842,0.000806793,-0.00411116,-0.0486154,-0.0301945,-0.00416313,0.00894824,-0.00693303,-0.0014749,0.00846184,-0.035577,-0.00444981,0.0250083,0.00450839,0.0055218,-0.00883247,0.0193499,-0.0124477,-0.0264111,0.0289494,-0.00409074,-0.0183366,0.00723649,0.00853322,0.0129624,0.0759107,0.0381042,0.00355183,0.0681624,0.0132153,-0.00159545,0.0205332,0.010334,-0.0116323,0.00385359,0.000189915,0.000761623,0.019715,0.0333369,-0.0323974,-0.0854246,-0.106684,-0.00030622,0.0838823,0.0305994,0.0295596,0.00148394,0.0234827,0.00331646,-0.00499376,0.0537946,0.0384983,0.00892851,0.0274621,-0.051131,0.00257314,-0.0296479,0.0715876,0.0675308,-0.00622602,0.0213986,0.0148258,-0.0725891,-0.0207424,0.0239543,-0.013505,-0.0862774,-0.0440599,-0.0553364,0.00803572,-0.0397821,-0.0431116,0.0173159,-0.0152408,0.0195611,0.0258543,0.0363063,-0.00451247,0.0211898,0.00824483,-0.043875,0.0174107,-0.00631929,-0.0114671,-0.0138235,0.020213,0.0120398,0.00755785,-0.00487016,0.0223231,0.012391,-0.0147616,-0.0223422,-0.00289979,-0.00123671,0.00522505,-0.041882,-0.018532,0.00213825,-0.0653252,-0.000295006,-0.00269149,-0.0230294,-0.0473452,-0.0424593,-0.0636165,-0.0405906,0.0496013,-0.0608691,-0.0704787,0.0269111,-0.0847044,0.0827436,0.0120495,0.0371382,0.00707263,0.0107927,-0.0262401,0.00466629,-0.0167154,0.0433809,0.0283836,-0.0392268,-0.0244786,-0.0236316,0.00514389,0.0315505,-0.0164649,-0.00321904,0.0221364,0.00934874,0.00589335,0.0298423,-0.0398315,-0.0888072,-0.0459703,-0.0262278,-0.0652622,-0.0185475,0.0393737,0.0319407,-0.000956412,-0.00680219,0.0124407,-0.0624885,-0.018607,-0.0124221,-0.000642591,-0.0183158,-0.0183588,-0.0305101,-0.016896,0.0164123,0.00681671,-0.0130857,0.000275418,0.030139,0.0245321,0.0641471,0.0620441,0.00411664,0.0417066,0.0414008,0.0179841,0.0211287
11,-4.13464e-05,-0.0536477,-0.00569574,0.0340933,-0.00352804,-0.00211603,-0.054359,-0.000818955,0.0214878,-0.0112351,0.00689996,-0.0260698,-0.0399785,-0.0514733,-0.00104273,-0.006316,0.0086385,-0.0169952,-0.0919763,-0.0359129,-0.000434564,0.0042456,-0.0251109,-0.017766,0.0298789,0.0163398,0.0281712,-0.00806142,0.00588355,0.00893936,-0.00451964,0.0149863,0.0129789,0.00655889,0.0337224,0.00637529,0.0440156,0.0407265,-0.0196351,-0.042628,-0.0129443,0.0130525,0.0241406,-0.0158753,-0.0402662,-0.0572048,-0.0530263,0.0120029,0.019017,-0.000717758,-0.0228097,0.00545866,-0.0573254,-0.0165616,-0.0212293,0.0301211,-0.00646792,-0.0212362,-0.0162958,-0.0120712,-0.0370982,0.00523664,0.0357564,0.0424879,0.0104354,0.0378027,0.0791481,0.0538739,0.0195932,0.0383733,0.0386108,-0.00576614,0.0311585,0.0471579,0.0132362,0.00929066,0.0450888,-0.0787864,0.00685095,0.00907183,-0.00928841,0.0166169,0.0304262,0.0131744,0.00613768,0.0872346,0.0438759,0.0269127,-0.00888438,0.013481,-0.0527728,0.00607301,0.0640049,0.0169724,-0.00972061,-0.0512093,0.0139038,0.0451566,0.0298473,0.00446084,-0.0392507,-0.0401024,-0.0049561,-0.0677681,0.0187729,0.0137486,-0.0692247,0.00226489,-0.00215537,-0.0534789,0.0137048,-0.000516613,0.00922513,0.00795246,0.0584789,0.00921499,-0.00350125,-0.0301345,0.0232773,-0.00439712,0.0680233,0.0177802,0.0348857,0.0370854,0.0769464,0.00675835,-0.00309447,-0.014263,-0.0282764,-0.016376,0.0438951,0.0271905,-0.0427357,-0.0660699,-0.0117105,0.0362204,0.0183736,-0.0108312,-0.0509282,-0.0447144,-0.0368065,-0.0439875,0.0085435,-0.048344,-0.0142284,0.0110935,0.0547897,0.0187794,-0.00597933,-0.0374455,0.012631,0.00456042,0.000536217,-0.000133312,0.00706076,-0.000627809,-0.0157661,0.00278967,-0.0300706,-0.037478,-0.0178875,0.0390821,-0.0015189,0.0199375,-0.0563084,-0.000684683,0.0188664,-0.0382426,0.050433,0.00941456,0.0261246,0.0317705,0.028336,0.0246368,0.025121,0.0232277,-0.0132925,-0.0012821,-0.0110569,-0.00409288,0.02315,-0.0254836,0.0500183,0.0694478,-0.00441997,0.0890455,0.0410276,-0.00834642,-0.0386616,0.0128582,0.0778415,-0.0540362,0.00450229,-0.0347996,-0.0193302,0.00913343,-0.0223802,-0.0296616,-0.0494157,-0.00542902,0.013159,-0.0502349,-0.00506969,-0.0132842,-0.0283015,-0.0146914,-0.0121919,-0.051488,-0.0174462,0.0363867,0.0229104,0.0118825,0.0499154,0.0200675,-0.0209013,0.00421905,0.0194319,-0.0674535,0.022941,0.0649242,0.0205866,-0.0342531,0.119701,0.0292387,0.0251142,0.0505086,0.0569493,0.0787074,0.0264092,0.0886027,0.0573018,0.0278591,0.0423138,0.0412467,0.0467128,0.0449695,0.00381859,-0.0546502,0.0225378,-0.00270843,-0.00360966,0.0262659,-0.00481629,0.0314016,-0.00998915,-0.0518456,0.00126938,0.0145479,0.0042428,0.00282476,0.0265109,0.00387998,-0.00594141,0.0117714,0.0616628,0.0303054,0.0126579,0.0558402,-0.0257485,-0.00822348,-0.0384997,0.0114494,0.0181194,-0.0379215,-0.0367546,0.0332313,0.0221873,0.00301535,0.0270134,0.043458,-0.0481133,0.00736602,0.0523725,-0.0974674,-0.0465739,-0.0047741,0.00126151,-0.0247757,-0.000194668,0.00843358,-0.0494328,-0.0286043,0.000475301,-0.0467711,-0.0268627,0.0227171,-0.011454,-0.00895755,-0.00222909,-0.0697188,-0.00283151,-0.0124753,-0.00983816,-0.00735393,-0.0327093,-0.00240762,-0.00685104,-0.0374487,-0.0210085,-0.0135817,-0.0368721,0.0127537,-0.0399003,-0.0211966,-0.00115853,0.0103512,0.0407796,-0.0464621,-0.0249894,-0.0218861,-0.0146473,0.0217744,0.0266785,0.0406833,0.0442981,-0.0473047,0.0228083,-0.00252719,-0.0200113,0.00169307,0.0256705,0.0233063,-0.0187291,-0.032733,-0.00305735,0.0266319,0.000371171,-0.0472261,0.0619865,0.000339834,0.0310069,0.0342638,0.024811,0.0255749,-0.00222231,-0.0034029,-0.00593406,0.0141815,-0.00254936,0.00645391,0.0337543,-0.0132563,-0.0284766,0.0188802,-0.0102301,-0.0260648,0.0229777,0.0115157,-0.0464885,0.00838241,-0.00508922,0.00336909,0.0131764,-0.0235028,-0.0427292,-0.0167143,-0.0360389,-0.00775882,-0.00196448,-0.00993061,0.00152872,0.0199247,0.0358297,0.0393312,-0.0168735,-0.0225576,-0.0142057,0.00171866,-0.0130324,0.0364697,0.0485127,0.036318,0.043496,0.0500359,0.00371353,-0.0924638,-0.0794564,0.0240927,0.104176,0.00941412,0.0517132,0.0690109,0.0569728,-0.022153,0.0518475,0.0378906,0.0516343,0.0145149,0.00382828,-0.0654594,-0.0186127,-0.0120048,0.0124449,0.00761242,0.031611,0.0308977,0.0297306,-0.0465977,-0.0933913,-0.0191514,0.0117118,0.0465625,-0.0191461,0.0121836,0.0453756,0.0384744,-0.0256269,-0.0191247,-0.0157933,-0.0271585,-0.0259413,-0.0244467,0.00317562,-0.0107105,0.0677573,0.019763,0.0215729,-0.0300779,0.0167746,0.0145141,-0.00785482,0.00134413,-0.00227572,0.00734728,-0.00790308,-0.0493314,-0.00218629,-0.025593,-0.0423931,-0.0246754,0.0445148,0.0423428,0.00780986,-0.00458391,-0.0323116,-0.0252646,-0.0170531,-0.0369137,-0.0258524,-0.00247919,-0.0293739,-0.0350984,0.0230267,-0.0447645,-0.0476465,0.0389875,-0.00693385,-0.00355266,0.00380824,-0.0414212,-0.0472967,-0.0255314,-0.00887477,0.0529532,0.0340201,-0.0328957,-0.00304223,0.0021195,0.0136535,0.010855,0.0219354,0.0553081,-0.0809881,-0.0311445,0.0138793,-0.0436713,0.018295,0.00514499,-0.0506584,-0.0629976,-0.0313863,-0.0353815,-0.0696494,-0.0330267,0.00160914,-0.01027,-0.09645,-0.00970679,-0.0199758,-0.0243184,-0.0168587,-0.0127013,0.0185691,0.00799862,0.00979321,-0.0304225,-0.0598111,-0.0146735,-0.0378755,-0.0416845,-0.0463408,0.00499304,0.030695,0.0182685,0.0309714,0.0193988,0.0403361,0.0358604,0.0307662,0.0302883
12,-0.0452292,-0.107488,-0.0296955,-0.0387709,-0.0289303,-0.0670849,-0.0534148,-0.0519466,-0.0240225,-0.0733135,-0.0143603,-0.0477059,-0.0194213,-0.0279307,-0.0308402,-0.0279958,0.00868808,-0.0177441,-0.0265246,-0.0142999,-0.00377049,0.0124394,0.0219337,-0.00435828,0.0231224,-0.000515098,-0.0193593,-0.0449899,-0.0429087,-0.0422672,0.00217442,-0.0359955,0.0283668,-0.00664622,0.0456921,-0.0119404,0.00716492,0.0204655,-0.0324564,-0.0372813,-0.0372915,0.0115488,0.0255135,0.0290352,-0.0221334,-0.0199499,-0.00580988,0.0274331,-0.000573202,0.0393063,-0.003067,0.0225933,-0.0189176,-0.0362206,-0.0274481,-0.00996624,-0.00789547,-0.0330818,-0.0268992,0.0114919,-0.0532216,0.0121817,0.0497341,0.0095984,-0.00769752,0.038796,0.00596048,0.021632,-0.00561141,-0.037294,-0.00727884,0.0154153,-0.0166536,0.0050322,0.00501664,-0.0137504,0.0251736,-0.00849615,-0.0267366,0.0249938,-0.0488039,-0.00908212,-0.0217146,-0.0328234,-0.0353892,0.0168943,0.00163981,-0.0391479,-0.0774238,0.0247598,-0.0338558,-0.0232345,0.0332319,-0.0247056,0.00551115,-0.0303159,0.0391802,0.0621582,0.0581264,0.0712319,-0.0156979,-0.0651522,-0.00370784,-0.0604511,-0.0426611,-0.038927,-0.0572768,-0.0226495,0.0694749,-0.0192085,0.0465536,0.0288054,0.0553045,0.0453799,0.0376814,0.00900427,0.0538789,-0.00553076,0.0567945,0.0312143,0.0730956,0.0674627,0.0452216,0.0299329,0.0596286,0.00686446,-0.0161671,0.083898,0.0497164,-0.00733463,0.0382254,0.0446277,-0.00121697,-0.0307611,-0.0340526,0.0217497,0.0386395,-0.0232185,-0.033885,-0.0261218,0.0098807,-0.00307813,0.0393528,-0.0122827,-0.0536589,0.00802563,-0.00698157,-0.0211546,-0.00689629,-0.0122179,0.0388537,-0.0015498,-0.00427886,0.0199139,0.025499,0.0128063,0.000442049,0.0129168,-0.0272784,-0.0453792,-0.074108,0.00417849,0.0181372,-0.0120409,-0.0763068,-0.027008,-0.00452168,0.00748356,0.0282166,-0.0159588,0.00209704,0.00636228,-0.0138514,-0.00304569,0.0206698,0.021118,-0.0121923,-0.00838068,-0.0170686,-0.0109783,0.0152392,-0.0474409,0.0164239,0.0169625,0.00534333,0.0229589,0.00471147,-0.00430011,-0.036377,-0.0576179,0.00923114,-0.0167366,-0.0146769,-0.0661932,0.0102867,-0.00014985,-0.00491369,-0.000616248,-0.0627467,0.0102353,0.00550141,-0.0395548,0.00778846,-0.0034492,-0.0156525,-0.00643856,-0.00760619,-0.00451499,0.00103018,0.0847862,0.0444568,0.0464196,0.0732833,0.0361216,-0.0118525,0.0030097,0.0138629,-0.0391808,4.50275e-06,0.0102284,0.0515448,0.0392405,-0.0285784,0.016979,0.0298891,0.0177821,0.0459944,0.0160389,-0.0180099,0.0309832,0.0332455,0.0184224,-0.0186992,0.042354,0.00755028,0.0016855,-0.0206706,-0.0376916,-0.00252556,0.00304681,-0.034919,-0.0121487,-0.0306502,0.0113458,-0.0189573,-0.0642406,-0.00989071,-0.00641893,0.0105479,0.0232861,0.0175055,0.0412988,-0.0214496,-0.0118305,0.0797605,0.0742995,-0.000212934,0.03167,-0.00449453,-0.0133765,-0.00284332,-0.0149288,0.019857,-0.0193429,-0.0668618,0.0287098,0.03154,0.0430161,0.0623897,0.00899947,-0.0264554,0.00418199,0.0170367,-0.00497996,0.0190306,-0.0210597,0.0148269,-0.0536276,-0.0353979,0.0184934,-0.00233782,-0.056998,0.0455453,0.0103708,-0.00664822,0.00410543,0.00243519,0.00361522,-0.0383492,-0.0602848,0.0124249,0.0430169,0.00995868,-0.00616348,-0.023567,0.0222665,0.0176988,0.0163662,0.00652049,-0.0259355,-0.0301171,0.0350673,-0.0364266,-0.00625163,0.0365279,0.026619,0.00745425,-0.010921,-0.0584534,-0.0236223,-0.0458708,-0.0315769,0.0225051,-0.000153617,-0.0498351,-0.0505602,-0.0449947,-0.0315615,-0.0441659,-0.0117094,-0.00281247,-0.00380013,-0.0462976,-0.0588599,-0.00447796,0.0514854,-0.0298846,-0.0615787,0.0320759,-0.0157067,0.0125239,0.0138102,0.0102808,-0.0166068,-0.0262166,-0.0105314,0.000387229,-0.00190387,0.0639181,0.0708563,0.0611313,0.023461,-0.0142855,0.0322964,0.0417493,-0.0200652,0.0372656,-0.020675,-0.00409308,-0.000796624,-0.00387404,-0.0242377,0.0213269,0.0189012,-0.00939044,0.0143279,-0.0199878,0.00473013,-0.013209,-0.0154255,0.0135155,0.000847296,0.0276899,0.0210134,0.0141867,0.00898303,-0.0295622,-0.0154918,0.011764,0.0204436,0.0379944,0.0288267,0.0064673,0.0168427,0.00224959,-0.0427804,-0.0780308,0.0357628,0.0499936,0.0158426,0.0225326,0.0515627,0.0441953,-0.0199255,0.0270421,0.0173119,0.0106005,0.0280117,-0.00882926,-0.0208882,-0.0214521,-0.0541296,-0.0167999,-0.0115621,-0.048744,-0.00569918,-0.0349587,-0.041934,0.00947091,0.00545168,0.0210788,0.058968,-0.0343499,0.0275749,0.0816327,-0.016238,-0.0432458,-0.0439055,0.0141523,0.00454268,-0.0453427,0.00860299,0.00190425,0.0428877,0.076671,-0.0146975,0.00830161,0.0523179,0.0305002,0.026442,0.0486786,0.0340823,0.073686,0.0123739,0.0519863,0.0219174,-0.0425748,0.0210179,0.00506635,0.0404938,-0.0418536,-0.0273298,0.000779906,0.0320115,-0.0287616,0.0197038,-0.0105484,0.0391,-0.0440389,-0.0232511,-0.00392708,-0.0771192,-0.0277873,-0.0469565,0.0343658,0.023919,0.0355424,-0.0132643,-0.0305704,-0.0602114,-0.0645397,0.00781158,-0.00238692,0.00378666,0.107469,-0.00256502,-0.0363022,-0.012276,-0.00779824,0.0238504,0.0210581,-0.0145733,-0.022806,-0.0584957,-0.0281534,-0.0153689,0.00162536,-0.0121743,-0.0261071,-0.0433644,-0.0357046,-0.0336609,-0.0492073,-0.0312314,-0.0212623,0.0199606,-0.0147076,0.00279598,-0.0262582,-0.044343,-0.000819221,-0.0456603,0.0207056,-0.0257838,-0.0418955,-0.0406971,-0.0173848,0.0361564,-0.0513636,-0.0721573,-0.047174,-0.00210766,-0.00141003,0.0107305,0.00714702,-0.00613342,0.0565463,0.0287263,0.0177574,0.0511523
13,-0.0388973,-0.112078,-0.0513058,-0.0111827,0.0196071,-0.0210527,-0.0204655,-0.0517203,-0.0647257,-0.0454077,-0.0217477,-0.0223012,-0.0226885,-0.0220504,-0.0247265,-0.0570073,0.0223412,-0.00262119,-0.00726485,0.00193596,-8.24696e-06,0.012677,0.0344588,-0.00123383,0.0384667,0.0441415,-0.00424983,-0.0487057,-0.0223877,-0.019149,0.00328821,-0.0256306,0.0236599,-0.0317258,0.0486245,0.0146486,-0.0162478,-0.00239752,-0.0499251,0.0257935,-0.00354425,-0.00838716,-0.0243264,0.0788668,0.0211955,0.0088399,0.00552519,0.00865352,-0.0372299,0.0427193,-0.0230417,-0.0105167,0.0101715,-0.00054791,-0.0292423,-0.0246649,0.0283603,-0.00591067,-0.0112779,0.028113,-0.0137867,-0.00272403,0.00315098,-0.00167875,-0.0297088,0.0572198,0.00235158,-0.0062431,-0.00836604,-0.0386986,0.00111153,0.0182343,-0.0291562,-0.00439279,0.0245482,0.0026156,0.0367835,0.0579087,0.0291242,0.0412491,-0.0134292,-0.0297632,-0.0441115,-0.0234788,0.0390804,-0.0181082,-0.0260278,-0.0245285,-0.0284466,0.0094551,0.0185017,-0.00742425,0.00428477,-0.021539,0.0231312,0.0495522,0.0904494,0.0335113,0.0524471,0.0445163,-0.0143511,-0.0681241,-0.0191987,-0.0497142,-0.0541531,-0.0875696,-0.0639118,-0.0570569,0.0268608,-0.0445634,0.0458541,0.0477645,0.0170579,0.0751464,0.0215428,-0.00728865,0.0395607,0.0297845,0.0760033,0.0573985,0.00217679,0.0830426,0.0750539,0.0371173,0.0283103,-0.0316285,-0.0798047,0.0182818,0.00920992,-0.0279688,0.000683966,0.00631793,-0.0211485,-0.00331591,-0.00706278,0.00777064,0.0281795,0.0112538,0.0152996,-0.0163562,0.0262303,0.00715686,0.00104902,0.0162443,-0.0658057,-0.0714262,0.0153935,-0.0525322,-0.048346,0.0142294,0.00676112,0.0137523,-0.015912,0.0355612,0.0121248,-0.0325119,6.12241e-05,-0.0404783,-0.025519,0.00441896,-0.0556608,-0.0465495,0.0317673,-0.00848494,-0.0352979,-0.0220399,0.0140002,0.0178254,-0.0217948,-0.0249397,-0.00830819,-0.00913628,-0.0192581,-0.0449555,0.00597587,0.0188887,-0.0234861,0.00274761,0.00449344,0.00914566,0.0239665,-0.0239187,-0.0120871,-0.00727352,0.0274939,0.0149489,-0.00256731,0.0112933,-0.0125485,-0.0564152,-0.0296164,0.0117918,0.0430942,-0.013153,0.0173864,0.0084536,0.0154318,0.0225357,-0.0511892,0.0245438,0.010244,-0.0174047,0.00247047,0.00958452,0.0286773,0.0309977,0.0175945,0.0120317,-0.00568819,-0.00955028,0.00786232,-0.00985134,0.00855259,0.0271395,0.0398445,-0.015958,-0.0196004,-0.0659667,-0.0696108,-0.0158279,0.00218699,-0.00567559,-0.0529495,-0.00159861,-0.0230424,0.0629197,-0.0124388,-0.0374106,-0.0513138,0.0176035,-0.019474,-0.0157474,0.0625937,0.00138497,0.0197994,-0.0114931,-0.00650966,-0.0403954,-0.0179919,-0.00861627,-0.0236781,-0.0206127,0.0220309,0.00296826,-0.00296952,0.0141336,-0.0158775,-0.0242722,-0.00686869,0.0236956,-0.0346548,0.0334682,-0.0353521,-0.00387718,0.0586889,0.0238962,-0.0240471,-0.0151111,0.0448529,0.0138703,0.0397905,-0.00654389,0.0106639,0.0166203,-0.0705226,-0.00201319,0.0267964,0.0113155,0.035537,0.0178868,-0.00388449,0.0109789,0.0261389,0.0221901,0.0123436,0.0262788,0.00871502,0.030472,-0.027196,-0.00999693,0.0114958,-0.010323,0.0132726,0.0131243,0.0223293,0.0584405,0.00902064,0.0131769,0.0193826,-0.0259862,0.0193941,0.0135731,0.0081971,0.0518871,0.0105942,0.00470133,0.0212013,-0.00207063,0.0210121,0.00379049,0.0177247,0.0499927,-0.0244878,-0.024095,0.0374142,0.0212868,-0.0261056,0.0642001,0.00680814,0.00190177,-0.0144794,-0.0380387,-0.00461992,0.00963047,0.0133827,-0.0533295,0.022251,-0.00361663,-0.0203645,-0.0102627,-0.0378807,-0.00501818,-0.0374084,-0.0381242,0.0346239,0.00357732,-0.030227,-0.0173703,0.0130591,-0.0535843,-0.0153508,-0.0242591,-0.014515,0.0174035,-0.02999,-0.0190915,-0.00687222,0.0119537,-0.000335618,0.0334732,0.00889736,0.0137287,0.0250342,0.00170371,-0.0194338,-0.0018757,-0.0158835,-0.0382008,0.0165009,0.00464286,-0.0115056,-0.082427,0.0321314,0.00523309,0.0345365,0.0134208,0.00709832,0.0518584,0.0123153,-0.0189893,0.0313011,-0.00373935,0.0336366,0.033871,0.00362789,0.0261712,0.0242307,-0.00536222,0.0160538,-0.0352715,-0.0169452,-0.00010671,-0.0298823,-0.0223397,-0.0212803,-0.0315793,-0.0489266,-0.0623599,0.0142664,0.0511434,-0.018684,0.0186405,0.0414878,-0.0790712,0.0263534,-0.0155407,0.0626292,0.0603587,0.00314042,-0.0623536,-0.02302,-0.0185118,-0.00094429,0.0363504,0.0460848,-0.0502111,-0.024323,0.0323811,-0.0171776,-0.0322352,0.00968435,-0.0227783,-0.0104735,-0.0336712,-0.0187315,0.0128712,0.0258129,-0.00411835,0.052017,0.0353435,-0.0144794,-0.0394404,0.0160123,-0.0500982,0.044863,0.0339955,-0.0255066,0.0451755,0.0202508,-0.0395449,0.0258994,0.034349,0.0507934,0.0192594,-0.0298008,0.0140304,-0.0332361,-0.0190726,0.0211255,0.0105878,-0.0307055,-0.0219843,0.0146694,0.0279581,-0.0353676,0.0358549,0.0318722,-0.00925847,0.0119872,-0.0115106,-0.0298955,-0.00339922,0.035791,0.00971429,0.0423602,-0.0334731,0.0149484,0.0494295,0.0433719,0.0061259,-0.0187653,0.0193534,0.098883,-0.0247065,-0.0766561,0.0652962,-0.0234673,0.05517,0.00598569,0.0401308,0.033208,0.0219486,-0.0191679,-0.0532006,-0.0322488,-0.025424,-0.0272699,0.0196146,-0.00663333,-0.0488867,-0.0191795,0.0182509,-0.0331874,0.0487942,0.0237712,0.0427481,0.0116747,-0.0228948,-0.0171014,-0.0273832,0.00954921,-0.0037993,0.0146481,0.0291542,0.0443934,0.041786,0.0482323,0.046295,0.0155678,-0.0691214,-0.0977924,-0.0450527,-0.0138116,-0.0171198,-0.0258689,-0.0436255,0.015827,0.0227136,-0.00772896,-0.0245421
14,0.00574474,-0.0538313,0.00410754,0.0433904,0.0350947,0.022044,-0.0149459,-0.0337956,-0.0664913,-0.0187949,-0.0422583,-0.0348037,-0.0310577,-0.0571362,-0.0332846,-0.0229927,0.016996,0.0102945,0.0661052,0.0324858,0.031362,0.0411189,0.080322,0.0135186,-0.00270057,0.0559875,-0.00588188,-0.00312195,0.00700242,-0.00810887,-0.0365591,0.0021775,0.0272759,-0.0526671,-0.01354,0.00424734,-0.0482284,-0.0481493,-0.0153887,0.0273559,0.0135547,0.00660582,-0.0355232,0.0179234,0.00398866,0.0192185,0.0216031,-0.0153055,-0.043256,0.040646,-0.0134614,-0.0437995,0.0102529,0.0156329,-0.00846467,-0.0331881,0.0271562,0.0276329,-0.0188694,0.0132415,-0.00923998,0.0248091,-0.0128798,-0.0210566,-0.0170757,0.0361725,-0.0259482,-0.0284358,-0.0273091,-0.0141042,0.0181335,0.000501049,-0.0149561,-0.0497634,0.0165603,0.0416988,0.0574336,0.0330988,-0.000127056,0.0196411,0.0718903,-0.0386799,-0.045009,-0.0114753,0.0822819,0.0122269,-0.0646365,-0.0187702,-0.00311726,-0.0108776,-0.000557546,-0.0214117,0.0022463,-0.0157241,-0.05022,0.00566383,0.096435,0.00896943,0.0150915,-0.00925756,-0.0439182,-0.0428283,-0.020327,-0.0112966,-0.107943,-0.094812,0.000532618,-0.0755218,0.00329068,-0.00779651,0.0405418,0.0225903,-0.0237842,0.0635144,0.0234356,-0.0482901,0.00864416,0.0206062,0.0108964,0.0165112,-0.000842767,0.018888,0.0451994,0.0580338,0.0237582,-0.0294422,-0.0267423,-0.0075735,0.0231569,-2.63342e-05,-0.0118007,-0.0498402,-0.0302621,0.0181299,0.0597698,0.0172822,-0.0111389,0.0289167,-0.00850464,-0.0105867,-0.0559158,-0.0473552,-0.0346061,0.00479103,0.01007,-0.0214857,-0.0129093,0.0549186,0.0567303,0.048034,0.0251371,-0.0102035,0.040405,0.0276893,-0.00794728,0.0046637,0.0273129,-0.0276754,-0.0021886,-0.0128073,-0.028273,-0.0392848,0.0368003,0.0385195,0.0445848,-0.0337895,0.0252101,-0.0257183,0.0038941,0.012025,-0.00602862,-0.0634939,0.0234831,0.0388501,0.0298521,0.0061474,0.0292982,0.0229669,0.0447635,0.0367946,0.0402985,0.0724901,-0.0132964,-0.00303587,0.0401254,0.038398,0.0628521,0.0173163,0.0404727,0.0206366,-0.034714,-0.0195544,0.0207454,0.0166388,0.00956984,0.0564093,0.0164799,0.0319597,-0.00970965,-0.0286672,0.00267696,0.00191295,0.0139078,0.0208224,0.0360018,0.0433746,0.0501961,0.0142094,-0.0148924,-0.023612,0.00582241,-0.0233762,-0.0624519,0.0295158,0.000896465,-0.0111631,0.0564253,-0.048172,-0.00632371,-0.00576,-0.0319286,-0.0108165,-0.0786289,-0.0322791,-0.0353049,0.0219847,0.00497241,-0.0180932,-0.0358038,-0.035732,-0.0432885,0.00696637,-0.00576562,0.0190271,0.00211857,-0.0175981,-0.0170429,0.0041784,0.00926831,-0.0390508,-0.0330033,-0.0360308,0.0241459,-0.0263109,-0.0173819,-0.00972259,-0.00503839,-0.0116957,-0.0153284,0.0250322,0.0251792,0.0208992,-0.0188041,0.0365983,0.0664316,0.00920153,0.0132235,-0.0259092,0.0576132,0.0107862,0.0209389,-0.067405,0.00240623,-0.00319933,-0.0869328,-0.0124338,-0.0155067,-0.0186249,-0.00136016,0.0281092,0.0108928,-0.0075659,-0.0402406,0.0373652,-0.0164207,0.0172777,0.0489737,-0.00215353,0.0109616,0.0206771,-0.0568486,-0.0245421,0.0340345,0.0210213,0.0421484,0.0151686,0.0290857,0.0146845,0.0599186,-0.0135638,-0.0175785,-0.00503466,-0.0483412,0.0393572,0.0390856,-0.0160173,0.00217727,-0.00581682,0.0161228,0.0111591,0.0376239,0.0410907,0.0194491,-0.00190814,0.0100645,0.0141645,-0.0155734,0.0740969,0.00473058,-0.000251775,-0.0101252,-0.0491001,-0.0198705,-0.0129544,0.0215571,0.0134242,0.0629956,0.00223036,0.00382039,-0.0487371,-0.0312904,-0.00969362,-0.00862762,0.00122361,0.0357148,-0.0245223,-0.0103007,0.0255119,-0.0245364,0.0205905,-0.0381869,-0.00692878,0.0235905,0.0447055,-0.0111616,-0.000369891,0.00934429,0.00720575,0.0554256,0.0402532,-0.00515805,0.0232538,-0.0147712,-0.0575204,-0.0446001,-0.0298177,0.00573707,-0.0166161,0.00998812,0.0285185,0.0321729,-0.00218042,0.0546813,0.0234138,0.0355403,0.00127813,-0.00830624,0.0108286,-0.00458568,0.00141049,0.0556851,-0.0105658,-0.00145926,0.0213382,-0.0495677,-0.0114355,0.0147162,-0.0019364,0.0186801,0.0170135,-0.000784389,-0.00310131,0.00444936,-0.0155201,0.00461252,-0.00867518,0.00168473,-0.0632945,-0.0113759,0.000354067,0.0535498,-0.0254071,0.0066842,0.0309771,0.0256632,0.0321733,0.047578,-0.00689263,-0.023761,-0.0487145,-0.0291167,0.0126429,0.0195202,0.0329921,0.0372337,0.00888499,-0.0182137,0.0487181,0.0306585,-0.012024,0.00622327,-0.0236537,-0.000859741,-0.0209552,-0.000386513,0.0472011,0.0104509,-0.000721614,-0.0118992,0.0101011,0.0599018,-0.0529748,0.00646537,-0.055843,0.00325726,-0.0609585,0.020771,0.0516501,-0.0140294,0.0340496,0.0352456,-0.0464858,-0.0566324,-0.0554729,-0.0198657,-0.030597,-0.0534553,-0.0319326,-0.0616121,-0.0595987,0.116986,0.040616,0.0162897,-0.000654258,-0.0330529,0.018361,0.0572929,0.00248341,-0.00480101,-0.0311002,-0.00397857,-0.022575,-0.0276503,-0.0417173,-0.0136062,0.00341575,0.000474307,0.00632874,-0.00144769,-0.0478696,-0.0274058,0.0484835,-0.0233826,-0.0456521,-0.0117035,-0.0273433,-0.0391526,-0.0107497,-0.0602434,0.0403444,0.0165292,0.00482458,0.00645968,-0.0580932,-0.038849,-0.0269988,-0.0102103,-0.0155262,0.0680547,0.0113278,0.0327087,0.0584682,0.00709763,0.0241873,-2.21328e-05,0.00847658,-0.0194114,-0.0586593,0.0315306,-0.10214,-0.0189702,-0.035496,0.0258844,0.0336775,0.0258072,0.0475074,0.0549155,-0.0207452,0.0377968,-0.0345307,0.00160719,0.0205786,-0.0184294,-0.0329051,-0.0141933,-0.00962464,-0.050558,0.0149618,-0.0266109,-0.0618229
15,-0.0258624,-0.0173662,-0.00993734,0.115594,0.0319807,0.0452731,0.0283407,0.0184095,0.00812009,0.0082667,-0.00774413,-0.0236189,-0.0389473,-0.00791635,-0.0334172,0.0317485,0.0339988,0.0225812,0.0682091,0.0444587,0.0252004,0.0184568,0.0601139,0.0354335,0.012246,0.0524892,0.0230298,0.0256772,0.0334134,0.0174668,-0.0314896,0.0330142,-0.0375491,0.00530778,0.00871219,-0.0270885,0.00400412,-0.00891761,-0.00104213,0.031002,-0.0284686,-0.022241,-0.0201914,-0.0568334,0.0558699,-0.0278669,-0.0154066,-0.0209553,0.00446028,0.00677193,0.0071731,-0.0324466,-0.0081307,-0.0118483,0.0365724,-0.0204891,0.0158962,0.0273785,0.00598731,-0.000309657,0.00248952,0.0250862,0.00388829,-0.0195579,0.013987,0.0215027,-0.0657034,-0.0425764,-0.0309367,0.0194706,0.0449723,0.027776,0.0131915,-0.0329448,-0.0380095,-0.0154796,0.0147642,0.0122053,0.0384469,0.0409189,0.108778,-0.0239333,0.0166896,0.033419,0.106065,-0.0198362,-0.0480059,-0.00372812,0.00487978,0.0167093,0.00703353,0.00770636,0.0098818,-0.0422963,-0.0302355,-0.0314893,0.0153637,-0.0465974,0.0147907,-0.0217943,-0.0485748,-0.0460609,-0.0179198,0.0366337,-0.0395479,-0.0824182,0.0599336,-0.0226339,0.0321322,0.0335487,-0.0254745,0.0209435,0.0374857,0.00848107,-0.0109522,-0.041882,0.0119335,0.0492002,-0.0121879,0.00757329,-0.00282857,0.0150758,-0.0182968,-0.00144008,0.00572926,-0.0377474,-0.0152697,-0.0232143,0.0287609,0.00603407,0.00852531,-0.0174088,-0.0107472,0.00439952,0.0144116,0.067275,0.0287009,0.000885909,0.010764,0.0157654,0.00745934,0.00867175,0.0472271,0.0345462,-0.0115428,0.0269236,0.000592442,0.0706308,0.0678744,0.0138806,0.0359293,0.0125852,0.0014588,-0.000253221,-0.0248687,0.0219664,0.0295465,-0.00115611,0.0168729,0.00141118,-0.0222738,-0.0464879,0.00360972,0.0311323,0.0186514,-0.010944,0.0591383,0.00639267,-0.00521804,-0.00615877,-0.0217724,-0.062533,0.00832121,0.0415324,0.0484712,0.0480203,0.035314,-0.00946613,0.0134887,0.0614166,0.0541921,0.0405675,0.0170267,0.0279023,-0.00890452,0.0652257,0.0192594,-0.00749698,0.0458214,0.0219516,0.0242926,-0.0448156,0.021155,-0.0130252,-0.0168826,0.0210635,0.00765967,0.0229661,0.063412,-0.0629414,-0.00183427,-0.0326912,-0.0355258,-0.0237699,-0.00215482,0.017117,-0.017362,-0.00905746,-0.00846879,0.017916,0.0515619,0.0259961,-0.0633762,0.0260161,0.0215862,0.00737217,0.00684727,0.0228672,-0.0177997,0.0195835,-0.0841988,-0.0114479,0.0207238,0.0512223,-0.0230013,0.00999455,0.0265883,0.0211557,-0.0261436,-0.0219254,0.0164466,0.0209412,-0.0281338,0.0774129,-0.0112304,0.0376553,-0.0576976,-0.0284134,0.0348812,-0.0088049,-0.00869348,-0.00539784,0.0203148,-0.057479,0.0322776,0.00782717,0.0160188,0.0289877,-0.0114206,-0.0136453,-0.0112774,0.0375913,0.0103384,0.0461679,-0.059783,-0.00503598,0.0209314,0.0129054,-0.0323348,-0.0248393,-0.043042,-0.0228419,0.0362869,-0.039612,0.00100534,-0.0139632,-0.0195572,0.0368912,0.053778,0.0570452,0.00470139,0.0189178,-0.00136726,-0.0341746,-0.0321667,0.00880467,-0.0519459,0.0106087,-0.0158976,-0.00793775,0.00459534,0.000212386,0.0478947,-0.000366503,0.00475884,-0.00543888,0.00357525,0.00843777,-0.011991,-0.0236303,0.0767633,0.0494652,0.0296559,0.0762369,0.0632207,0.0207128,0.00293364,0.0405079,0.0686656,0.00860183,-0.00107192,0.0210952,0.00794199,0.0119151,0.00778773,-0.0069467,-0.0294425,-0.00497225,-0.029828,-0.0289048,-0.0668081,-0.131913,-0.0428389,-0.0419474,0.00200667,0.0196494,0.0445527,0.00343756,0.030183,-0.00319178,-0.00475422,-0.0126825,0.0105604,0.037426,0.0469885,0.0200133,0.0292133,0.00428491,-0.0399902,0.0212009,-0.0110429,-0.0422203,0.0192378,0.0168181,-0.00114423,0.0234514,0.024372,-0.00133207,0.0399558,0.0259856,-0.0288755,-0.0154628,-0.0364501,-0.0255652,-0.00926627,-0.025281,0.0124233,-0.0295881,-0.0484557,-0.00871382,0.00422519,-0.030035,0.0289781,0.0260037,0.0253057,-0.0115868,0.021832,0.0382335,-0.00238869,-0.0371967,0.0909826,0.0130207,0.0277315,0.000480911,-0.030974,-0.0237692,-0.0164586,-0.018063,-0.029864,0.0563509,0.058676,0.0467353,0.0304431,0.0331887,-0.0295004,-0.0159949,0.0343499,-0.0272675,-0.0405429,-0.0434602,0.0250143,-0.075072,-0.0279101,-0.00251609,0.0117308,-0.00770966,0.0701895,-0.0277846,-0.0526274,0.00734109,-0.00125377,0.0203414,0.00891436,0.0161361,-0.0420566,-0.0524938,-0.00531322,0.00974483,0.00747901,-0.0188698,0.00887572,-0.00987293,0.0168662,-0.0122079,0.0125482,0.00517954,0.0101669,-0.000973586,-0.067337,-0.0426016,0.00197994,-0.0693362,0.0248367,-0.0312011,-0.00645548,0.00723144,0.081354,0.0176453,0.0258582,0.012295,0.00793007,0.0786432,-0.0426502,0.0604082,-0.060144,-0.044005,-0.117639,-0.0475484,-0.0590818,-0.060405,0.00074579,0.0147921,-0.0286714,-0.0321205,-0.0137074,0.000721903,0.0338215,-0.0264206,-0.0627829,-0.0588694,0.00711313,-0.0615223,0.051256,0.0207595,-0.00481818,0.00336365,-0.0593519,0.0134554,0.0376979,0.0101483,0.0169703,0.0027365,0.0255651,0.0584366,0.0307743,-0.0628132,-0.0281023,-0.0566827,-0.0614112,-0.0273918,-0.0378107,-0.00789799,0.0512235,-0.0504193,-0.04359,-0.0111551,-0.0350126,-0.0291232,0.0356569,0.0250528,0.0101532,0.0227883,0.00337941,-0.0273249,0.0135983,-0.0310256,-0.000673625,-0.0858928,-0.00877341,-0.0551739,-0.0157054,-0.0167439,0.0514526,0.00592458,0.0532929,-0.0292322,-0.0869519,-0.00871372,0.03118,-0.00119168,0.0246398,0.0033029,-0.0180243,-0.043249,-0.018373,-0.0150679,-0.0129779,-0.00543161,-0.0340477,0.00931961
